SVM-light Version V6.01
0 # kernel type
3 # kernel parameter -d
1.0 # kernel parameter -g
1.0 # kernel parameter -s
0.0 # kernel parameter -r
empty# kernel parameter -u
17 # highest feature index
2322 # number of training documents
685 # number of support vectors plus 1
1.0004116119103288 # threshold b, each following line is a SV (starting with alpha*y)
-1.20912100638401 3:1.0
1.20912100638401 1:1.0
-1.208477275308511 5:1.0
-1.20912100638401 1:1.0 2:1.0 16:1.0 17:1.0
1.20912100638401 3:1.0
-1.20912100638401 1:1.0 3:1.0
1.20912100638401 2:1.0 3:1.0 5:1.0 14:0.043310701847076416 16:0.6809136271476746 17:1.0
1.20912100638401 5:1.0 12:0.7200000286102295
1.20912100638401 1:1.0 3:1.0 5:1.0
-1.20912100638401 1:1.0 5:1.0
0.4823438729919811 1:1.0 2:1.0 16:0.7816818356513977 17:1.0
-1.20912100638401 12:0.6399999856948853 16:0.698809802532196 17:1.0
-1.20912100638401 1:1.0 2:1.0 16:1.0 17:1.0
1.20912100638401 2:1.0 5:1.0
-1.20912100638401 2:1.0 5:1.0
-1.20912100638401 5:1.0 12:0.800000011920929
1.20912100638401 1:1.0 16:0.769237220287323 17:1.0
1.20912100638401 2:1.0 5:1.0 12:1.0
-1.20912100638401 1:1.0 12:0.656000018119812 16:0.9017142653465271 17:1.0
1.20912100638401 2:1.0 4:1.0
1.20912100638401 3:1.0 5:1.0 14:0.06015909090638161 15:0.11905183643102646 16:0.5120726227760315 17:1.0
-1.20912100638401 12:0.7599999904632568 16:0.8421194553375244 17:1.0
1.20912100638401 12:1.0
1.20912100638401 2:1.0 3:1.0 5:1.0
1.20912100638401 5:1.0 12:1.0 15:0.04755135998129845
-0.6159959327392874 3:1.0 12:1.0
1.20912100638401 5:1.0
1.20912100638401 3:1.0 12:1.0
-1.20912100638401 4:1.0
1.20912100638401 12:1.0
1.20912100638401 4:1.0
-1.20912100638401 3:1.0 12:0.800000011920929
1.20912100638401 5:1.0 12:0.6399999856948853 15:0.04755135998129845 16:0.6985141634941101 17:1.0
-1.20912100638401 3:1.0 5:1.0
1.20912100638401 12:1.0
-1.2084679613386697 3:1.0 12:0.7200000286102295
-1.20912100638401 3:1.0 12:0.6399999856948853
-1.20912100638401 1:1.0
1.20912100638401 3:1.0 12:0.800000011920929
1.20912100638401 3:1.0
-1.1769257853177173 4:1.0
1.20912100638401 5:1.0
-1.20912100638401 3:1.0 5:1.0
-0.03207144490864855 4:1.0
1.20912100638401 1:1.0 3:1.0 5:1.0
-1.20912100638401 3:1.0 5:1.0
1.20912100638401 3:1.0
-1.20912100638401 3:1.0 12:0.5120000243186951
-1.20912100638401 3:1.0 5:1.0
1.20912100638401 3:1.0 12:0.7559999823570251
-1.20912100638401 3:1.0 12:0.6399999856948853
-1.20912100638401 5:1.0
1.20912100638401 3:1.0 16:0.7623306512832642 17:1.0
-1.20912100638401 3:1.0 12:0.5120000243186951
-1.20912100638401 3:1.0 5:1.0
1.20912100638401 3:1.0
1.20912100638401 3:1.0
-1.20912100638401 3:1.0 5:1.0
1.20912100638401 2:1.0 3:1.0 5:1.0
1.20912100638401 3:1.0
-1.20912100638401 3:1.0 5:1.0
1.20912100638401 3:1.0
-1.20912100638401 2:1.0 15:0.11905183643102646
1.20912100638401 5:1.0 12:0.6399999856948853
-0.1538332551921987 2:1.0 15:0.11905183643102646
1.20912100638401 2:1.0 3:1.0
-1.20912100638401 2:1.0 3:1.0 15:0.11905183643102646
-1.20912100638401 2:1.0 3:1.0
-1.20912100638401 1:1.0
1.20912100638401 5:1.0
-1.20912100638401 5:1.0
1.20912100638401 16:0.7103593349456787 17:1.0
1.20912100638401 1:1.0 3:1.0
-1.20912100638401 1:1.0 15:0.004950929898768663 16:0.5826719999313354 17:1.0
-1.20912100638401 1:1.0 2:1.0 16:0.9415050148963928 17:1.0
1.20912100638401 2:1.0 5:1.0
-1.20912100638401 2:1.0 5:1.0
-1.20912100638401 1:1.0 12:1.0 16:0.8156375288963318 17:1.0
-1.20912100638401 5:1.0 12:0.800000011920929 14:0.04241858050227165 15:0.026353834196925163
-1.20912100638401 5:1.0 12:0.800000011920929
-1.20912100638401 2:1.0 16:0.9269083142280579 17:1.0
1.20912100638401 5:1.0 12:0.6399999856948853
-1.20912100638401 5:1.0 12:1.0
-1.20912100638401 16:0.6759916543960571 17:1.0
-1.20912100638401 3:1.0
1.20912100638401 1:1.0 12:0.6800000071525574
1.20912100638401 2:1.0 3:1.0
-1.20912100638401 1:1.0 2:1.0 3:1.0 15:0.11905183643102646
-1.20912100638401 2:1.0 3:1.0
-0.5941034488228136 1:1.0 3:1.0
-1.20912100638401 5:1.0
-1.20912100638401 2:1.0 5:1.0
-1.20912100638401 5:1.0
1.20912100638401 1:1.0
-1.1551764406635066 1:1.0 12:1.0 15:0.010223610326647758
-1.20912100638401 1:1.0 2:1.0 3:1.0 15:0.11905183643102646
1.20912100638401 2:1.0 5:1.0
-1.20912100638401 1:1.0 15:0.00855030957609415 16:0.5833918452262878 17:1.0
1.20912100638401 2:1.0 5:1.0
-1.20912100638401 5:1.0
-1.20912100638401 1:1.0 2:1.0 16:0.9415050148963928 17:1.0
1.20912100638401 3:1.0
1.20912100638401 16:0.7596241235733032 17:1.0
-1.20912100638401 1:1.0 2:1.0 16:0.9399999976158142 17:1.0
1.20912100638401 12:1.0 15:0.05028887838125229
-1.20912100638401 2:1.0 12:1.0
-1.20912100638401 5:1.0 12:0.800000011920929
-1.20912100638401 5:1.0 12:0.7200000286102295
1.20912100638401 1:1.0
1.20912100638401 2:1.0 5:1.0
1.20912100638401 12:0.800000011920929
1.20912100638401 1:1.0
-1.20912100638401 3:1.0
-1.20912100638401 2:1.0 3:1.0
1.20912100638401 12:1.0 15:0.0017252500401809812
-1.20912100638401 12:1.0
-1.20912100638401 1:1.0 15:0.00855030957609415 16:0.6173475980758667 17:1.0
1.20912100638401 15:0.04668312892317772
-1.20912100638401 3:1.0
1.20912100638401 2:1.0 5:1.0
-1.20912100638401 5:1.0
-1.20912100638401 2:1.0 12:1.0
1.20912100638401 2:1.0 5:1.0
1.20912100638401 15:0.015734490007162094
-1.20912100638401 5:1.0 12:0.5759999752044678
-1.20912100638401 2:1.0 3:1.0
1.20912100638401 12:1.0
-1.20912100638401 5:1.0 12:0.800000011920929 15:0.016198759898543358
-1.20912100638401 5:1.0 15:0.018649369478225708
1.20912100638401 2:1.0 3:1.0 5:1.0
1.20912100638401 12:1.0
-1.20912100638401 12:1.0
1.20912100638401 2:1.0 3:1.0 5:1.0 15:0.11905183643102646 16:0.7371317148208618 17:1.0
-1.20912100638401 2:1.0 5:1.0 14:0.030710624530911446 16:0.5153552889823914 17:1.0
-1.20912100638401 16:0.6759916543960571 17:1.0
1.20912100638401 12:1.0
-0.3860978556912808 2:1.0 15:0.11905183643102646
-1.207953539715179 12:1.0
1.20912100638401 16:0.6709983944892883 17:1.0
1.20912100638401 16:0.6743540167808533 17:1.0
1.20912100638401 12:1.0
-1.20912100638401 16:0.6709983944892883 17:1.0
-1.20912100638401 16:0.6213974952697754 17:1.0
1.20912100638401 12:0.800000011920929 15:0.04789375886321068
1.20912100638401 16:0.6709983944892883 17:1.0
-1.20912100638401 3:1.0
-1.20912100638401 16:0.6213974952697754 17:1.0
1.20912100638401 2:1.0 5:1.0
1.20912100638401 16:0.6709983944892883 17:1.0
-1.20912100638401 5:1.0
-1.20912100638401 16:0.5946583151817322 17:1.0
1.20912100638401 5:1.0 15:0.11905183643102646
-1.20912100638401 5:1.0
1.20912100638401 12:0.800000011920929 15:0.04789375886321068
-1.20912100638401 12:1.0 15:0.021157899871468544
1.20912100638401 16:0.6755272150039673 17:1.0
-1.20912100638401 12:1.0 15:0.020095860585570335
1.20912100638401 12:0.918666660785675
-1.20912100638401 2:1.0 3:1.0
1.20912100638401 1:1.0
1.20912100638401 2:1.0 3:1.0 5:1.0 14:0.04108837991952896 16:0.712263822555542 17:1.0
-1.20912100638401 5:1.0 15:0.016198759898543358
1.20912100638401 2:1.0 5:1.0
-1.20912100638401 5:1.0
-1.20912100638401 2:1.0 12:1.0
1.20912100638401 5:1.0 15:0.019158700481057167
-1.20912100638401 5:1.0 15:0.018649369478225708
1.20912100638401 12:0.8999999761581421
1.20912100638401 2:1.0 5:1.0
-1.20912100638401 5:1.0
1.20912100638401 12:0.800000011920929
-1.20912100638401 12:1.0
1.20912100638401 1:1.0 3:1.0
1.20912100638401 12:0.800000011920929 15:0.04597998037934303
-1.20912100638401 16:0.5118813514709473 17:1.0
1.20912100638401 3:1.0 14:0.05793677270412445 15:0.11905183643102646
-1.20912100638401 3:1.0 15:0.11905183643102646
1.20912100638401 16:0.6897803544998169 17:1.0
1.20912100638401 3:1.0 15:0.037511199712753296
-1.20912100638401 16:0.41700130701065063 17:1.0
-1.20912100638401 3:1.0
1.20912100638401 16:0.6897803544998169 17:1.0
-1.20912100638401 5:1.0
-1.20912100638401 5:1.0
1.20912100638401 2:1.0 5:1.0
1.20912100638401 12:0.800000011920929 15:0.03900931030511856
1.20912100638401 12:0.800000011920929
1.20912100638401 3:1.0
1.20912100638401 5:1.0 15:0.11905183643102646
1.20912100638401 5:1.0
1.20912100638401 12:0.800000011920929
-1.20912100638401 12:1.0
1.20912100638401 5:1.0
-1.20912100638401 2:1.0 14:0.09098046272993088
-1.20912100638401 2:1.0 14:0.07354628294706345
1.20912100638401 1:1.0 3:1.0
1.20912100638401 12:0.800000011920929
-1.20912100638401 12:1.0 15:0.01719626970589161
-1.20912100638401 12:1.0 15:0.012152059935033321
1.20912100638401 2:1.0 5:1.0
-1.20912100638401 5:1.0
1.20912100638401 12:0.800000011920929
1.20912100638401 2:1.0 5:1.0
-1.20912100638401 1:1.0 2:1.0 15:0.11905183643102646
-1.20912100638401 5:1.0
-1.20912100638401 5:1.0
1.20912100638401 12:0.800000011920929
-1.20912100638401 2:1.0 6:1.0 12:1.0 15:0.001399399945512414
-1.20912100638401 2:1.0 12:1.0
1.20912100638401 5:1.0
-1.20912100638401 5:1.0
1.20912100638401 12:0.800000011920929
-1.20912100638401 1:1.0
-1.20912100638401 3:1.0 15:0.018484799191355705
-1.20912100638401 3:1.0
1.20912100638401 1:1.0
-1.20912100638401 1:1.0
1.20912100638401 3:1.0
-1.20912100638401 3:1.0 15:0.012855679728090763
1.20912100638401 1:1.0
1.20912100638401 1:1.0 2:1.0 3:1.0 5:1.0 16:0.7696695923805237 17:1.0
1.20912100638401 3:1.0
-1.20912100638401 3:1.0
1.20912100638401 1:1.0
-1.20912100638401 1:1.0
1.20912100638401 3:1.0
-1.20912100638401 3:1.0
1.20912100638401 1:1.0
-1.20912100638401 1:1.0
1.20912100638401 3:1.0
-1.20912100638401 1:1.0
1.20912100638401 1:1.0
1.20912100638401 1:1.0
-1.20912100638401 1:1.0
1.20912100638401 2:1.0 5:1.0
1.20912100638401 1:1.0
1.20912100638401 1:1.0
-1.20912100638401 1:1.0
1.20912100638401 3:1.0
1.20912100638401 1:1.0
-1.20912100638401 1:1.0
1.20912100638401 6:1.0
1.20912100638401 12:0.800000011920929
1.20912100638401 1:1.0
-1.20912100638401 1:1.0
1.20912100638401 1:1.0
-1.20912100638401 1:1.0
1.20912100638401 1:1.0
-1.20912100638401 1:1.0
1.20912100638401 1:1.0
-1.20912100638401 1:1.0
1.20912100638401 1:1.0
-1.20912100638401 1:1.0
1.20912100638401 1:1.0
-1.20912100638401 1:1.0
1.20912100638401 1:1.0
1.20912100638401 1:1.0
-1.20912100638401 5:1.0
1.20912100638401 2:1.0 12:0.800000011920929
-1.20912100638401 12:1.0
1.20912100638401 5:1.0
-1.20912100638401 3:1.0
1.20912100638401 12:0.800000011920929
-1.20912100638401 12:1.0 15:0.012606129981577396
1.20912100638401 2:1.0 3:1.0 14:0.08392403274774551
-1.20912100638401 1:1.0
1.20912100638401 12:0.800000011920929
-1.20912100638401 12:1.0 15:0.011537199839949608
-1.20912100638401 5:1.0
1.20912100638401 1:1.0
-1.20912100638401 1:1.0
-1.1520944520435625 15:0.11905183643102646
1.20912100638401 1:1.0
-1.171369802562028 14:0.08836867660284042
1.20912100638401 1:1.0
1.20912100638401 14:0.08244471997022629
-1.20912100638401 1:1.0
-1.1509309456987165 14:0.07354628294706345
1.20912100638401 1:1.0
1.20912100638401 12:0.800000011920929 15:0.03900931030511856
-1.20912100638401 1:1.0
1.20912100638401 15:0.015734490007162094
-1.20912100638401 12:1.0
1.20912100638401 1:1.0
-1.20912100638401 1:1.0
1.20912100638401 12:0.800000011920929
-1.20912100638401 6:1.0
1.20912100638401 1:1.0
-1.20912100638401 1:1.0
-1.20912100638401 12:1.0
1.20912100638401 1:1.0
1.20912100638401 12:0.800000011920929
-1.20912100638401 1:1.0
-1.20912100638401 12:1.0
1.20912100638401 1:1.0
1.20912100638401 12:0.800000011920929
-1.20912100638401 1:1.0
-1.20912100638401 12:1.0
1.20912100638401 1:1.0
1.20912100638401 12:0.800000011920929
-1.20912100638401 1:1.0
-1.20912100638401 12:1.0
1.20912100638401 1:1.0
-1.20912100638401 1:1.0
1.20912100638401 2:1.0 12:1.0
-1.20912100638401 2:1.0 15:0.11905183643102646
-1.20912100638401 11:1.0
1.20912100638401 1:1.0
-1.20912100638401 1:1.0
1.20912100638401 11:1.0
-1.20912100638401 11:1.0
1.20912100638401 1:1.0
-1.20912100638401 1:1.0
1.20912100638401 11:1.0
1.20912100638401 12:0.800000011920929
-0.38909527080349315 11:1.0
1.20912100638401 1:1.0
-1.20912100638401 1:1.0
1.20912100638401 1:1.0
-0.8190346908544544 11:1.0
-1.20912100638401 1:1.0
1.20912100638401 11:1.0
1.20912100638401 12:0.800000011920929
-1.20912100638401 11:1.0
1.20912100638401 1:1.0
-1.20912100638401 1:1.0
1.20912100638401 2:1.0 16:0.757050096988678 17:1.0
-1.20912100638401 5:1.0
1.20912100638401 1:1.0
-1.20912100638401 1:1.0
1.20912100638401 11:1.0
1.20912100638401 1:1.0
-0.21177914936033024 15:2.7630000840872526E-4
-1.20912100638401 1:1.0
1.20912100638401 1:1.0
-1.20912100638401 1:1.0
1.20912100638401 1:1.0
-1.20912100638401 1:1.0
1.20912100638401 1:1.0
-1.20912100638401 1:1.0
1.20912100638401 1:1.0
-1.20912100638401 1:1.0
1.20912100638401 1:1.0
-1.20912100638401 1:1.0
1.20912100638401 1:1.0
-1.20912100638401 1:1.0
1.20912100638401 1:1.0
-1.20912100638401 1:1.0
-1.20912100638401 1:1.0
-1.20912100638401 2:1.0 12:1.0
1.20912100638401 1:1.0 6:1.0
-1.20912100638401 1:1.0
1.20912100638401 5:1.0
-1.20912100638401 3:1.0
1.20912100638401 1:1.0 6:1.0
1.20912100638401 1:1.0
-1.20912100638401 1:1.0
1.20912100638401 6:1.0
-1.20912100638401 2:1.0 12:1.0
1.20912100638401 1:1.0 3:1.0
-1.20912100638401 3:1.0
-1.20912100638401 1:1.0
-1.20912100638401 1:1.0
1.20912100638401 5:1.0
-0.19861206304585743 2:1.0
1.20912100638401 1:1.0 15:0.009583559818565845 16:0.617554247379303 17:1.0
1.20912100638401 1:1.0
1.20912100638401 6:1.0 12:0.6399999856948853
1.20912100638401 1:1.0 2:1.0
-1.20912100638401 1:1.0
-1.20912100638401 2:1.0
1.20912100638401 5:1.0
-1.20912100638401 6:1.0
1.20912100638401 2:1.0
1.20912100638401 2:1.0 12:0.800000011920929
1.20912100638401 3:1.0
-1.20912100638401 12:1.0
1.20912100638401 3:1.0
-1.20912100638401 2:1.0 6:1.0
-1.20912100638401 3:1.0
1.20912100638401 2:1.0 6:1.0
1.20912100638401 2:1.0 15:0.05028887838125229
-1.20912100638401 2:1.0 12:0.8199999928474426
-1.20912100638401 5:1.0
1.20912100638401 6:1.0
-1.20912100638401 2:1.0 6:1.0
1.20912100638401 3:1.0
-1.20912100638401 3:1.0
1.20912100638401 1:1.0 2:1.0 6:1.0
-1.20912100638401 3:1.0 6:1.0
-1.20912100638401 2:1.0 6:1.0
1.20912100638401 3:1.0
-1.20912100638401 3:1.0
1.20912100638401 2:1.0 15:0.0161374993622303
-1.2091210063840099 2:1.0 6:1.0
1.20912100638401 3:1.0
-1.20912100638401 3:1.0
-1.20912100638401 2:1.0 6:1.0
1.20912100638401 3:1.0
-1.20912100638401 3:1.0
1.20912100638401 2:1.0 6:1.0
-1.20912100638401 2:1.0 6:1.0
-0.5059608021509225 6:1.0 12:0.6399999856948853
1.20912100638401 3:1.0
-1.20912100638401 3:1.0
1.20912100638401 6:1.0 12:0.800000011920929
1.20912100638401 3:1.0
-1.20912100638401 3:1.0
1.20912100638401 2:1.0 12:0.800000011920929
1.20912100638401 3:1.0
-1.20912100638401 3:1.0
1.20912100638401 2:1.0
-1.20912100638401 5:1.0
1.20912100638401 6:1.0
1.20912100638401 6:1.0 12:0.5120000243186951
1.20912100638401 2:1.0 3:1.0 14:0.08836867660284042 15:0.11905183643102646
-1.20912100638401 3:1.0
1.20912100638401 5:1.0
-1.20912100638401 5:1.0
1.20912100638401 3:1.0
-1.20912100638401 3:1.0
1.20912100638401 5:1.0
-1.20912100638401 5:1.0
1.20912100638401 3:1.0
-1.20912100638401 3:1.0
1.20912100638401 5:1.0
-1.20912100638401 5:1.0
1.20912100638401 3:1.0
-1.20912100638401 3:1.0
1.20912100638401 5:1.0
-1.20912100638401 5:1.0
1.20912100638401 3:1.0
-1.20912100638401 3:1.0
1.20912100638401 5:1.0
1.20912100638401 6:1.0
-1.20912100638401 6:1.0 15:0.0031079500913619995
1.20912100638401 5:1.0 12:0.6399999856948853 16:0.7408774495124817 17:1.0
1.20912100638401 3:1.0
-1.20912100638401 3:1.0
-1.20912100638401 5:1.0
1.20912100638401 3:1.0
-1.20912100638401 3:1.0
-1.20912100638401 6:1.0
1.20912100638401 3:1.0
-1.20912100638401 3:1.0
-1.20912100638401 6:1.0
-1.20912100638401 3:1.0
1.20912100638401 6:1.0 12:0.5120000243186951
1.20912100638401 5:1.0
-1.20912100638401 5:1.0
1.20912100638401 3:1.0
-1.20912100638401 3:1.0
1.20912100638401 3:1.0
-1.20912100638401 3:1.0
1.20912100638401 5:1.0
-1.20912100638401 5:1.0
1.20912100638401 2:1.0 3:1.0 15:0.11905183643102646
-1.2079571940700435 3:1.0
-0.7019101101415416 6:1.0
1.20912100638401 3:1.0
-1.1508943843633512 1:1.0 2:1.0
1.20912100638401 16:0.6995039582252502 17:1.0
-1.20912100638401 2:1.0 12:0.800000011920929 15:0.03900931030511856
1.20912100638401 2:1.0 5:1.0 16:0.683967113494873 17:1.0
1.20912100638401 2:1.0
-1.174351551755933 2:1.0 15:0.11905183643102646
1.20912100638401 2:1.0
-1.20912100638401 2:1.0 15:0.11905183643102646
1.20912100638401 2:1.0 3:1.0 15:0.11905183643102646
1.20912100638401 2:1.0
1.20912100638401 1:1.0 15:0.029565220698714256 16:0.7573913335800171 17:1.0
-1.20912100638401 2:1.0
1.20912100638401 2:1.0
-1.20912100638401 2:1.0
1.20912100638401 2:1.0
-1.20912100638401 2:1.0
1.20912100638401 2:1.0
-1.20912100638401 2:1.0
1.20912100638401 2:1.0
-1.20912100638401 2:1.0
1.20912100638401 2:1.0
-1.20912100638401 2:1.0
1.20912100638401 2:1.0
-1.20912100638401 2:1.0
1.20912100638401 2:1.0
-1.20912100638401 2:1.0
1.20912100638401 2:1.0
-1.20912100638401 2:1.0
1.20912100638401 2:1.0
-1.20912100638401 2:1.0
1.20912100638401 2:1.0
-1.20912100638401 2:1.0
1.20912100638401 2:1.0
-1.20912100638401 2:1.0
1.20912100638401 2:1.0
-1.20912100638401 2:1.0
1.20912100638401 2:1.0
-1.20912100638401 2:1.0
1.20912100638401 2:1.0
-1.20912100638401 2:1.0
1.20912100638401 2:1.0
-1.20912100638401 2:1.0
1.20912100638401 2:1.0
-1.20912100638401 2:1.0
1.20912100638401 2:1.0
-1.20912100638401 2:1.0
1.20912100638401 2:1.0
-1.2069562940730199 2:1.0 12:0.5120000243186951 15:0.00734516978263855
-1.20912100638401 2:1.0
1.20912100638401 2:1.0
-1.20912100638401 2:1.0
1.20912100638401 2:1.0
-1.20912100638401 2:1.0
1.20912100638401 2:1.0
-1.20912100638401 2:1.0
1.20912100638401 2:1.0
-1.20912100638401 2:1.0
1.20912100638401 2:1.0
-1.20912100638401 2:1.0
1.20912100638401 2:1.0
-1.20912100638401 2:1.0
1.20912100638401 2:1.0
-1.20912100638401 2:1.0
1.20912100638401 2:1.0
-1.20912100638401 2:1.0
1.20912100638401 2:1.0
-1.20912100638401 2:1.0
1.20912100638401 2:1.0
-1.20912100638401 2:1.0
1.20912100638401 2:1.0
-1.20912100638401 2:1.0
1.20912100638401 2:1.0
-1.20912100638401 2:1.0
1.20912100638401 2:1.0
-1.20912100638401 2:1.0
1.20912100638401 2:1.0
-1.20912100638401 2:1.0
1.20912100638401 2:1.0
-1.20912100638401 2:1.0
1.20912100638401 2:1.0
-1.20912100638401 2:1.0
1.20912100638401 2:1.0
-1.20912100638401 2:1.0
1.20912100638401 2:1.0
-1.20912100638401 2:1.0
1.20912100638401 2:1.0
-1.20912100638401 2:1.0
1.20912100638401 2:1.0
-1.20912100638401 2:1.0
1.20912100638401 2:1.0
-1.20912100638401 2:1.0
1.20912100638401 2:1.0
-1.20912100638401 2:1.0
1.20912100638401 2:1.0
-1.20912100638401 2:1.0
1.20912100638401 2:1.0
-1.20912100638401 2:1.0
1.20912100638401 2:1.0
-1.20912100638401 2:1.0
1.20912100638401 2:1.0
-1.20912100638401 2:1.0
1.20912100638401 2:1.0
-1.20912100638401 2:1.0
1.20912100638401 2:1.0
-1.20912100638401 2:1.0
1.20912100638401 2:1.0
-1.20912100638401 2:1.0
1.20912100638401 2:1.0
-1.20912100638401 2:1.0
1.20912100638401 2:1.0
-1.20912100638401 2:1.0
1.20912100638401 2:1.0
-1.20912100638401 2:1.0
1.20912100638401 2:1.0
-1.20912100638401 2:1.0
1.20912100638401 2:1.0
-1.20912100638401 2:1.0
1.20912100638401 2:1.0
-1.20912100638401 2:1.0
1.20912100638401 2:1.0
-1.20912100638401 2:1.0
1.20912100638401 2:1.0
-1.20912100638401 2:1.0
1.20912100638401 2:1.0
-1.20912100638401 2:1.0
1.20912100638401 2:1.0
-1.20912100638401 2:1.0
1.20912100638401 2:1.0
-1.20912100638401 2:1.0
1.20912100638401 2:1.0
-1.20912100638401 2:1.0
1.20912100638401 2:1.0
-1.20912100638401 2:1.0
1.20912100638401 2:1.0
-1.20912100638401 2:1.0
1.20912100638401 2:1.0
-1.20912100638401 2:1.0
1.20912100638401 2:1.0
-1.20912100638401 2:1.0
1.20912100638401 2:1.0
-1.20912100638401 2:1.0
1.20912100638401 2:1.0
-1.20912100638401 2:1.0
1.20912100638401 2:1.0
-1.20912100638401 2:1.0
1.20912100638401 2:1.0
-1.20912100638401 2:1.0
1.20912100638401 2:1.0
-1.20912100638401 2:1.0
1.20912100638401 2:1.0
-1.20912100638401 2:1.0
1.20912100638401 2:1.0
-1.20912100638401 2:1.0
1.20912100638401 2:1.0
-1.20912100638401 2:1.0
1.20912100638401 2:1.0
-1.20912100638401 2:1.0
1.20912100638401 2:1.0
-1.20912100638401 2:1.0
1.20912100638401 2:1.0
-1.20912100638401 2:1.0
1.20912100638401 2:1.0
-1.20912100638401 2:1.0
1.20912100638401 2:1.0
-1.20912100638401 2:1.0
1.20912100638401 2:1.0
-1.20912100638401 2:1.0
1.20912100638401 2:1.0
-1.20912100638401 2:1.0
1.20912100638401 2:1.0
-1.20912100638401 2:1.0
1.20912100638401 2:1.0
-1.20912100638401 2:1.0
1.20912100638401 2:1.0
-1.20912100638401 2:1.0
1.20912100638401 2:1.0
-1.20912100638401 2:1.0
1.20912100638401 2:1.0
-1.20912100638401 2:1.0
1.20912100638401 2:1.0
-1.20912100638401 2:1.0
1.20912100638401 2:1.0
-1.20912100638401 2:1.0
1.20912100638401 2:1.0
-1.20912100638401 2:1.0
1.20912100638401 2:1.0
-1.20912100638401 2:1.0
1.20912100638401 2:1.0
-1.20912100638401 2:1.0
1.20912100638401 2:1.0
-1.20912100638401 2:1.0
1.20912100638401 2:1.0
-1.20912100638401 2:1.0
1.20912100638401 2:1.0
-1.20912100638401 2:1.0
1.20912100638401 2:1.0
-1.20912100638401 2:1.0
1.20912100638401 2:1.0
-1.20912100638401 2:1.0
1.20912100638401 2:1.0
-1.20912100638401 2:1.0
1.20912100638401 2:1.0
-1.20912100638401 2:1.0
1.20912100638401 2:1.0
-1.20912100638401 2:1.0
1.20912100638401 2:1.0
-1.20912100638401 2:1.0
1.20912100638401 2:1.0
-1.20912100638401 2:1.0
1.20912100638401 2:1.0
-1.20912100638401 2:1.0
1.20912100638401 2:1.0 12:1.0
-1.20912100638401 2:1.0 12:0.800000011920929
1.20912100638401 2:1.0 12:0.6399999856948853
-1.20912100638401 2:1.0 12:0.800000011920929
1.20912100638401 2:1.0 12:0.800000011920929
-1.20912100638401 2:1.0 12:0.800000011920929
1.20912100638401 2:1.0 12:0.800000011920929
-1.20912100638401 2:1.0 12:0.800000011920929
-1.20912100638401 2:1.0 12:0.800000011920929
-0.8447443495580669 2:1.0 14:0.09098046272993088
-0.20273170412967279 2:1.0 15:0.11905183643102646
-8.384821812166265E-4 3:1.0 6:1.0
8.421135388031464E-5 2:1.0 5:1.0 12:0.800000011920929 16:0.7779474854469299 17:1.0
