SVM-light Version V6.01
0 # kernel type
3 # kernel parameter -d
1.0 # kernel parameter -g
1.0 # kernel parameter -s
0.0 # kernel parameter -r
empty# kernel parameter -u
99 # highest feature index
2000 # number of training documents
1883 # number of support vectors plus 1
-0.07908386281384727 # threshold b, each following line is a SV (starting with alpha*y)
-16.26136964472045 1:0.015229223296046257 2:0.030262235552072525 3:0.013760128989815712 5:0.004795868881046772 7:0.015330861322581768 8:0.0011171059450134635 9:2.2960770365898497E-5 10:0.011093901470303535 11:0.02864834852516651 12:0.00789102353155613 13:0.0017663775943219662 14:6.454169633798301E-4 15:0.002958001336082816 16:0.021893909201025963 17:0.0036705173552036285 19:0.010485411621630192 21:2.848177100531757E-4 22:0.009689558297395706 24:0.004336799494922161 25:0.019894665107131004 26:0.04280303418636322 27:0.009292836301028728 28:0.001539198332466185 29:0.004626844078302383 31:0.03772847354412079 32:0.006505140103399754 33:6.445354665629566E-4 34:0.021271640434861183 35:0.0025903398636728525 36:2.9647041810676455E-4 38:0.0013208091259002686 39:2.4671319351909915E-6 40:0.01967148296535015 41:0.004836933687329292 42:0.0054654586128890514 44:0.036184296011924744 45:0.01766791380941868 46:0.02020842581987381 47:5.996461914037354E-5 48:0.035476893186569214 50:0.024902870878577232 51:0.0029386389069259167 52:0.03822525590658188 55:0.020660392940044403 56:0.0019814572297036648 57:0.029690882191061974 58:0.0015095062553882599 59:4.453525471035391E-4 60:0.03038613684475422 62:1.7380948702339083E-4 63:0.00858289934694767 64:0.001355918706394732 67:0.025526951998472214 68:0.0022945012897253036 71:9.791274351300672E-7 73:0.007803901098668575 74:0.043203480541706085 76:0.00553502980619669 78:0.03678080067038536 79:0.01323581114411354 80:0.034289855509996414 81:0.014572292566299438 82:0.004250062629580498 83:0.004781639669090509 85:6.088400259613991E-4 86:0.012711375020444393 88:0.005358666647225618 89:0.015389184467494488 90:0.020776662975549698 91:6.78969126965967E-6 93:0.00808979943394661 94:0.01178641989827156 95:0.021353350952267647 96:0.02387239597737789 97:0.009512386284768581 98:0.04062912240624428 99:0.004806294105947018
-16.26136964472045 9:0.06615441292524338 10:0.05931570753455162 18:0.06004996597766876 19:0.0231052003800869 31:0.08196290582418442 32:0.017663097009062767 33:0.006714122835546732 34:0.06628807634115219 37:0.06547603011131287 41:0.06838489323854446 42:0.024173805490136147 43:0.0028684549033641815 44:0.02284330502152443 46:0.05536537989974022 49:0.03744494542479515 50:0.05737030878663063 55:0.02597961202263832 57:0.002339355880394578 63:0.02839122898876667 71:0.02904863841831684 74:0.03058822639286518 76:0.028184982016682625 81:0.0035060651134699583 85:0.04451284930109978 87:0.05433673411607742 91:0.012454710900783539 94:0.013276554644107819 97:0.003906606696546078 99:0.008293821476399899
-16.26136964472045 1:0.0035229413770139217 6:0.0166403129696846 7:0.06198132783174515 9:0.06568032503128052 15:0.055782172828912735 18:0.015035327523946762 20:0.05013161897659302 22:0.03210628777742386 24:0.05192162096500397 26:0.03046445921063423 28:0.003125408198684454 29:0.020579267293214798 33:0.004716113675385714 34:7.471253629773855E-4 35:0.0376734621822834 36:5.646422778227134E-6 40:0.06414243578910828 42:3.427145713885693E-7 43:0.00161434942856431 55:0.050722938030958176 56:0.004592988174408674 57:0.001437817933037877 61:0.04825634881854057 63:0.05125485733151436 66:0.003471805015578866 67:0.049319472163915634 68:0.022537387907505035 69:0.0013524391688406467 71:0.008705323562026024 73:0.00464064534753561 76:0.028157813474535942 77:0.008352657780051231 78:0.0019834639970213175 81:0.001530828420072794 82:0.013158928602933884 83:0.03972536325454712 86:0.014475887641310692 87:0.025857320055365562 90:0.01817573420703411 94:0.0011095248628407717 95:0.028344793245196342 97:0.0075766160152852535 98:0.049388498067855835
-16.26136964472045 1:0.014172171242535114 2:0.0010203213896602392 3:0.0014851839514449239 5:0.026794418692588806 6:0.03545371815562248 7:9.801205014809966E-4 10:1.5092926332727075E-4 11:0.020763402804732323 12:0.01951504498720169 15:0.014570691622793674 16:0.01122055109590292 17:0.032730668783187866 19:0.009496327489614487 20:0.010544929653406143 21:0.01016391534358263 24:0.004061296582221985 27:0.004733932204544544 29:0.019057676196098328 30:0.021416202187538147 31:0.014995121397078037 33:0.026461975648999214 34:0.002559382701292634 35:0.02931709587574005 36:1.357970613753423E-4 37:0.0029043229296803474 39:0.01238036248832941 41:5.339526978787035E-6 42:2.894115368690109E-6 44:0.0015310527523979545 45:0.0043282718397676945 46:0.009065009653568268 47:0.03409465029835701 48:0.0037243643309921026 49:0.0010086195543408394 50:0.021095644682645798 51:0.01792612485587597 52:6.492776094546571E-8 53:0.02942618727684021 54:5.930005863774568E-5 55:0.016465600579977036 56:2.923604188254103E-5 57:0.005419324617832899 58:0.027843788266181946 59:0.012287472374737263 60:0.0030792467296123505 61:0.0010099258506670594 62:1.1477614862087648E-5 63:8.7079027434811E-4 64:0.009232370182871819 65:0.016281303018331528 66:0.007027599960565567 68:0.034097906202077866 69:0.012419907376170158 71:0.025407759472727776 72:2.979697019327432E-4 73:0.006577506195753813 74:0.003052997402846813 75:0.020393474027514458 76:0.0024052707012742758 79:0.022751612588763237 80:0.02391326241195202 81:0.010246661491692066 82:0.00781844463199377 83:0.012120181694626808 84:0.04086097702383995 85:0.023823566734790802 86:0.01756739616394043 88:0.0214188601821661 89:0.0024007074534893036 90:9.331399724032963E-7 91:1.6645817959215492E-4 92:0.03951046243309975 93:8.770718122832477E-4 94:7.4239314926671796E-6 95:0.03538932651281357 96:0.006388114765286446 97:0.02265893667936325 98:0.03851558640599251
-16.26136964472045 2:0.03778839483857155 7:0.08061222732067108 12:0.04514879733324051 18:0.03345734626054764 20:0.002728547900915146 21:0.015376155264675617 22:5.035221693105996E-4 25:0.017837191000580788 28:0.024141671136021614 29:0.059064269065856934 30:0.004803863819688559 33:0.004841565620154142 34:0.07076534628868103 36:0.05620782822370529 38:0.016803549602627754 41:7.006419473327696E-4 42:0.0019264331785961986 43:0.028254933655261993 47:0.017681723460555077 48:0.03994627669453621 53:0.018300866708159447 60:0.03396359831094742 64:0.028642240911722183 79:0.0018209138652309775 82:0.06850529462099075 83:0.05180836096405983 84:1.5514108235947788E-4 85:0.07813286781311035 86:0.02202252671122551 87:0.035855263471603394 89:0.0012521748431026936 97:0.04060740768909454 98:0.06034306809306145
16.26136964472045 3:0.017078306525945663 5:0.023526998236775398 19:0.006376785226166248 21:0.0055717481300234795 25:0.007720670197159052 27:0.0819380134344101 29:1.7293650307692587E-4 32:0.030699755996465683 33:0.0549982450902462 34:0.050309304147958755 35:0.07533537596464157 52:0.022510627284646034 53:0.051781799644231796 54:5.521252751350403E-5 55:0.0019168152939528227 56:0.01940898597240448 58:0.02591119147837162 60:0.028406355530023575 61:0.05756117030978203 63:0.10723893344402313 65:0.002020127372816205 70:0.07277161628007889 73:0.026357466354966164 74:0.11042129248380661 76:0.06990417093038559 77:0.00934084877371788 79:0.004866706673055887 91:6.834390806034207E-4 95:0.023746276274323463 99:0.011368829756975174
16.26136964472045 1:3.933077387046069E-4 3:0.020421477034687996 4:0.04861396178603172 5:8.947140886448324E-4 6:0.01609158143401146 7:0.004426056519150734 8:0.04599020257592201 9:0.042558908462524414 10:0.03262067213654518 11:0.026314925402402878 12:0.022818662226200104 13:0.04454491659998894 15:9.09823429537937E-5 17:0.04466593638062477 18:0.024505771696567535 19:0.005243051331490278 21:0.028401823714375496 23:0.01116324681788683 25:0.0011326584499329329 26:0.02044438198208809 28:0.005323620047420263 29:7.910075364634395E-4 30:6.606811657547951E-4 31:0.012717381119728088 32:0.008873584680259228 33:0.04051857441663742 35:0.04670918732881546 36:3.805124433711171E-4 37:0.004232298117130995 38:3.34086362272501E-4 41:0.01840079575777054 42:3.7634117688867263E-6 43:0.020240511745214462 44:0.00850541889667511 46:0.006869365461170673 47:0.003410294186323881 48:0.037365853786468506 51:0.030597789213061333 53:1.222744322149083E-4 54:0.015346388332545757 57:0.004158210474997759 58:0.008924400433897972 59:0.012586980126798153 61:0.029867952689528465 64:0.00898189190775156 65:0.003758300794288516 66:2.3458845680579543E-4 68:0.009446034207940102 70:0.004437437746673822 72:1.0041801942861639E-5 73:0.006067113485187292 75:0.025240449234843254 78:0.035793568938970566 79:0.00824702437967062 80:4.574377089738846E-5 82:0.0018627363024279475 83:0.008560081012547016 84:0.01168282050639391 86:0.03220873698592186 87:0.01937679573893547 89:0.007344041485339403 90:3.05178138660267E-4 91:5.312898792908527E-5 93:1.9379347213543952E-4 95:0.003938350826501846 96:0.026277776807546616 97:0.023439152166247368 98:0.004217035602778196
16.26136964472045 1:0.006138601806014776 5:0.05975865572690964 8:0.004421571269631386 15:0.010424936190247536 18:0.05782448127865791 19:0.08369273692369461 20:0.0010599715169519186 22:0.03915240615606308 28:0.07754606008529663 30:0.017713384702801704 34:9.03857871890068E-5 38:0.02483566477894783 43:0.0203909482806921 44:0.02448013611137867 47:0.007695922628045082 49:0.0038044785615056753 50:0.07584323734045029 56:0.005922237411141396 58:0.0038239213172346354 62:0.07825372368097305 65:0.006711645983159542 66:0.04329882189631462 67:0.01352480798959732 71:0.022269925102591515 74:0.004817801993340254 77:0.005741030443459749 78:0.04081428050994873 81:0.0019269529730081558 82:0.04302366450428963 83:6.308534648269415E-4 84:0.035285577178001404 85:0.0027993132825940847 86:0.07246223092079163 87:0.002428249688819051 90:1.2992876463613356E-6 91:7.557524950243533E-4 94:2.441679534967989E-4 97:0.026615751907229424 98:0.029701080173254013 99:0.044073328375816345
16.26136964472045 3:0.014595950953662395 5:0.04255541414022446 7:0.03853679448366165 8:0.013281717896461487 12:0.0023362566716969013 14:0.0031523965299129486 15:8.939029648900032E-4 16:0.04014945402741432 20:0.028783071786165237 22:0.044005781412124634 23:0.030213119462132454 25:0.0018746311543509364 26:6.778716851840727E-6 27:2.6385128148831427E-4 28:0.025586357340216637 30:0.008399245329201221 34:0.04697117581963539 35:0.009104632772505283 37:0.02110338769853115 38:0.010852707549929619 39:0.04868097975850105 40:0.03682908043265343 43:3.3766654087230563E-4 44:0.03357476741075516 45:1.5445336885022698E-6 47:0.024448685348033905 53:0.029195094481110573 55:0.024420438334345818 56:0.0248224139213562 57:3.4680834505707026E-4 59:0.003578823059797287 61:0.03270971402525902 64:0.021164311096072197 67:0.003340880386531353 68:0.0015754406340420246 69:0.004836956970393658 70:0.004917491693049669 72:0.00256015220656991 75:0.002127506537362933 76:0.0044806418009102345 79:0.03384755551815033 80:0.046083636581897736 83:0.040470052510499954 85:0.015012426301836967 86:0.0137045718729496 87:0.02294265851378441 89:0.0042336564511060715 91:0.03274613246321678 93:0.029452256858348846 94:0.023377016186714172 95:0.02099558711051941 98:0.023045284673571587 99:0.0074731349013745785
16.26136964472045 1:0.011503482237458229 3:0.004338934551924467 4:0.02852354198694229 5:0.006006190087646246 6:0.005029479973018169 7:1.295815600315109E-4 8:0.01911468617618084 9:0.007671738509088755 10:0.009673121385276318 11:4.0618839557282627E-4 12:0.0116453617811203 13:0.005753169301897287 14:0.0015548942610621452 15:0.026957126334309578 16:0.015464099124073982 17:0.0011960683623328805 18:0.010278243571519852 19:0.03300856798887253 20:0.011556576937437057 21:0.010081490501761436 22:0.010022900998592377 23:0.008081864565610886 24:0.014159845188260078 25:0.0013616579817607999 26:0.008740824647247791 27:0.02559073641896248 28:0.013631677255034447 29:0.02263457141816616 30:0.01850433275103569 32:6.911868113093078E-4 33:0.017841391265392303 34:0.005840806290507317 35:0.013823243789374828 36:0.03155767172574997 37:0.01131285447627306 38:3.085462376475334E-4 39:0.009867759421467781 40:0.004480031784623861 41:9.20005259104073E-4 42:0.009274177253246307 43:0.002065852051600814 44:0.008316249586641788 45:0.002170276129618287 48:0.005614777095615864 49:0.029171383008360863 50:1.5104860722203739E-5 51:0.022283928468823433 52:8.954863878898323E-4 53:0.016493506729602814 54:0.012504528276622295 55:0.003563294420018792 56:0.010155350901186466 57:0.0187948327511549 58:0.005585874896496534 59:0.03199213370680809 60:0.029020627960562706 61:0.0013374002883210778 62:0.0023838079068809748 63:3.6448665196076035E-4 64:2.586104965303093E-4 65:0.0016242947895079851 66:1.3063711230643094E-4 67:0.026610545814037323 68:0.014003036543726921 69:0.004811191465705633 70:0.0054628909565508366 71:0.003328281454741955 72:0.00646006828173995 73:3.4827753552235663E-4 74:0.029728543013334274 75:0.01997969299554825 76:0.02576923556625843 77:0.008136547170579433 78:8.749610278755426E-4 79:1.5431678912136704E-4 80:0.003224350977689028 81:0.006876925006508827 82:0.023717816919088364 83:0.02014966495335102 84:0.008926386013627052 85:0.01501245703548193 87:1.546963321743533E-4 88:0.010614397935569286 89:4.201733716513445E-8 90:0.016227753832936287 91:0.027523798868060112 92:0.019055625423789024 93:0.003668310819193721 94:0.020879806950688362 95:0.008129878900945187 96:7.39355236873962E-5 97:1.7229105287697166E-4 98:0.0075633651576936245 99:0.009079830721020699
-11.388261107192601 35:1.0
-16.26136964472045 61:1.0
-16.26136964472045 24:0.007153776008635759 70:0.49314984679222107 89:0.10862693935632706 99:0.3910694420337677
-16.26136964472045 8:0.11011041700839996 10:0.026327161118388176 14:0.1075926348567009 20:0.0013397826114669442 28:0.223871648311615 38:0.051571667194366455 50:0.03881736472249031 59:0.08589225262403488 69:0.06392800807952881 70:0.22564049065113068 78:0.06120336428284645 82:0.0037052216939628124
16.26136964472045 2:1.0
16.26136964472045 5:6.616837345063686E-5 9:0.08599493652582169 26:0.02668624557554722 43:0.13563407957553864 48:0.005373951513320208 72:0.04062932729721069 87:0.32973209023475647 92:0.07806165516376495 98:0.2978215515613556
16.26136964472045 17:0.10008927434682846 26:0.008695303462445736 46:0.8465535640716553 50:0.04466187208890915
16.26136964472045 23:0.0992836058139801 31:0.33134934306144714 51:0.21553264558315277 57:0.004739770665764809 85:0.26062583923339844 97:0.0853147879242897 98:0.0031540067866444588
16.26136964472045 20:0.322688490152359 24:0.016559254378080368 29:0.6607522368431091
-16.26136964472045 2:0.23147906363010406 27:0.2849281430244446 46:0.32386553287506104 52:0.08763487637042999 91:0.07209238409996033
-9.710321016603661 19:0.03900324925780296 21:0.22354485094547272 33:0.45147475600242615 40:0.05427643284201622 56:0.1721554845571518 75:0.05954522639513016
-16.26136964472045 4:0.22292765974998474 9:0.029946809634566307 32:0.05444711074233055 35:1.1499778338475153E-5 51:0.09411031007766724 53:0.1055711880326271 60:0.015474020503461361 73:0.1635589599609375 74:0.1184815913438797 76:0.012136067263782024 79:0.10978256165981293 84:0.05391984432935715 98:0.01963237300515175
-16.26136964472045 17:0.5741624236106873 43:0.42583754658699036
16.26136964472045 70:1.0
16.26136964472045 1:0.028485989198088646 2:0.023149676620960236 5:0.009890925139188766 6:0.019187767058610916 7:0.031067615374922752 8:0.028485871851444244 9:0.009073112159967422 10:0.0010534372413530946 11:0.006385760381817818 12:0.009784091264009476 13:2.8115375698689604E-6 15:0.0031312413047999144 17:0.0015814206562936306 18:0.032128870487213135 19:0.008496948517858982 20:7.538170320913196E-4 22:0.010518666356801987 23:0.024319401010870934 24:0.028537513688206673 25:0.0014635954285040498 26:8.980654092738405E-5 27:0.007025764789432287 28:0.004041001200675964 29:2.416540155536495E-5 30:0.029273705556988716 31:4.3852410271938425E-6 32:0.0012736961944028735 33:0.004106944892555475 34:5.151687582838349E-5 35:2.8645663405768573E-6 36:0.02460879646241665 37:9.172280988423154E-5 38:0.0037628565914928913 39:2.6811042334884405E-4 41:0.022470317780971527 42:0.008416865952312946 43:0.03217800334095955 44:0.021471815183758736 45:0.011331475339829922 46:0.02331973798573017 47:0.010487095452845097 48:0.0020057624205946922 49:0.0062560089863836765 50:1.3024105282966048E-4 51:0.0236307755112648 52:0.027148010209202766 53:0.02026214450597763 54:0.003959134221076965 55:0.002877666149288416 56:0.009785045869648457 57:5.523453000932932E-4 58:2.098238910548389E-4 59:3.411182260606438E-4 60:0.011610097251832485 61:0.003731007454916835 62:0.001880788360722363 63:0.0012418687110766768 64:0.007489302195608616 65:3.98466334445402E-4 66:0.015811584889888763 67:3.0590922688134015E-4 68:1.1379859643056989E-5 69:0.012352259829640388 70:0.026575960218906403 71:0.025663653388619423 72:8.657393482280895E-5 73:0.027870161458849907 74:0.0039368728175759315 76:0.012453723698854446 77:0.004616372752934694 78:5.535201635211706E-4 79:0.015807149931788445 81:0.03368984907865524 83:0.00618402985855937 84:0.011396295391023159 85:0.0337454117834568 86:0.02711517922580242 87:0.023422524333000183 88:0.0055192867293953896 89:0.007982667535543442 90:0.03390349820256233 91:6.988248787820339E-4 92:1.0267481229675468E-6 93:0.021334046497941017 94:2.9572538915090263E-4 95:0.007428936660289764 96:7.188764866441488E-4 97:7.543998071923852E-4 98:0.03371083363890648 99:7.446789531968534E-4
16.26136964472045 61:1.0
16.26136964472045 2:0.19238486886024475 14:0.7362198829650879 28:0.07139523327350616
11.165914338348252 2:0.007001094985753298 55:0.525455117225647 59:0.14675261080265045 63:6.108134584792424E-6 67:0.2161618322134018 89:0.1046232357621193
-1.624723210962143 17:0.2955015301704407 33:0.06255771219730377 40:0.5972300171852112 54:3.0539362342096865E-5 88:0.044680215418338776
-16.26136964472045 4:0.039563681930303574 5:0.0031398891005665064 6:0.017579495906829834 8:0.009650702588260174 9:0.026473671197891235 11:0.007216024212539196 12:0.00134239811450243 14:2.5208020815625787E-4 15:0.0026205177418887615 16:0.05744699761271477 20:0.02034417726099491 22:7.071653817547485E-5 24:0.0387626551091671 25:0.023439083248376846 26:3.424558963160962E-4 27:0.003561910707503557 28:0.004578434396535158 30:0.03119867667555809 34:0.028281286358833313 35:0.025375327095389366 39:0.002123749116435647 46:0.012474375776946545 49:0.019546136260032654 51:3.395512467250228E-4 54:0.027553120627999306 55:0.00464500579982996 58:0.013603056780993938 59:0.012856066226959229 61:0.00981378834694624 62:0.058629654347896576 63:0.003974986728280783 66:7.623960846103728E-4 68:0.05083787813782692 71:0.026164475828409195 72:0.013378873467445374 73:0.0062519870698452 74:0.03501717373728752 75:0.03781863674521446 78:0.037412554025650024 80:0.0042382581159472466 81:1.0652044147718698E-4 82:0.027022168040275574 87:0.07234355062246323 89:0.04345867410302162 91:0.0034236505161970854 93:0.02107585407793522 96:0.00319229275919497 98:0.07553042471408844 99:0.0351649634540081
-16.26136964472045 5:0.3313549757003784 26:0.33727264404296875 54:0.30604836344718933 58:0.025324003770947456
-16.26136964472045 10:0.03976589813828468 21:0.010489300824701786 38:3.335053916089237E-4 42:0.009275349788367748 51:0.25815922021865845 55:0.16889125108718872 59:0.07311712205410004 62:0.00898811500519514 85:0.07022285461425781 86:0.3225850760936737 87:0.0200151726603508 94:0.004549260716885328 95:0.01360786147415638
16.26136964472045 20:0.0021539886947721243 23:2.6603127480484545E-4 40:0.9975799918174744
16.26136964472045 41:0.992161750793457 58:0.007838238030672073
16.26136964472045 7:0.0323135182261467 10:0.18507704138755798 25:0.0076894862577319145 26:0.17756138741970062 29:0.010985152795910835 35:0.21965384483337402 46:0.16819757223129272 50:0.003216724144294858 65:0.0013919222401455045 66:0.06021364778280258 68:0.10655799508094788 70:0.012530061416327953 86:0.007926547899842262 97:0.006685097236186266
-16.26136964472045 1:0.009618165902793407 3:3.157838946208358E-4 4:0.0015172944404184818 5:0.01769578456878662 6:0.0011073877103626728 7:0.010174071416258812 8:0.02328062430024147 9:0.020237481221556664 10:0.027702605351805687 11:2.5357890990562737E-4 12:0.007689253427088261 13:0.0011424088152125478 14:0.006514939479529858 15:0.01332972850650549 16:0.006021786946803331 17:0.027797766029834747 18:3.9950988139025867E-4 19:0.001059949747286737 20:0.003396125975996256 21:0.022815434262156487 22:0.005503096152096987 23:0.011634081602096558 25:0.020315559580922127 26:0.0033283617813140154 27:0.006231458391994238 28:0.012924940325319767 29:0.013304592110216618 30:9.384773438796401E-4 31:0.019222155213356018 32:0.016593141481280327 33:0.02569649927318096 34:0.001457123551517725 35:0.004827967379242182 36:0.005927830934524536 37:0.02461782842874527 38:0.012263421900570393 39:2.6563673600321636E-5 40:0.006445111706852913 41:0.0025618132203817368 42:0.0011418426875025034 43:0.019038060680031776 44:0.004953379742801189 45:0.0017436632188037038 46:3.2266430207528174E-4 47:0.009935479611158371 48:2.0923293777741492E-4 49:0.01622975803911686 50:0.001475457800552249 51:0.027491405606269836 52:0.017675044015049934 54:0.001217513345181942 56:0.02519330382347107 57:0.011515314690768719 58:0.0040086195804178715 59:0.008351537398993969 60:1.606828300282359E-4 61:0.01827167347073555 62:0.01423600409179926 63:0.019491765648126602 64:0.02430872805416584 65:0.006220811512321234 66:0.010451996698975563 67:0.015056372620165348 68:0.002780455630272627 69:0.02475394681096077 70:0.027237575501203537 71:0.027704479172825813 72:0.0032967824954539537 73:0.02402505837380886 74:6.031922530382872E-4 75:0.0030120473820716143 76:0.018385373055934906 77:0.0018025062745437026 78:0.012886633165180683 79:8.089062612270936E-5 80:0.00392144126817584 81:0.011983208358287811 82:1.0350511729484424E-5 83:0.010521492920815945 84:0.016032733023166656 85:1.757938734954223E-4 86:0.013064471073448658 87:0.024582581594586372 88:0.020889272913336754 89:0.017610471695661545 90:0.012524712830781937 91:0.001873234286904335 92:0.006726172287017107 93:0.0042392797768116 94:0.0013272844953462481 95:0.015555073507130146 96:0.01944201998412609 97:3.350916667841375E-4 98:0.013364708982408047 99:0.004661645274609327
16.26136964472045 1:0.003625028533861041 2:0.0072636716067790985 3:2.0665333431679755E-4 5:0.00821587722748518 6:0.0316631980240345 7:0.0012475749244913459 8:5.591878434643149E-4 9:2.108516127918847E-6 10:0.0013153186300769448 11:8.902995432436E-6 12:0.019696101546287537 13:0.01869928278028965 14:0.023445695638656616 15:0.0021935568656772375 16:3.3400277607142925E-4 18:0.03666650131344795 19:0.0056203496642410755 20:0.029861241579055786 21:0.0055434005334973335 22:0.012810513377189636 23:0.002079177414998412 24:0.005284933373332024 25:0.03203870728611946 26:0.011559863574802876 27:0.01863599382340908 28:0.0014296597801148891 29:0.02221139892935753 30:1.9830575183732435E-5 31:2.7352210599929094E-4 32:0.0012437772238627076 34:0.0010046092793345451 35:0.032996803522109985 36:0.018615027889609337 37:0.026586784049868584 38:0.028869515284895897 39:0.00850229524075985 40:0.002646425273269415 41:0.019580760970711708 42:0.003420862602069974 43:9.570907568559051E-4 44:3.385963209439069E-4 45:0.01070198230445385 46:0.028542442247271538 47:0.001991655444726348 48:0.012771988287568092 49:0.0035083829425275326 51:8.481163531541824E-4 52:0.01187662873417139 53:0.020216302946209908 54:0.03563658893108368 55:0.008868233300745487 57:2.2456207079812884E-4 58:0.02412194013595581 60:0.03222430497407913 61:0.0032180475536733866 62:0.006937864702194929 63:0.010967332869768143 64:0.018971342593431473 65:0.003078352427110076 66:7.712041224294808E-6 69:2.6644239551387727E-4 70:1.2015294487355277E-4 72:0.0299119520932436 73:8.806116529740393E-4 75:0.010692995972931385 76:0.025693560019135475 77:0.00483696861192584 78:0.0016054132720455527 80:0.02860499732196331 81:0.03121430240571499 82:0.007725251838564873 83:0.027057340368628502 84:0.025538206100463867 86:5.9550344303715974E-5 88:0.003342644078657031 89:0.026401301845908165 92:0.0038796705193817616 93:0.013454798609018326 94:0.017961343750357628 95:0.028460761532187462 96:0.007502198684960604 97:0.001440098974853754 98:0.020896919071674347 99:4.6493587433360517E-4
-16.26136964472045 14:0.10159642994403839 18:0.009984624572098255 25:0.07885634154081345 29:0.08636388927698135 31:0.041686151176691055 32:0.03297314792871475 37:0.002423482481390238 40:0.06687799841165543 41:0.0038238062988966703 45:0.01970839500427246 48:0.056031644344329834 50:0.10336611419916153 51:0.0030575215350836515 52:0.01275809109210968 54:0.06368469446897507 57:0.042081281542778015 58:0.10586068779230118 70:0.05027018114924431 71:0.021571459248661995 79:0.0203947052359581 80:0.005935600493103266 84:6.630258285440505E-4 85:0.009157742373645306 87:0.029402678832411766 98:0.03147031366825104
-16.26136964472045 1:0.006585232447832823 2:0.0016336558619514108 3:0.031462401151657104 4:0.009684927761554718 5:0.005436210427433252 6:0.032034751027822495 9:0.030380483716726303 10:0.002696589333936572 11:0.002106101717799902 12:0.004302463959902525 13:0.01885843276977539 14:0.0018913919338956475 15:0.026146752759814262 16:0.007778665516525507 17:0.0110453050583601 18:0.005460669286549091 19:0.016485868021845818 20:0.010561781004071236 21:0.0018276736373081803 22:0.018407132476568222 23:0.013565042056143284 24:0.006401842925697565 25:0.004068824462592602 26:0.023755395784974098 28:0.019025320187211037 29:0.03325334191322327 31:0.012281151488423347 32:0.0020340795163065195 33:0.0040910858660936356 35:6.02286854700651E-5 36:0.023051753640174866 37:0.01988610439002514 38:0.027847466990351677 39:0.029286211356520653 40:0.02342529408633709 41:0.03306161239743233 43:0.009713253937661648 44:0.015034518204629421 45:0.0037854586262255907 47:9.423927986063063E-4 48:0.021263688802719116 49:0.010869093239307404 50:0.016605917364358902 51:0.0023751810658723116 52:8.861036039888859E-4 53:0.014336842112243176 54:0.0037534055300056934 55:8.802830125205219E-4 56:0.014691341668367386 57:0.0019012624397873878 58:5.058912211097777E-4 59:0.013885615393519402 60:0.010895655490458012 61:0.020497262477874756 62:6.329265888780355E-4 63:0.002076186239719391 64:0.014714839868247509 65:0.016246352344751358 67:0.014517504721879959 68:0.030228782445192337 69:0.008380426093935966 70:0.025804059579968452 71:2.559565291448962E-5 72:0.02380324900150299 74:0.01698991470038891 75:0.00658686738461256 76:0.0037845429033041 77:0.01657213643193245 78:0.014435429126024246 79:1.0593714978313074E-4 80:3.217342891730368E-4 81:0.007538786623626947 82:0.0036751972511410713 83:0.023711998015642166 84:0.01492396928369999 85:3.448353963904083E-4 86:0.011993467807769775 87:0.002292840275913477 88:7.278702687472105E-4 89:0.019627349451184273 91:0.006535829044878483 92:0.006412710063159466 93:0.013399690389633179 94:3.79463426725124E-6 96:0.005939782597124577 97:0.003609017701819539 98:0.0013319657882675529
16.26136964472045 2:0.0109553849324584 3:0.008888036012649536 4:0.01361845899373293 5:0.00791319552809 6:0.025244422256946564 8:0.05038381367921829 9:0.007009497378021479 10:0.003980598412454128 12:0.0051706391386687756 16:0.04359862953424454 18:0.014264924451708794 20:0.010651455260813236 21:0.036077845841646194 22:0.030145972967147827 24:8.882560359779745E-5 25:0.038765449076890945 27:0.030043017119169235 28:0.0014172327937558293 29:0.04560822993516922 30:0.003219414269551635 31:0.005947432015091181 32:0.0501524992287159 35:0.005828822962939739 38:3.5022065276280046E-4 41:0.006059804931282997 42:0.014047539792954922 45:0.020818272605538368 47:1.8182562655510992E-7 49:0.0012136795558035374 51:0.031359847635030746 53:0.0350409597158432 54:0.033649396151304245 59:0.0029058961663395166 60:0.008844342082738876 61:0.0023902629036456347 63:0.007191826589405537 64:9.057996212504804E-4 66:0.018716540187597275 67:0.04599326476454735 69:0.02107844315469265 70:0.02590704709291458 71:0.027142345905303955 74:0.06007716804742813 76:0.03316927328705788 78:0.001097996486350894 79:0.002494054613634944 82:0.0026478052604943514 83:0.005929933395236731 84:0.012422371655702591 85:0.00127318874001503 86:0.05445520207285881 87:0.01731264218688011 88:0.001591276261024177 90:0.004367298912256956 91:0.009839453734457493 94:0.00858953595161438 95:0.0010477278847247362 96:0.028753425925970078 99:0.0023421759251505136
16.26136964472045 19:0.01832837611436844 51:0.6749809384346008 53:0.07134499400854111 85:0.23534569144248962
3.7418336323633032 17:0.061613332480192184 28:0.1817493438720703 47:0.08294632285833359 55:0.06805828213691711 64:0.01756514050066471 82:0.1113366186618805 83:0.2072526216506958 86:0.2545096278190613 99:0.01496872864663601
-16.26136964472045 1:0.0075474027544260025 3:0.04424625635147095 6:0.013022437691688538 7:0.0043219830840826035 8:0.004668128676712513 11:1.6086069808807224E-4 12:3.4026001230813563E-4 16:0.016716981306672096 18:0.02102138288319111 21:0.027354197576642036 22:0.01778503693640232 25:0.004712184425443411 29:0.011537589132785797 30:0.003435622900724411 31:0.04816979169845581 32:0.006810242310166359 34:0.03179658204317093 39:0.024761009961366653 41:0.021206483244895935 43:0.042390815913677216 44:0.006580224726349115 46:0.03302135691046715 47:0.04090449959039688 48:0.004492797423154116 49:0.00680730864405632 55:0.0033831640612334013 56:0.007715562358498573 57:0.041306521743535995 63:0.009007129818201065 65:0.031955283135175705 67:0.02525901608169079 68:6.711194873787463E-5 69:7.23073782864958E-4 72:0.008585096336901188 73:0.013381739147007465 74:0.026214221492409706 76:0.040896669030189514 77:0.0029702812898904085 78:0.01859275996685028 81:0.011896423995494843 82:0.0016386545030400157 84:0.03864094614982605 85:0.04468045011162758 86:0.03201553598046303 87:0.008086401037871838 88:0.04241740703582764 91:0.01058486383408308 92:0.01109330914914608 93:0.027662690728902817 95:0.03642722964286804 97:0.014211188070476055 98:9.863314917311072E-4 99:0.04578949511051178
16.26136964472045 3:0.03450597822666168 4:0.020960964262485504 5:0.004012756049633026 6:0.01353373471647501 7:0.00400130869820714 9:0.004661232698708773 11:0.031344953924417496 12:1.1731986160157248E-4 13:0.003967168275266886 15:0.03607400879263878 18:1.509778667241335E-4 19:0.0011545768938958645 20:5.517725639947457E-6 21:0.003434457816183567 22:0.02964460663497448 23:0.03993448242545128 25:2.8544553060783073E-5 27:0.013055707328021526 28:2.510047343093902E-4 30:1.6120010695885867E-4 32:0.015290248207747936 33:0.01826006919145584 34:0.005211899057030678 35:0.03768140822649002 37:0.0028208023868501186 38:0.036844782531261444 40:0.028589844703674316 41:0.0304735004901886 42:1.252158909892387E-7 44:0.0045561580918729305 45:0.005263911094516516 46:2.1211565763223916E-4 48:4.737411218229681E-4 49:9.526268695481122E-4 50:0.0021389899775385857 51:0.025217143818736076 52:0.03445054590702057 53:0.019827838987112045 54:0.0015690046129748225 56:0.0014864145778119564 59:0.005874600727111101 60:0.007100285030901432 61:3.6932568764314055E-4 63:0.0038914268370717764 64:0.023371247574687004 65:0.025350166484713554 70:0.006966293789446354 72:0.026883739978075027 73:0.03937573730945587 75:0.037565138190984726 76:0.02106873318552971 77:0.0039331503212451935 79:0.00698199262842536 82:0.006948624737560749 83:0.02864362858235836 84:0.003645761637017131 85:3.6582390748662874E-5 86:0.01680208556354046 89:0.009674720466136932 90:0.029753444716334343 91:0.03450295329093933 93:0.0021934574469923973 94:0.0011691102990880609 95:0.03992387279868126 96:0.03467520326375961 97:0.03166169300675392 99:0.039315350353717804
16.26136964472045 3:0.008565048687160015 4:0.012980340979993343 5:0.04563360661268234 11:0.0011177024571225047 14:0.04066180810332298 17:4.1758615407161415E-4 21:0.019541926681995392 28:0.0312858410179615 29:0.04031341150403023 32:0.04201214015483856 34:0.007034513168036938 37:2.1536268468480557E-4 40:0.02409616857767105 42:0.03886338695883751 44:0.0401151143014431 45:0.002433039713650942 48:0.003293456509709358 49:0.03870813548564911 50:0.0012547459919005632 51:0.022962454706430435 52:0.0011555820237845182 54:0.01069655828177929 55:0.04298359528183937 56:0.02862737886607647 57:0.005723393522202969 58:8.865405106917024E-4 60:0.02085164189338684 61:3.728196315933019E-5 65:0.032684214413166046 67:2.366973319567478E-7 68:0.0038156602531671524 69:0.008915988728404045 70:0.008874775841832161 71:0.0026289287488907576 72:0.036639850586652756 73:0.03553380072116852 74:0.0016055518062785268 77:0.01902938075363636 78:0.04114479944109917 82:0.04418568313121796 85:0.03451744094491005 86:0.04422512277960777 87:1.2953112309332937E-4 88:0.03941795602440834 89:7.019939366728067E-4 90:0.0010256231762468815 91:0.038545794785022736 93:0.03962359204888344 97:0.034286316484212875
-16.26136964472045 8:0.28082650899887085 15:0.15331417322158813 29:0.1487664431333542 32:0.10776464641094208 35:0.004055587574839592 67:0.0038155519869178534 70:0.30145707726478577
-16.26136964472045 56:0.3205026090145111 66:0.37214428186416626 72:0.012328078038990498 92:0.2950250208377838
16.26136964472045 5:0.49947986006736755 6:0.07157446444034576 11:0.08449641615152359 56:0.3444492518901825
16.26136964472045 11:0.20774178206920624 34:0.4181933104991913 42:0.24910864233970642 43:0.043075792491436005 62:4.303018795326352E-4 71:0.023623773828148842 88:0.05782638490200043
-16.26136964472045 2:0.010250496678054333 3:0.01630300283432007 6:0.04502379149198532 7:0.04401078447699547 8:0.02054462768137455 9:7.717176340520382E-4 10:0.010570579208433628 12:0.011744908057153225 13:0.02759738080203533 14:0.009923306293785572 16:0.017865534871816635 17:0.030438758432865143 18:0.002633969997987151 20:0.0024957896675914526 21:0.006104393396526575 23:0.04092703014612198 24:8.070762851275504E-4 26:0.009770735166966915 27:4.824465431738645E-4 29:6.307968578767031E-5 30:0.026294197887182236 32:0.003783270251005888 33:0.0019691456109285355 34:3.8482656236737967E-5 35:0.006968257483094931 39:6.32061215583235E-4 42:0.006658175494521856 43:0.014373775571584702 44:0.004512888379395008 48:0.02187277562916279 52:0.011752159334719181 54:4.77666239021346E-4 55:1.4373201338457875E-5 56:0.008939591236412525 57:0.030930547043681145 58:0.040048640221357346 59:0.007208773400634527 60:0.04356050118803978 61:0.03687962889671326 62:0.024327239021658897 63:5.613444955088198E-4 67:0.04143150895833969 69:1.9569482901715674E-5 71:0.034927528351545334 72:0.00782851967960596 73:0.0010789715452119708 74:0.04529762640595436 75:0.03463045880198479 76:1.0773504072858486E-5 77:0.008939157240092754 79:0.03255658969283104 81:0.006305776070803404 83:0.02773432806134224 84:0.04000253975391388 85:0.020881418138742447 86:0.03335077315568924 88:6.075111450627446E-4 90:0.004817995708435774 93:0.04005122929811478 95:0.019394826143980026
-12.235726467422136 3:0.018976854160428047 5:0.0023276042193174362 6:0.05935628339648247 7:0.031712114810943604 9:0.02537478134036064 16:0.021717486903071404 17:0.02403170056641102 18:0.012381969951093197 19:0.0434289313852787 20:1.5582232663291506E-5 21:0.00967357400804758 22:0.027722666040062904 30:0.020017577335238457 31:0.053798869252204895 33:0.009844332933425903 34:9.189157863147557E-4 36:0.04594164341688156 37:0.009343244135379791 38:6.297162144619506E-6 41:0.058052029460668564 42:0.041304055601358414 46:0.004182338714599609 47:0.013159946538507938 48:0.0011410331353545189 49:4.818196248379536E-5 51:0.04072999581694603 52:0.0011269116075709462 54:6.988990935496986E-4 55:4.710089706350118E-5 56:0.05546407029032707 58:0.026631083339452744 59:0.002002398483455181 62:0.0024410474579781294 65:0.02503104694187641 66:0.046754565089941025 67:0.021726887673139572 68:1.8470814393367618E-4 70:0.039187416434288025 75:1.38208270072937E-4 77:6.252850871533155E-4 79:0.0105833038687706 82:0.019468087702989578 83:0.01935950107872486 87:0.008808020502328873 89:0.052100714296102524 91:0.017082221806049347 96:0.05065145716071129 98:0.024679051712155342
16.26136964472045 1:0.0188504196703434 2:0.022986840456724167 3:0.0052472809329628944 4:0.016179954633116722 5:4.356761351687055E-8 6:0.004419134929776192 7:0.0036626621149480343 8:0.027476606890559196 9:0.0017679493175819516 10:0.017248479649424553 11:5.296581075526774E-4 12:0.02117512747645378 13:0.0012690339935943484 14:0.026764966547489166 15:0.01018507033586502 16:5.334386951290071E-4 17:0.022747501730918884 18:0.0032590755727142096 20:0.016994338482618332 21:0.016598762944340706 22:1.9634695490822196E-4 23:0.005856310948729515 24:7.044363883323967E-4 25:0.00879524927586317 26:0.027111908420920372 27:0.015520806424319744 28:0.01242675632238388 29:0.021658582612872124 30:0.019590791314840317 31:0.022922806441783905 32:0.003758269129320979 33:0.027478670701384544 34:0.0014011131133884192 35:8.509691106155515E-4 36:0.003929708618670702 37:0.0127026978880167 38:0.010670903138816357 39:0.012112376280128956 40:0.025710582733154297 42:0.015432637184858322 43:0.017168229445815086 45:0.021708426997065544 46:8.405734115513042E-5 47:0.006009682547301054 48:0.021050868555903435 49:0.008674528449773788 50:0.004052725154906511 51:9.22801045817323E-5 52:1.9871123367920518E-4 53:0.0010277705732733011 54:0.011936776340007782 55:0.004578202497214079 57:5.894371424801648E-4 58:2.154577487090137E-6 59:0.026366101577878 60:0.018550004810094833 61:2.183043989134603E-6 62:0.016282465308904648 63:0.001440168940462172 64:0.013258598744869232 65:0.014028559438884258 66:0.022020669654011726 67:0.00493268296122551 68:0.01618083566427231 69:0.0059769777581095695 70:0.015087100677192211 71:6.338400417007506E-4 72:0.012486821971833706 73:0.02814042568206787 74:0.0023930128663778305 75:0.0014933947240933776 76:0.016567058861255646 77:0.003921451512724161 78:0.016826331615447998 79:1.095879815693479E-5 80:0.01680610328912735 81:0.018026677891612053 82:0.001411882578395307 83:0.02302170917391777 84:0.006838739849627018 85:1.5489991710637696E-5 86:0.007816850207746029 87:0.023058686405420303 88:0.002145101549103856 90:0.018575498834252357 91:0.020676421001553535 92:0.0060690613463521 93:0.014771929942071438 94:0.01488452311605215 95:6.074451957829297E-4 96:4.866769086220302E-5 97:0.004200535826385021 99:5.229103262536228E-4
16.26136964472045 66:1.0
16.26136964472045 32:0.6935581564903259 99:0.3064418137073517
-16.26136964472045 32:1.0
-16.26136964472045 25:0.00556771969422698 26:0.0764043778181076 34:0.024993734434247017 36:0.02410731464624405 50:0.029563231393694878 51:0.10041093081235886 54:0.0482194684445858 62:0.38669639825820923 65:0.23066917061805725 66:0.05936971306800842 97:0.013997940346598625
16.26136964472045 1:0.02957826666533947 2:0.014888393692672253 3:9.973079431802034E-4 4:0.01779976114630699 8:0.031794942915439606 9:0.006191679742187262 10:9.366259910166264E-4 11:2.861364046111703E-4 12:0.0019455592846497893 13:1.0985892231474281E-6 14:5.840700032422319E-5 15:0.02103065326809883 16:0.002977549796923995 18:0.014314202591776848 19:0.021955376490950584 21:0.02017696015536785 23:0.0042693037539720535 24:0.006215980742126703 26:0.029987139627337456 27:0.023955389857292175 30:2.8784028836525977E-4 32:0.0011301864869892597 33:0.02581879124045372 36:0.03209789842367172 37:0.017386067658662796 38:0.03946126997470856 39:0.014038292691111565 40:0.015674471855163574 41:0.006923924665898085 42:0.03856315463781357 43:0.0018809422617778182 44:9.179485687127453E-7 45:0.037255268543958664 46:0.0014444644330069423 47:1.5309592708945274E-4 48:2.0138589025009423E-4 50:0.005824454128742218 51:0.03626253455877304 52:0.03215345740318298 53:0.018417557701468468 54:0.0029066838324069977 55:0.037874169647693634 56:0.023208674043416977 59:0.009943264536559582 60:0.018302323296666145 62:0.016089966520667076 63:0.035805799067020416 64:0.005461365915834904 65:0.028098151087760925 66:0.005501956678926945 68:0.0022165856789797544 70:0.022608794271945953 71:0.00571098830550909 72:5.353410597308539E-5 74:0.009207409806549549 75:0.01059492863714695 76:0.015204702503979206 77:0.01765124313533306 78:0.006658232305198908 79:0.0028311768546700478 80:0.0031194116454571486 81:0.003669505240395665 82:2.549629134591669E-4 83:0.024037469178438187 85:0.02105572260916233 87:0.02222367562353611 88:0.010161754675209522 89:0.02378080226480961 90:0.00645325006917119 91:0.014551738277077675 92:4.0734931872066227E-7 93:0.007392001338303089 94:3.7784244341310114E-5 97:0.002978336066007614 98:0.010016515851020813
16.26136964472045 1:0.17066243290901184 9:0.07270051538944244 14:0.11817336827516556 15:0.09551766514778137 31:0.017504621297121048 43:0.002976629650220275 45:0.2084268033504486 50:0.19781619310379028 85:0.04862523451447487 87:0.014662519097328186 93:0.026404350996017456 97:0.02652967907488346
16.26136964472045 1:0.03255748376250267 2:7.716169420746155E-6 3:4.877776373177767E-4 6:0.034464895725250244 7:0.018833734095096588 8:0.013641217723488808 9:0.007284289691597223 10:0.007853933610022068 11:0.014518299140036106 12:0.00557012390345335 13:1.9437666924204677E-4 14:0.01361284963786602 16:0.015563415363430977 17:0.02616485022008419 18:0.007558559998869896 19:0.010019158944487572 20:0.015686895698308945 22:0.023196518421173096 23:0.030512306839227676 24:0.031492333859205246 26:0.005161904264241457 27:0.018941232934594154 28:0.00445345975458622 29:0.002874291269108653 30:0.032751791179180145 32:0.028195444494485855 35:4.4577603694051504E-4 38:0.010526753962039948 39:0.01563955470919609 40:1.552065514260903E-4 41:0.002001012209802866 43:0.022736938670277596 44:0.006199413910508156 45:0.005208585411310196 47:0.022582683712244034 48:0.013828733935952187 49:0.006796579342335463 50:0.02907111681997776 51:1.405100047122687E-4 52:0.018617477267980576 53:0.014089521020650864 54:0.02457565814256668 55:0.02925882302224636 56:0.013114276342093945 57:0.005605191923677921 58:6.30921742413193E-4 59:2.0395722822286189E-4 60:0.006037595681846142 62:0.006183121353387833 63:0.006118021439760923 64:0.033261965960264206 65:0.010520181618630886 66:0.003950074315071106 68:0.02995145134627819 70:0.01438413467258215 71:0.008674540556967258 72:0.01575830951333046 74:7.025811355561018E-4 76:0.0010647177696228027 77:0.0011653261026367545 79:0.02269640751183033 81:0.00522440392524004 82:0.0169078316539526 84:1.5089759699549177E-6 85:4.7341815661638975E-4 86:0.0030932354275137186 87:0.026151906698942184 88:0.013044693507254124 89:0.013214967213571072 90:0.011648818850517273 91:7.826986839063466E-4 92:0.029934443533420563 93:0.013761713169515133 95:0.011051093228161335 96:0.00231533613987267 97:0.023932641372084618 98:0.024965306743979454
-6.578263695455682 19:0.3794853687286377 46:0.0984557643532753 85:0.5220588445663452
-16.26136964472045 50:0.18296697735786438 59:0.4341001808643341 82:0.3829328417778015
16.26136964472045 7:0.1581009030342102 21:0.1832641065120697 26:0.19205667078495026 33:0.13183504343032837 47:0.15787337720394135 49:0.016284093260765076 58:0.03718338906764984 82:0.03501789644360542 90:0.08838452398777008
-16.26136964472045 1:0.013541657477617264 2:1.1358694791852031E-5 3:0.0017580271232873201 4:2.2378623543772846E-4 5:0.02273440733551979 6:0.007734553422778845 7:7.14918423909694E-4 8:0.01184724923223257 10:0.0033073502127081156 12:0.001657757326029241 13:0.01023908518254757 14:0.03320971131324768 15:0.001979900524020195 16:0.02892477624118328 17:0.030083490535616875 18:0.027303706854581833 20:1.1708695637935307E-5 21:0.01288570836186409 22:0.014392411336302757 23:1.2206427345518023E-4 24:0.015467480756342411 25:0.016798991709947586 26:0.028220493346452713 27:0.009144156239926815 28:0.009651100262999535 29:0.029770707711577415 30:0.005369612947106361 31:0.01906951330602169 32:0.007811607327312231 35:0.004063096828758717 36:3.3885520679177716E-5 37:0.006757216062396765 38:0.02048482373356819 39:0.00634711142629385 40:0.012936757877469063 41:0.03109167516231537 42:5.488413735292852E-4 43:0.006928826216608286 45:0.0013444479554891586 46:0.016048407182097435 47:0.02340848371386528 48:0.023939749225974083 50:4.2617644066922367E-4 52:0.0029931976459920406 53:0.018543777987360954 54:0.010409071110188961 55:0.007238957565277815 56:0.024785708636045456 57:0.030935971066355705 58:0.007482336368411779 59:0.004774185363203287 60:0.013132059946656227 61:0.014956397004425526 62:0.03004787489771843 63:0.0024512007366865873 65:1.9384772167541087E-4 66:0.004118222743272781 67:0.018894504755735397 68:0.00189843843691051 69:0.003100417321547866 70:0.018394138664007187 71:0.012374043464660645 72:0.005266459658741951 73:0.004365212749689817 74:0.006141809280961752 75:0.029296768829226494 76:0.006801476236432791 78:0.014612420462071896 79:0.02448737621307373 80:0.019338415935635567 82:0.014825553633272648 83:0.03097333200275898 84:3.8501773815369233E-5 85:0.02238117903470993 86:1.1015761629096232E-5 87:0.016013147309422493 88:0.0030849515460431576 90:0.00450826296582818 91:0.011543100699782372 92:1.383291819365695E-4 93:0.009470750577747822 95:0.0016997655620798469 96:0.00498276948928833 97:1.2924911061418243E-6 98:0.006924294400960207 99:0.018022673204541206
-16.26136964472045 6:0.015017527155578136 16:0.24836234748363495 33:0.25573888421058655 43:0.2680221498012543 78:0.21285909414291382
16.26136964472045 11:0.1346513330936432 12:0.17539836466312408 19:0.15161065757274628 35:0.16122551262378693 62:0.15186342597007751 73:0.06598100811243057 78:0.0068133226595819 82:0.06698623299598694 85:0.08547014743089676
16.26136964472045 5:0.0040960051119327545 18:0.007231724914163351 21:0.0028362793382257223 33:0.019905315712094307 36:0.12386339902877808 39:0.09559282660484314 40:1.0223644494544715E-4 41:0.10343646258115768 45:0.007900083437561989 50:0.09019012004137039 55:0.0011099411640316248 57:0.0017995490925386548 59:0.029856545850634575 60:0.0982859656214714 61:0.00456693721935153 62:0.09786641597747803 65:0.00797837134450674 67:3.882317469106056E-5 68:0.023138608783483505 73:0.00913422554731369 79:0.050437044352293015 85:0.03418271988630295 86:0.0026425847318023443 88:0.1114775538444519 92:0.01054181344807148 94:0.005984456278383732 96:0.05580399930477142
-16.26136964472045 23:0.06981318444013596 36:0.6923378109931946 58:0.0032526818104088306 61:0.2345963418483734
-12.273942191605494 36:0.05093208700418472 60:0.79731285572052 72:0.15175504982471466
-16.26136964472045 1:0.002217463916167617 9:0.02738538570702076 12:0.09673144668340683 15:0.001217368058860302 17:0.012406248599290848 20:0.028987398371100426 24:3.9334906614385545E-4 28:0.09185610711574554 44:0.07482192665338516 47:0.022567011415958405 62:0.11551366746425629 63:0.09404788911342621 72:0.044191304594278336 74:0.03307388350367546 75:9.903217433020473E-4 78:0.009306813590228558 81:0.02167387492954731 82:0.057884469628334045 83:0.05011378973722458 93:0.05913485214114189 94:0.15548543632030487
-16.26136964472045 1:0.015105104073882103 2:0.0034215522464364767 3:0.03367841616272926 4:0.005230410024523735 5:7.596500381623628E-6 6:0.02480713650584221 7:0.00884693581610918 9:0.024032602086663246 11:0.03998083993792534 12:0.005881726276129484 13:0.005716098938137293 14:0.041914019733667374 16:0.04126252606511116 17:0.031712908297777176 18:0.004553234204649925 19:5.148661439307034E-4 22:0.03232468292117119 25:0.024023067206144333 26:0.03385746106505394 27:0.00478789210319519 28:0.016858169808983803 29:0.007539904210716486 30:0.005535622593015432 31:0.03540997952222824 32:0.02317395806312561 33:0.004033991135656834 35:0.03578127548098564 36:0.041839972138404846 40:0.014586527831852436 42:7.566880085505545E-4 43:0.026227369904518127 44:0.003857198404148221 47:0.03487936779856682 51:0.014335469342768192 54:7.739984430372715E-4 56:0.0028189991135150194 59:0.02939729578793049 60:0.010540374554693699 61:0.004557929001748562 62:0.0167099479585886 63:0.015422260388731956 64:0.001773484400473535 65:0.004392043221741915 66:0.011314468458294868 67:0.030382778495550156 68:0.020180752500891685 69:0.0021865612361580133 70:8.293082937598228E-4 71:5.489907925948501E-4 72:0.0016657389933243394 74:0.009215664118528366 75:0.011423331685364246 76:0.00796850398182869 78:0.0058112661354243755 80:0.020718902349472046 81:7.034187001409009E-5 85:0.010636471211910248 86:0.026728831231594086 87:0.005139966960996389 88:0.0011693675769492984 89:0.005796968471258879 91:0.0012743704719468951 94:0.026975568383932114 96:0.02586151845753193 97:0.005283707287162542 99:0.03595571219921112
14.506404526553355 43:0.8490397930145264 61:0.0016457514138892293 81:0.14931447803974152
-16.26136964472045 4:0.03964831307530403 6:0.011084775440394878 14:0.09228970855474472 18:2.253676029795315E-5 22:0.19612455368041992 26:0.1424509733915329 40:0.11131612211465836 45:0.10336323082447052 57:0.014184698462486267 61:0.029008258134126663 65:0.017909813672304153 66:0.04357913136482239 67:1.3396801659837365E-4 68:0.06659139692783356 76:0.0049452404491603374 80:0.02031468041241169 86:0.10537702590227127 98:0.0016555720940232277
-16.26136964472045 1:0.20550690591335297 5:0.07568345963954926 9:0.11540413647890091 30:0.12147023528814316 31:1.0012325219577178E-4 32:0.05327693745493889 39:0.04712021350860596 40:0.1554020643234253 50:0.004957808181643486 68:0.046414028853178024 69:0.017793267965316772 76:0.05387113615870476 86:0.10299967974424362
-16.26136964472045 11:0.34630534052848816 16:0.06858448684215546 24:0.04438858479261398 25:0.0024624066427350044 55:0.2725125551223755 56:0.07201235741376877 90:0.19373424351215363
-16.26136964472045 7:0.26863813400268555 19:0.31556594371795654 36:0.0013299731072038412 39:0.15889328718185425 57:0.024029482156038284 66:3.2192641810979694E-5 75:0.1767246276140213 88:0.05478636547923088
-16.26136964472045 6:0.03137265145778656 9:0.02537827380001545 19:7.624397403560579E-4 36:0.0633140280842781 46:0.04994463920593262 48:0.1015755832195282 49:0.0015335000352934003 57:4.3268821900710464E-4 65:0.40038353204727173 76:0.018251311033964157 82:0.10233374685049057 92:0.20471760630607605
-16.26136964472045 13:0.08950821310281754 17:0.06795010715723038 18:3.530268440954387E-4 20:0.006552598439157009 24:0.00277839251793921 34:0.0018566512735560536 35:0.015662197023630142 36:0.0015482638264074922 40:0.012273874133825302 41:0.09457089751958847 44:0.07575899362564087 45:0.015262353233993053 52:0.06069004163146019 55:0.08004184067249298 60:0.01111274491995573 61:0.04166974127292633 62:0.009661112911999226 64:0.023386839777231216 78:0.018122384324669838 82:0.07789643108844757 83:0.042747724801301956 86:0.06797034293413162 87:0.09615731984376907 98:0.08646790683269501
-5.0151147246815055 11:0.021301431581377983 66:0.43456950783729553 84:0.18841856718063354 90:0.3557104766368866
-16.26136964472045 9:0.024392860010266304 28:0.0025903929490596056 51:0.24382741749286652 58:0.22558294236660004 80:0.23217470943927765 97:0.22645242512226105 98:0.044979244470596313
-16.26136964472045 9:0.03356853127479553 10:9.946093196049333E-4 11:0.009152301587164402 12:0.012927218340337276 13:0.006318393629044294 21:0.08111315965652466 24:0.003605976002290845 25:0.03677453473210335 32:0.0010560568189248443 35:0.006248954217880964 40:0.004404366947710514 42:0.040203191339969635 43:0.03502373397350311 44:0.06397649645805359 46:0.08729682117700577 48:0.047888580709695816 50:0.0019909688271582127 51:3.134364087600261E-4 53:0.04431261494755745 55:0.005927155259996653 58:0.00836158450692892 59:0.001196420518681407 64:0.0376586839556694 66:0.04079487919807434 67:0.002302807057276368 69:0.06199336424469948 71:4.254917075741105E-5 72:0.008297913707792759 75:0.06413830071687698 76:0.0451575443148613 78:0.001991630531847477 84:1.1797453225881327E-5 85:6.707216380164027E-4 86:0.02282896637916565 89:1.5404407167807221E-4 90:0.07796800136566162 91:0.03831695765256882 92:0.001114581013098359 97:0.01590656489133835 98:0.005141684785485268 99:0.042853888124227524
-16.26136964472045 5:0.15059781074523926 15:0.005586562212556601 17:0.0339294895529747 20:0.028048262000083923 28:0.0740065649151802 37:0.04450259730219841 40:0.05373833328485489 44:0.0019148695282638073 47:0.08055111020803452 49:0.008176827803254128 50:0.09948267787694931 58:0.15248990058898926 61:0.059378448873758316 62:0.03847646713256836 69:0.005999415647238493 74:0.09959681332111359 87:0.0037150082644075155 89:0.0022888993844389915 91:0.016013817861676216 96:0.04150612652301788
-16.26136964472045 1:0.01191610936075449 3:4.894374869763851E-4 4:2.5008301599882543E-4 5:0.028192775323987007 6:0.00686156190931797 7:0.03299145773053169 8:0.001232636859640479 10:0.030087726190686226 11:0.0012864148011431098 16:0.019368935376405716 17:0.013830572366714478 19:0.0036496389657258987 20:0.017509855329990387 21:0.019784025847911835 22:8.327459363499656E-5 23:0.004455608781427145 24:9.350266918772832E-5 25:2.1242482034722343E-5 26:0.0076172747649252415 27:0.03238986060023308 29:0.003907825797796249 31:0.011311687529087067 32:8.816533954814076E-5 33:0.025397220626473427 34:0.03331473097205162 35:0.009660238400101662 38:0.01694185473024845 42:0.0030383251141756773 43:6.267019780352712E-4 44:6.968926754780114E-4 45:0.019250456243753433 47:0.015771575272083282 48:0.031247340142726898 49:0.026904286816716194 50:0.012280864641070366 51:1.2029061053908663E-6 52:0.01838134229183197 53:0.0334651842713356 54:0.0013666994636878371 55:0.02248297445476055 58:0.02851318195462227 59:0.027313129976391792 60:0.0032106409780681133 61:0.029047800227999687 62:0.006299147382378578 63:0.0025725169107317924 64:0.03372672200202942 66:0.010027595795691013 67:7.662351708859205E-4 68:0.00406511127948761 69:0.004919028375297785 70:0.0011061993427574635 73:0.004908974748104811 74:0.004979648627340794 75:0.016977159306406975 78:0.02654176950454712 81:0.0030465065501630306 82:0.0017180180875584483 84:0.016977492719888687 85:0.027888035401701927 87:0.017732948064804077 88:0.03312777727842331 89:0.002365170046687126 90:0.023544801399111748 91:0.008849997073411942 92:0.018819240853190422 93:8.409982547163963E-5 94:0.008777828887104988 95:0.025129379704594612 96:0.02105451561510563 97:0.033367883414030075 98:0.033162541687488556 99:0.0011313396971672773
16.26136964472045 44:1.0
10.587560195156744 7:0.017215322703123093 9:0.2587374746799469 62:0.6572509407997131 75:0.06679623574018478
16.26136964472045 16:0.5039923191070557 42:0.005045436788350344 91:0.4909622371196747
-16.26136964472045 5:0.01122714951634407 6:0.06377439200878143 10:0.002765940735116601 11:0.0077774301171302795 13:1.7460423987358809E-4 16:0.045224130153656006 18:0.008247158490121365 24:0.09763913601636887 28:0.10019205510616302 36:0.04993608966469765 42:0.003418756416067481 46:0.015918882563710213 48:0.04209161177277565 54:0.020671343430876732 55:0.0018075685948133469 60:0.004707890562713146 68:0.13788114488124847 69:0.14189274609088898 84:0.024593524634838104 88:0.05053693801164627 89:2.898243837989867E-4 91:0.10168113559484482 94:0.03520595654845238 98:0.03010447509586811 99:0.002240115078166127
16.26136964472045 1:0.03777926415205002 3:0.0033216429874300957 4:0.0044247363694012165 5:0.0019963281229138374 8:0.0012659875210374594 9:0.0013998618815094233 10:0.00904811080545187 11:0.003398236585780978 14:0.02019163779914379 15:0.004699144046753645 17:1.4161659055389464E-4 18:0.010358975268900394 19:1.5885542836713284E-7 20:0.0058690328150987625 22:0.004608091898262501 23:0.026172732934355736 24:3.421849896767526E-6 25:7.025052764220163E-5 26:0.011159753426909447 29:0.015448721125721931 30:0.029015446081757545 31:0.0018725342815741897 32:0.0051430887542665005 33:0.008411525748670101 34:0.0015528618823736906 35:1.5095788694452494E-4 36:0.01254392322152853 38:0.026332097128033638 39:3.949430902139284E-5 41:9.88950952887535E-4 42:0.0245966799557209 43:0.0330054797232151 44:0.002005361020565033 45:0.0026563298888504505 46:2.4175703583750874E-4 47:0.0315333753824234 48:0.003724615555256605 49:1.7520558321848512E-4 50:0.007188924588263035 52:0.00323744909837842 53:0.005445889197289944 54:0.036186691373586655 55:0.04015926644206047 56:0.004685065243393183 57:2.215186395915225E-5 58:0.011589099653065205 59:0.003234991803765297 60:0.01696082018315792 61:0.03844894841313362 63:0.01763741485774517 64:0.03890873119235039 66:0.023093443363904953 67:0.03923685476183891 68:0.00740734813734889 69:0.0076268259435892105 70:7.851455011405051E-4 71:0.025543037801980972 72:0.0018696463666856289 73:2.1631462004734203E-5 74:0.0015598959289491177 75:0.03416888043284416 76:2.5378880673088133E-4 77:0.0032132843043655157 78:0.019706865772604942 79:0.019231300801038742 80:0.002276699524372816 81:0.006147997919470072 82:0.003920868504792452 83:0.030671479180455208 85:0.0014021351234987378 86:0.025290219113230705 87:0.007020589429885149 89:0.03870398923754692 90:0.0027561967726796865 91:0.014218282885849476 92:0.00500442273914814 94:0.030298206955194473 95:0.012198476120829582 96:0.036025140434503555 97:0.030269548296928406 98:0.001024971716105938
16.26136964472045 19:0.25984588265419006 30:0.16422174870967865 33:0.15593518316745758 58:0.4199971854686737
6.180705227070322 30:1.0
16.26136964472045 2:0.03269629925489426 4:0.04841428995132446 5:0.010075104422867298 14:0.05676339566707611 16:0.09339622408151627 19:0.07933467626571655 27:0.01675172708928585 30:0.023166444152593613 35:0.05259339511394501 44:0.0020535460207611322 48:0.009917506016790867 49:0.1038600504398346 52:0.10107405483722687 56:0.009174328297376633 57:0.06067843362689018 59:0.007674242835491896 62:0.10755457729101181 63:0.01668228767812252 73:0.04292814061045647 75:0.055421698838472366 80:0.010944459587335587 81:0.009506404399871826 87:0.03160994499921799 88:0.005762156099081039 91:0.011966620571911335
16.26136964472045 3:0.026154406368732452 6:0.041164614260196686 7:0.005839572288095951 8:0.029768196865916252 9:0.0024396663065999746 11:0.021490970626473427 12:0.02256881073117256 13:0.0025450987741351128 15:0.0458039753139019 16:2.5793951863306575E-5 17:0.020163599401712418 18:0.011129925958812237 20:0.016336960718035698 21:0.0024038786068558693 23:0.015823058784008026 24:0.0032063100952655077 26:0.011160493828356266 28:0.0074781812727451324 30:0.002210416365414858 34:6.587374373339117E-4 35:0.025329744443297386 36:0.007441431283950806 37:3.0954848625697196E-4 38:5.158512976777274E-6 40:0.031640779227018356 43:0.012502732686698437 45:0.04521754011511803 46:0.004278307780623436 47:0.007218115963041782 48:0.02517685294151306 49:0.006878979969769716 51:0.03480854257941246 52:4.828304226975888E-4 54:0.029426155611872673 55:5.442255642265081E-4 59:0.04647759720683098 60:0.005058270413428545 62:0.044925786554813385 65:0.03094460628926754 68:0.030566731467843056 69:0.037262026220560074 70:0.009581653401255608 71:0.04189092293381691 72:0.004548077937215567 73:0.016688251867890358 74:1.3012443378102034E-4 75:0.00735692260786891 77:0.0111710699275136 79:9.628030238673091E-4 80:0.008763710036873817 81:0.015294056385755539 83:0.04229043796658516 85:0.002743631601333618 88:0.033306535333395004 89:0.013006719760596752 90:0.010336310602724552 93:0.007141126319766045 94:0.0028366059996187687 96:0.008920621126890182 97:8.853452745825052E-4 99:0.04727644845843315
-16.26136964472045 1:4.4278299901634455E-4 2:6.108760717324913E-4 3:4.7809488023631275E-4 4:0.034670639783144 5:0.0011965634766966105 6:5.519528058357537E-4 7:0.002831981284543872 9:3.4746568417176604E-4 10:0.020218418911099434 11:0.02592364512383938 12:0.017070064321160316 13:0.001866901176981628 14:0.015472553670406342 15:0.035728663206100464 16:0.012944997288286686 17:1.3784054317511618E-4 18:3.635382163338363E-4 19:0.008786533027887344 21:0.019286973401904106 22:0.009215687401592731 23:0.021424375474452972 24:0.009730839170515537 25:0.0373758003115654 28:0.01377128902822733 29:0.02087554708123207 30:0.005808586720377207 31:0.0176490917801857 32:0.028882529586553574 33:0.015474866144359112 34:0.0030155139975249767 35:0.001493224292062223 37:0.010856023989617825 38:0.011352634988725185 39:8.161946316249669E-4 40:0.004649137146770954 41:0.01012270525097847 43:0.011830169707536697 44:0.025327257812023163 45:0.018575118854641914 46:0.020777130499482155 47:0.019585052505135536 48:0.015547126531600952 49:3.690125959110446E-5 50:0.005829731933772564 51:0.029495032504200935 52:0.017814354971051216 53:0.006832009647041559 54:0.01003451831638813 55:0.0020493175834417343 56:2.043330459855497E-5 57:6.613029836444184E-5 58:0.016211021691560745 59:0.010096880607306957 61:0.005095954984426498 62:0.002646134700626135 63:0.0010428052628412843 64:0.03250139206647873 65:0.02095697820186615 66:0.00860096886754036 68:0.025445938110351562 70:0.03198305889964104 71:2.5081253625103272E-5 72:0.006436333991587162 73:0.0014941864646971226 74:1.8451704818289727E-5 75:0.00209070579148829 77:0.0013595810160040855 78:0.014134778641164303 79:1.44474339322187E-4 80:0.005388905759900808 81:4.223092673782958E-6 83:0.006608995608985424 84:0.03033067099750042 85:0.021189332008361816 87:0.02161279320716858 89:0.04017040133476257 90:0.01876211166381836 91:0.0028476559091359377 92:0.021397246047854424 93:0.00808692816644907 94:0.012694288045167923 96:0.023619482293725014 97:4.548554716166109E-4 99:0.0012825694866478443
16.26136964472045 1:0.019368397071957588 10:0.044630229473114014 36:0.13734106719493866 37:0.16710034012794495 48:0.11115262657403946 69:0.13914498686790466 72:0.1537303626537323 74:0.04712070897221565 86:5.4232237744145095E-5 89:2.5801347874221392E-5 95:0.1803312450647354
16.26136964472045 6:0.04833398014307022 7:0.0010184949496760964 15:0.1694076657295227 16:0.0026594747323542833 17:0.03843066096305847 35:0.161912739276886 38:0.14060360193252563 40:0.17149440944194794 57:0.02498198114335537 62:0.17471526563167572 65:3.852682129945606E-4 96:4.31547116022557E-4 97:0.0656249150633812
16.26136964472045 4:0.02962449938058853 12:0.010984083637595177 19:0.04642753675580025 26:0.1790899634361267 27:0.15891031920909882 33:0.15237468481063843 63:0.009425079450011253 74:0.15649621188640594 84:0.18620796501636505 85:0.07045966386795044
16.26136964472045 14:0.05704489350318909 16:0.06845292448997498 18:0.003427670570090413 22:0.064057856798172 26:1.7788690456654876E-5 36:0.015455838292837143 39:0.15373580157756805 47:0.08990524709224701 52:0.0908656045794487 54:0.01499472837895155 58:0.09869445860385895 59:0.10952327400445938 60:0.03262147307395935 70:0.03528131544589996 71:5.141199217177927E-4 73:0.018194178119301796 79:1.9608123693615198E-4 84:0.022117218002676964 87:0.007275343872606754 90:0.06132374703884125 91:0.001454725512303412 97:0.04597674682736397 99:0.00886897649616003
16.26136964472045 25:0.476857990026474 78:0.144087016582489 90:0.379054993391037
1.8786595767845378 5:0.0638275071978569 6:3.1840524752624333E-4 17:0.041694290935993195 22:0.20320944488048553 33:0.00978686474263668 69:0.001499613863416016 71:0.030843516811728477 76:0.2990170121192932 88:0.25158369541168213 93:0.09821964800357819
16.26136964472045 77:1.0
16.26136964472045 72:1.0
16.26136964472045 3:0.09724709391593933 4:0.03811739757657051 11:0.12812069058418274 17:0.13427522778511047 18:4.26394835812971E-4 23:9.485750924795866E-4 27:0.06159663572907448 35:0.1048230454325676 44:0.08435133844614029 49:0.027747610583901405 56:0.08932908624410629 58:0.12115655094385147 61:0.04527744650840759 63:0.0028233539778739214 72:0.05505594238638878 76:0.0018786443397402763 79:0.005605615209788084 90:0.0012193435104563832
16.26136964472045 6:0.1998000293970108 36:0.25705841183662415 48:8.045148570090532E-4 53:0.23498350381851196 59:0.002223559422418475 71:2.5208809529431164E-4 77:0.06355317682027817 84:0.19966113567352295 87:0.04166357219219208
-16.26136964472045 44:1.0
-8.272964913647895 37:0.6393972039222717 58:0.36060282588005066
-16.26136964472045 30:1.0
-16.26136964472045 2:0.07478928565979004 25:0.10751526057720184 33:0.0020090676844120026 42:0.014105488546192646 59:0.07872223854064941 65:0.20836062729358673 76:0.33898666501045227 96:0.17551136016845703
-16.26136964472045 1:0.014867211692035198 2:0.01162940077483654 3:5.99263785261428E-6 4:0.006950117647647858 5:0.02532251738011837 6:2.2275178343988955E-4 8:0.02019975706934929 9:0.004304749425500631 10:0.012826288118958473 11:0.01921585388481617 12:0.0012959836749359965 13:0.006307139992713928 14:0.0309714674949646 15:0.0014391354052349925 16:0.00899894442409277 17:0.02996348962187767 18:0.014728429727256298 19:0.02491927146911621 20:0.014654598198831081 22:1.2731915921904147E-4 23:4.162586701568216E-4 24:0.0034488521050661802 25:0.0075658890418708324 26:0.01822395995259285 27:0.004838079679757357 28:0.0011270914692431688 29:0.033060237765312195 30:0.01636270061135292 31:7.10916006937623E-4 32:0.00249857222661376 33:0.0030472034122794867 34:0.027994424104690552 35:6.575112347491086E-4 36:0.03194788843393326 37:0.0019293392542749643 38:5.543512525036931E-4 39:0.025092018768191338 40:0.001399965607561171 41:7.988163852132857E-4 42:0.020167013630270958 43:0.028776666149497032 44:0.002055215183645487 45:0.004167350474745035 46:0.026284024119377136 47:0.031069546937942505 48:0.030277369543910027 49:6.058508370188065E-5 50:1.1220629676245153E-4 51:0.0130331264808774 52:0.00651854183524847 53:0.01046545896679163 54:0.0183359757065773 55:0.00920658465474844 56:8.662114851176739E-5 57:0.01911032758653164 58:0.003752955701202154 59:0.010175853967666626 60:0.0012799485120922327 61:0.002744456985965371 62:1.6587456048000604E-4 63:2.605808258522302E-4 65:9.434458479518071E-5 66:0.0020131655037403107 67:0.02371656335890293 68:8.363018278032541E-4 69:0.026119519025087357 70:4.145912535022944E-4 72:0.010612796992063522 73:2.900505787692964E-4 74:7.397130248136818E-4 75:0.0050437720492482185 76:0.012013093568384647 77:0.010611673817038536 78:7.27442791685462E-4 79:3.12815944198519E-4 80:0.0012311466271057725 81:9.378675022162497E-4 82:0.009890980087220669 83:1.4191499212756753E-4 84:0.017114147543907166 85:0.02762177214026451 86:0.008250122889876366 87:0.013893738389015198 88:0.021620048210024834 89:0.012512990273535252 90:0.018182560801506042 91:1.326380152022466E-4 93:0.003881969256326556 94:0.012415163218975067 95:0.025228023529052734 96:5.1315200835233554E-6 97:0.03140150010585785 98:0.03324253857135773 99:1.9123413949273527E-5
14.337873288018459 59:0.3144923150539398 60:0.5898429751396179 80:0.07422138005495071 89:0.0214433241635561
-16.26136964472045 28:0.2346881628036499 42:0.1749725043773651 55:0.001427871873602271 70:0.02524297870695591 81:0.5636684894561768
-16.26136964472045 6:0.5376158952713013 9:0.07307223230600357 20:0.38931187987327576
-16.26136964472045 4:0.041061192750930786 7:0.0055569675751030445 11:0.03750774636864662 21:0.07801519334316254 34:0.09418891370296478 47:0.004720797296613455 53:0.02994905225932598 68:0.059943363070487976 69:0.27557721734046936 81:0.032793931663036346 91:0.2995666265487671 95:0.019544541835784912 99:0.021574458107352257
-16.26136964472045 8:0.09779992699623108 25:0.2000793069601059 29:0.017003361135721207 42:3.5456419573165476E-4 50:0.04894435405731201 54:5.311914108574456E-8 61:0.007395459339022636 73:2.6660304865799844E-4 78:0.23593340814113617 90:0.27083805203437805 94:0.12138491868972778
-16.26136964472045 4:0.060606565326452255 8:0.01108110137283802 9:0.033018868416547775 15:0.004312523640692234 23:0.026079997420310974 28:0.0025859978049993515 30:0.14388646185398102 42:0.05677365884184837 43:0.014828601852059364 49:0.1385042518377304 54:0.1480236053466797 55:0.016618195921182632 59:0.007995680905878544 60:0.001385619048960507 71:0.08257194608449936 72:0.021743247285485268 78:0.13571622967720032 80:0.018128683790564537 87:0.04517741873860359 93:0.03096134588122368
-15.143875914732725 18:0.22647839784622192 25:0.2609138488769531 44:0.0015324237756431103 62:0.02073010988533497 66:0.2945557236671448 77:0.18291142582893372 85:0.012878058478236198
-16.26136964472045 1:0.00929192267358303 2:2.4146895157173276E-4 3:0.016491800546646118 4:0.0026405646931380033 5:0.0014393317978829145 7:0.007837540470063686 8:0.024968668818473816 9:0.005006857216358185 13:7.245962042361498E-4 14:0.033772893249988556 15:0.014540351927280426 16:0.026267576962709427 17:0.018261872231960297 19:0.007561550475656986 20:0.03422247990965843 21:0.0165948998183012 23:0.01861334592103958 24:0.005877875257283449 25:0.03163297101855278 26:0.034428685903549194 27:0.026097049936652184 28:0.011475089006125927 29:4.164045890320267E-7 30:0.0017924417043104768 31:0.014538886025547981 32:0.02279781550168991 33:0.002707877429202199 34:0.0074942829087376595 35:0.0034040785394608974 36:0.0020294487476348877 38:0.02056656777858734 39:0.0049075232818722725 41:0.00700831413269043 43:0.0022770529612898827 44:0.01766858622431755 45:1.1051287583541125E-4 46:0.014703960157930851 47:0.0213529821485281 48:3.9861054392531514E-4 49:0.020324379205703735 50:1.2622047506738454E-4 51:0.009457946754992008 53:0.029853397980332375 54:0.0034686310682445765 55:0.003178398124873638 57:0.02189784310758114 58:0.032386358827352524 60:0.023266000673174858 61:0.0026674214750528336 62:3.8840968045406044E-4 65:1.9366707419976592E-5 67:0.002753638429567218 68:6.353319804475177E-6 69:0.002492025727406144 70:0.03280887380242348 72:4.620328254532069E-4 73:0.009455186314880848 74:0.013053132221102715 75:0.026548773050308228 76:0.009906458668410778 77:0.0016966176917776465 78:6.503793993033469E-4 80:0.004863507114350796 81:0.017404619604349136 82:0.025491219013929367 83:0.007747381925582886 84:0.012899840250611305 85:0.026979748159646988 86:5.179292056709528E-4 87:1.88748053915333E-5 89:0.00769589701667428 91:0.011205836199223995 92:0.025845596566796303 93:0.03302803263068199 94:0.030834950506687164 97:0.013932610861957073 98:0.030585765838623047 99:0.012331593781709671
-16.26136964472045 1:0.0014838342322036624 2:0.03574591502547264 3:0.038086626678705215 5:0.004095126874744892 6:0.013013855554163456 9:0.00855077151209116 10:3.822935468633659E-6 11:0.006894499994814396 14:0.03272194042801857 15:0.03201419115066528 17:0.00793776847422123 19:0.002283721696585417 21:0.008244981989264488 22:0.010048389434814453 23:0.01573539711534977 24:0.0248187854886055 25:0.02304549515247345 29:0.03912564367055893 30:0.03137054666876793 31:0.01566813886165619 32:0.002898769685998559 33:1.2060181325068697E-4 35:0.01159789226949215 36:0.002583075314760208 38:0.022783812135457993 40:0.004527892917394638 41:0.029549356549978256 42:0.0020562917925417423 43:0.0023015309125185013 45:0.0013283051084727049 46:3.3231564884772524E-5 47:0.011890251189470291 48:8.286613156087697E-4 49:5.5008185881888494E-5 50:0.0060643949545919895 51:0.03143896907567978 52:0.010560189373791218 53:0.021489283069968224 54:0.0021275149192661047 55:0.03883601352572441 56:4.190466279396787E-5 58:0.002907593734562397 60:0.019679589197039604 61:1.8655668827705085E-4 62:5.545793101191521E-4 63:0.01198661606758833 64:0.008887444622814655 65:0.014199214056134224 66:0.0021992300171405077 67:0.01605941541492939 72:0.021385928615927696 73:0.009452265687286854 75:3.3873639767989516E-4 76:0.025549303740262985 79:0.001484832726418972 80:0.027545232325792313 81:0.011774705722928047 82:0.016977354884147644 83:0.02112451381981373 84:0.006091648247092962 85:0.0021941433660686016 86:0.011922067031264305 87:0.03563518077135086 88:0.005887018982321024 90:0.0011685648933053017 91:0.01151375100016594 92:0.0024482281878590584 93:0.037035416811704636 94:0.023602522909641266 95:0.03951362892985344 96:0.00553923100233078 97:0.004435683134943247 98:0.03488811478018761 99:0.011829285882413387
-15.066601495432478 5:0.2712256908416748 9:0.005165155977010727 78:0.23048169910907745 93:0.31993675231933594 99:0.17319069802761078
-16.26136964472045 1:0.17536114156246185 5:0.09759722650051117 8:0.04977402463555336 9:0.09596618264913559 38:0.08885006606578827 54:0.09650609642267227 56:0.11255373060703278 62:0.16937537491321564 77:0.09691537916660309 86:0.009800408966839314 91:0.007300384808331728
-16.26136964472045 6:0.018054358661174774 22:0.016971159726381302 25:0.005276701413094997 27:0.09397900849580765 32:0.2530294358730316 33:4.114145413041115E-4 38:0.13848868012428284 46:0.04737522825598717 52:0.019054986536502838 58:0.27534839510917664 74:0.10575807839632034 79:0.02625255100429058
-16.26136964472045 4:9.367954335175455E-4 13:0.11623894423246384 19:0.06134668365120888 20:0.10186032205820084 22:0.0851268395781517 24:0.044686637818813324 28:0.13358066976070404 29:0.19122503697872162 37:0.06682851910591125 46:0.020272647961974144 47:0.06894804537296295 52:0.0025004439521580935 56:0.032358165830373764 77:0.07409023493528366
-16.26136964472045 1:0.001168382354080677 2:0.05631691962480545 3:3.4100750781362876E-5 5:0.011968414299190044 6:0.017652936279773712 7:0.0028799879364669323 8:0.022384049370884895 10:1.2035793588438537E-5 11:0.0034145459067076445 15:8.732922142371535E-4 17:0.0031908100936561823 21:1.7551047494634986E-4 22:0.044908493757247925 23:0.012380773201584816 24:0.046947989612817764 25:0.05855188146233559 27:0.01009337231516838 29:0.05543103814125061 30:0.009127493016421795 34:0.011458241380751133 36:1.1034977796953171E-4 37:0.0035551947075873613 39:0.05155971273779869 40:0.05163414403796196 42:0.03295871987938881 43:0.002497386420145631 45:0.024653207510709763 49:0.04653744772076607 50:0.0013479021145030856 55:0.007827013731002808 58:0.04498638957738876 60:0.004742225632071495 61:0.04168529808521271 63:0.013494712300598621 64:0.005023099947720766 65:6.171301938593388E-4 67:2.963267033919692E-4 71:0.014746264554560184 73:0.00503601785749197 74:0.0024696870241314173 75:0.040184423327445984 77:0.010067544877529144 80:0.0010257388930767775 82:1.4117772479949053E-6 83:0.03440661355853081 85:0.01160290464758873 86:0.05186520144343376 87:0.006325459107756615 89:0.02302294783294201 90:0.00572729529812932 91:0.038630399852991104 92:4.729042702820152E-4 93:3.65310232155025E-4 98:0.04536302015185356 99:0.006190323270857334
-16.26136964472045 8:0.1106555312871933 10:0.032484766095876694 23:0.1024957224726677 26:0.06212066486477852 29:0.08354313671588898 30:1.8697594350669533E-4 33:0.16974912583827972 39:0.014963343739509583 42:0.13975931704044342 46:0.12723028659820557 53:0.014318560250103474 72:0.06335762143135071 81:0.07913494855165482
-11.470370702963573 66:0.07892251014709473 85:0.4871966242790222 91:0.3780122399330139 97:0.055868618190288544
-16.26136964472045 2:0.1342245489358902 10:0.13988588750362396 11:0.04085622355341911 16:0.002326527377590537 18:3.550385881680995E-4 19:0.0014808803098276258 22:0.010675227269530296 24:0.13084714114665985 25:0.07339585572481155 29:0.0042838831432163715 36:0.0784800723195076 43:0.06526944041252136 48:0.05637693777680397 50:0.0011065977159887552 51:0.04982660710811615 57:2.9488717245840235E-6 63:8.286392549052835E-4 68:3.9411126635968685E-4 69:0.04578079283237457 74:0.0902075543999672 81:0.0011848044814541936 90:0.04707296937704086 93:0.003919143695384264 94:0.021218184381723404
16.26136964472045 68:1.0
16.26136964472045 37:1.0
16.26136964472045 7:0.2814962863922119 25:0.28840190172195435 32:0.09876784682273865 55:0.014272286556661129 61:0.07834195345640182 68:0.07173451036214828 76:0.045757461339235306 83:0.007209098897874355 85:0.07813729345798492 89:0.00493650371208787 90:0.0305927786976099 93:3.520660102367401E-4
4.559578260410047 49:0.7566272020339966 74:0.15970294177532196 88:0.08366987109184265
-16.26136964472045 1:0.04506994038820267 2:0.023911867290735245 3:0.03430990129709244 4:0.003021656535565853 5:4.236653330735862E-4 7:0.02083948813378811 8:0.01667402684688568 9:0.006929516326636076 12:0.017399586737155914 14:0.008520040661096573 15:0.004119471181184053 18:0.0042185187339782715 19:0.007268138695508242 21:0.011043021455407143 22:0.021137239411473274 23:0.028105400502681732 24:0.0471566766500473 25:0.01741005666553974 26:5.596508271992207E-4 28:0.0013584087137132883 30:0.0061527276411652565 31:0.0013523203087970614 32:0.0025148328859359026 34:0.012839583680033684 36:5.296499584801495E-4 37:0.0038235196843743324 39:0.038633428514003754 40:0.0024901563301682472 41:0.0046160039491951466 43:0.026034530252218246 46:0.039161887019872665 47:0.042154353111982346 49:0.0027977689169347286 50:0.025459857657551765 52:7.424380746670067E-4 56:0.013800520449876785 57:0.0021897591650485992 61:0.03946413844823837 64:0.03668716177344322 65:0.03359144181013107 66:0.0036521651782095432 67:0.009681891649961472 68:2.097604883601889E-4 70:0.02886691316962242 71:0.04555944725871086 72:0.0017195763066411018 74:0.01806383952498436 75:0.027317747473716736 78:0.0027930547948926687 79:0.015886623412370682 80:0.00921469833701849 81:9.00446844752878E-4 82:0.004351569339632988 84:7.807749352650717E-5 85:0.04553019627928734 86:0.0019998892676085234 87:6.046125199645758E-4 88:0.0010170027380809188 89:4.243313378538005E-5 90:0.004753602668642998 91:0.04184368997812271 93:0.04061123728752136 94:0.002404466737061739 95:5.836044438183308E-4 96:0.0378011018037796
16.26136964472045 1:0.03448234125971794 26:0.0017636878183111548 47:0.3618522584438324 82:0.5810293555259705 83:0.020872322842478752
16.26136964472045 38:0.7642351388931274 84:0.23576486110687256
-16.26136964472045 7:0.13098056614398956 20:0.1806017905473709 27:0.1460144966840744 55:0.28706130385398865 56:0.2373168021440506 65:0.01802504062652588
16.26136964472045 1:0.029594549909234047 4:0.0849800705909729 6:0.07070698589086533 14:0.07237450778484344 17:0.06547469645738602 18:0.08547317236661911 19:0.010551807470619678 21:0.03311579301953316 23:0.06898199766874313 26:0.0029108216986060143 32:0.04829839989542961 39:0.0357169583439827 43:0.024732325226068497 45:0.0027695773169398308 46:0.03701115399599075 48:0.0027374783530831337 49:0.010221002623438835 56:0.031536515802145004 58:0.023716354742646217 59:8.462940604658797E-5 73:0.07320479303598404 81:0.0030439498368650675 83:0.0379653163254261 84:0.008526072837412357 85:0.01671355403959751 87:1.1727133096428588E-4 88:0.0322767049074173 90:0.027891380712389946 92:0.048308115452528 94:0.008827057667076588 96:0.0021369936875998974
16.26136964472045 3:0.12191744893789291 15:0.0025932476855814457 18:0.12495101243257523 21:0.07281191647052765 30:0.019640088081359863 31:0.09041503816843033 38:0.01263997983187437 39:0.06284631788730621 56:0.1086806207895279 60:6.539665046148002E-4 62:0.006274216342717409 63:0.024559762328863144 67:0.06880442798137665 75:0.10321890562772751 76:0.016007402911782265 77:0.020904460921883583 89:0.10612475872039795 96:0.03695642948150635
16.26136964472045 7:0.015601806342601776 10:0.0734676793217659 18:0.07875367999076843 20:0.08638715744018555 23:0.0017156553221866488 24:0.015810994431376457 28:0.002910969313234091 31:1.3502984756996739E-6 34:0.013389495201408863 44:5.170101067051291E-4 46:0.0797034502029419 48:8.246980723924935E-5 49:0.021332019940018654 51:2.1150543761905283E-4 57:0.08528601378202438 63:0.018688274547457695 65:0.07301244884729385 71:0.015565131790935993 78:0.0930725708603859 87:0.009611191228032112 89:0.06571432948112488 90:0.11978333443403244 96:0.129381462931633
16.26136964472045 4:0.016901852563023567 6:0.005943257361650467 11:0.14924544095993042 16:0.07206237316131592 17:0.05609966441988945 20:1.7838567146100104E-4 25:0.10510455071926117 26:0.09013786911964417 38:0.08719799667596817 40:8.478947565890849E-4 43:0.035899318754673004 46:0.02703617699444294 47:9.034110116772354E-4 56:0.015369134955108166 58:0.05129091441631317 64:0.13794957101345062 69:0.02257952094078064 80:0.06453794240951538 86:0.015078200958669186 99:0.04563652351498604
16.26136964472045 2:0.20701663196086884 9:0.26857197284698486 36:0.0013991286978125572 48:0.1730487048625946 54:0.02949918992817402 56:0.18747873604297638 57:0.01015391107648611 78:4.858235115534626E-5 88:0.1227831318974495
16.26136964472045 5:0.13724277913570404 9:0.2327388972043991 10:0.21825799345970154 19:0.08868934959173203 30:0.0709805116057396 50:0.08578066527843475 51:0.003377215936779976 54:0.13282769918441772 79:1.6455285367555916E-4 88:0.029940340667963028
16.26136964472045 5:0.016763828694820404 6:0.2890145182609558 12:0.00446873065084219 13:0.05389171466231346 28:0.1629830300807953 32:0.030640307813882828 36:0.0024660394992679358 42:1.870321575552225E-4 52:0.056152284145355225 68:0.04601854830980301 80:0.3374139666557312
16.26136964472045 6:0.1154998391866684 14:0.0031867369543761015 15:0.1555025428533554 21:0.15163137018680573 40:0.028041286394000053 57:0.06774510443210602 69:0.10838300734758377 75:0.1693848967552185 76:0.07719151675701141 83:0.1234336867928505
16.26136964472045 2:0.060421448200941086 4:0.019655531272292137 11:0.007476289756596088 13:0.0020267979707568884 16:0.00574541836977005 18:0.025249144062399864 21:0.006592272315174341 22:0.0467134490609169 24:0.050084687769412994 25:6.2192213954404E-4 27:0.011214092373847961 29:0.004298602230846882 32:0.001561774522997439 33:0.0444192998111248 35:0.02384655922651291 37:0.04116683825850487 40:1.014792246678553E-6 42:0.01108020544052124 43:0.019575931131839752 44:0.008213534951210022 45:0.06124493107199669 47:0.0010794595582410693 48:0.0330204963684082 57:0.052230607718229294 60:0.031048135831952095 61:5.3113293688511476E-5 63:0.005364818032830954 66:0.006165240425616503 67:0.04008834809064865 68:0.05404537543654442 69:0.02788584493100643 70:0.03180313855409622 74:0.0015062764286994934 75:0.045053888112306595 76:7.562349492218345E-5 78:0.006133560091257095 79:0.06477724760770798 84:0.03004257008433342 85:0.033179834485054016 86:0.0061109536327421665 90:3.7854010588489473E-4 92:0.007185192313045263 93:8.240929455496371E-4 94:0.04220716655254364 98:0.02853074111044407
16.26136964472045 6:0.1024838462471962 10:0.0038031223230063915 31:6.782393902540207E-4 36:0.007376293186098337 38:0.1074049323797226 42:0.06890642642974854 43:0.025024207308888435 45:0.096724733710289 46:0.04545726999640465 55:0.043177783489227295 61:0.043303657323122025 68:0.0026185025926679373 75:0.10191617161035538 77:0.0678364560008049 81:0.12019528448581696 82:0.09750430285930634 85:6.308070733211935E-4 94:0.0015244800597429276 96:0.0016018658643588424 98:0.06183161959052086
-16.26136964472045 2:0.08177203685045242 5:0.12737929821014404 6:0.11533717811107635 11:0.017144206911325455 22:0.06941786408424377 25:0.14859172701835632 29:0.0052436101250350475 35:0.10323645919561386 38:0.07472005486488342 45:0.00409622211009264 49:0.03232249245047569 50:0.0023980848491191864 53:0.036105845123529434 59:0.015735188499093056 60:0.0012647302355617285 76:0.004936685785651207 83:0.15998277068138123 85:3.155379381496459E-4
16.26136964472045 19:0.0048106396570801735 31:0.45819908380508423 91:0.5369902849197388
10.943836389129567 1:0.020003682002425194 31:0.2930791974067688 36:1.185878772957949E-6 54:0.06315197795629501 58:1.5743043331895024E-4 60:0.1174781322479248 72:9.679336217232049E-4 79:0.5051604509353638
16.26136964472045 11:0.5298094749450684 28:0.3409842848777771 97:0.12920622527599335
-16.26136964472045 2:0.006272841710597277 4:0.009815942496061325 12:0.0976066067814827 15:0.05095338821411133 18:0.07334057241678238 19:0.016611523926258087 21:0.005881999619305134 25:0.09890417754650116 28:0.06304311007261276 29:0.06027465686202049 33:0.03162194788455963 34:0.0038131000474095345 37:0.012828890234231949 38:0.08704307675361633 47:0.0019144642865285277 48:0.007090374361723661 49:0.06082860752940178 63:0.0458892323076725 68:0.03645523265004158 69:0.004378804005682468 76:0.005185622721910477 77:1.3332263915799558E-4 85:4.648143658414483E-4 88:0.02105877548456192 89:0.05284072086215019 90:0.026606161147356033 91:0.053262148052453995 96:0.048257745802402496 97:0.01762213744223118
-16.26136964472045 8:0.09470777213573456 9:1.6504753148183227E-4 12:0.009197337552905083 13:0.03566502034664154 20:3.2860354986041784E-4 21:4.502325609792024E-4 24:0.0035872869193553925 35:0.08232810348272324 38:0.07123487442731857 53:0.08180291205644608 58:0.08849106729030609 63:0.019232500344514847 66:0.016618257388472557 69:0.05198901519179344 71:3.684681432787329E-4 75:0.012667134404182434 77:0.016787491738796234 91:0.10229138284921646 96:0.09878181666135788 97:0.09670477360486984 98:0.11660090833902359
-16.26136964472045 57:0.6959710717201233 65:0.09034423530101776 92:0.21368470788002014
-6.947476510752767 89:1.0
-16.26136964472045 9:0.12241938710212708 13:0.016920140013098717 16:0.00231166067533195 46:0.03228086605668068 53:0.010064761154353619 55:0.027939001098275185 60:0.10258158296346664 68:0.17983806133270264 75:0.21409526467323303 76:0.1631718873977661 84:0.05082216113805771 85:1.7309514805674553E-4 89:2.2360867296811193E-4 92:0.07715852558612823
-16.26136964472045 8:0.10467338562011719 12:0.04096677526831627 18:0.0540454164147377 22:0.004449577536433935 36:0.007318802643567324 43:0.05685287341475487 45:0.11226995289325714 51:0.00822537299245596 60:5.056879599578679E-4 68:0.01241333968937397 72:0.07137564569711685 74:0.11774293333292007 80:0.08618555217981339 82:0.1040000319480896 85:0.07127752155065536 86:0.0784730538725853 90:0.0020587339531630278 97:0.06716534495353699
-16.26136964472045 6:0.28659552335739136 8:0.005327438935637474 10:0.004845285322517157 21:0.0021009480115026236 26:0.1571653038263321 27:0.13815899193286896 29:3.176059908582829E-5 35:0.0036338099744170904 41:6.559088774338306E-7 46:0.0056961835362017155 63:0.2745295763015747 89:0.01731746457517147 92:0.1045970469713211
-16.26136964472045 13:0.2945752739906311 79:0.7054247260093689
-16.26136964472045 2:0.07842348515987396 7:0.0015281829982995987 14:0.12085676193237305 16:0.006288356147706509 23:0.08675484359264374 24:0.0019471325213089585 26:0.08586283773183823 28:0.08554071933031082 46:0.0014363027876242995 49:8.650859235785902E-4 50:0.016450675204396248 51:0.05048159509897232 56:0.08005852997303009 59:0.006378419231623411 63:0.008712793700397015 67:2.5818328808213664E-8 74:0.01993827149271965 78:0.12565137445926666 80:0.015147277154028416 82:0.04527490213513374 86:0.10347294807434082 87:0.00644647004082799 95:0.05248301476240158
-16.26136964472045 1:0.007897590287029743 2:0.04818199947476387 3:0.005403597839176655 8:0.015278518199920654 9:0.04589824751019478 10:0.022005906328558922 13:0.011529460549354553 15:0.05590066313743591 16:0.043417949229478836 19:0.056155726313591 21:9.424156451132149E-5 23:0.0632869079709053 27:1.8426495080348104E-4 37:0.016017893329262733 40:0.010125708766281605 42:0.043882980942726135 43:0.06699951738119125 48:0.006037904880940914 53:0.05193168297410011 54:0.06685619056224823 55:0.006376040168106556 57:0.03584804758429527 58:0.052498746663331985 62:0.02651052363216877 63:0.03970429301261902 64:0.027061976492404938 67:0.02707856334745884 70:9.533882985124364E-5 71:0.002911339746788144 72:1.0839538845175412E-5 73:0.05783078446984291 75:0.001374649815261364 77:8.192732348106802E-4 79:0.004033519886434078 85:7.080073701217771E-4 86:0.0040235258638858795 87:0.01192772388458252 91:0.02036956138908863 92:0.005203458946198225 93:0.00300599099136889 94:0.017198435962200165 96:0.002457850147038698 97:0.01586456224322319
-16.26136964472045 13:0.038071393966674805 16:0.006055498495697975 25:0.012774674221873283 31:0.030489133670926094 32:0.004195589106529951 40:0.12222509831190109 46:0.016835717484354973 52:0.06395607441663742 59:2.537595573812723E-4 68:0.14747248589992523 74:0.2525239884853363 84:0.07453461736440659 91:0.1378035545349121 97:0.09280841797590256
-16.26136964472045 9:0.055493906140327454 11:0.031437668949365616 14:0.014618944376707077 27:0.0803082063794136 31:0.022835342213511467 34:0.003947683610022068 36:0.002608669688925147 38:0.1049424335360527 40:0.09322439879179001 43:0.015448017045855522 45:0.03939371556043625 49:0.01315152645111084 55:0.008501077070832253 60:0.005590209737420082 63:0.10466036945581436 64:5.4720178013667464E-5 66:0.06626780331134796 68:0.038801632821559906 70:0.050974711775779724 75:0.10028555244207382 80:0.10783348232507706 84:0.03961992636322975
-16.26136964472045 3:0.0027456446550786495 5:0.07644040882587433 11:0.05176335200667381 26:0.04430251568555832 42:0.05069107189774513 43:0.20435036718845367 45:0.008307845331728458 48:0.12189310789108276 53:0.0064756497740745544 61:0.25448018312454224 72:0.1784643828868866 98:8.546244498575106E-5
-16.26136964472045 13:0.15708647668361664 14:0.07483623921871185 27:0.12782178819179535 36:0.11342313885688782 45:0.05569848790764809 60:0.026227818801999092 69:0.019296830520033836 77:0.062384478747844696 80:0.07195929437875748 82:0.10734879225492477 86:0.10978521406650543 98:0.07413144409656525
-16.26136964472045 2:0.05138881132006645 4:0.0021353343036025763 5:0.05337494611740112 10:0.06364156305789948 13:0.05179290845990181 16:0.018818922340869904 18:0.012377394363284111 19:0.04245058074593544 21:0.028871789574623108 27:0.03225075453519821 29:3.3939334116439568E-6 32:0.004974856041371822 33:0.03107403963804245 39:0.0025326707400381565 41:0.06297142803668976 42:0.008345731534063816 48:0.0057913209311664104 49:0.046304404735565186 51:0.012872197665274143 52:0.006302076391875744 54:2.4354147899430245E-4 55:0.03192983940243721 57:9.10002738237381E-4 60:0.07329978048801422 61:0.013998481445014477 64:0.053169164806604385 67:0.0033995541743934155 68:0.003300580196082592 69:0.002353526186197996 70:0.04451689496636391 74:0.024569891393184662 75:0.054564643651247025 76:0.0057426453568041325 78:0.03044053353369236 79:0.007379082031548023 86:0.06258691102266312 93:6.303456757450476E-5 95:0.005392754916101694 96:0.043864019215106964
-16.26136964472045 5:0.029404891654849052 8:0.06498897075653076 21:0.00804769154638052 25:0.03603276610374451 27:0.05324537679553032 28:0.031857702881097794 29:0.014543606899678707 31:0.03514297306537628 34:0.005110630765557289 36:0.06370726972818375 40:0.06159607321023941 44:0.024903040379285812 47:0.033964745700359344 51:0.09089619666337967 52:0.04546358063817024 55:0.02342376671731472 57:0.01634702831506729 64:0.006411062087863684 66:0.010651737451553345 68:0.0702061876654625 72:0.07195701450109482 74:0.019292375072836876 75:0.04892877861857414 77:0.013593354262411594 78:5.467960145324469E-4 89:0.0778404250741005 93:0.040208928287029266 97:0.0016870301915332675
-16.26136964472045 52:0.9873732924461365 68:0.012626704759895802
11.039894964527264 79:5.304092774167657E-4 83:0.9994695782661438
-16.26136964472045 1:0.005791079252958298 4:1.3944202692073304E-5 7:0.009840913116931915 9:0.07111795991659164 11:0.0011481019901111722 14:0.0057480232790112495 16:0.059824615716934204 19:2.838257059920579E-4 24:0.0635797306895256 28:0.03465927764773369 29:0.012551689520478249 32:0.03991688787937164 36:0.04299088940024376 41:0.03925943747162819 47:0.002279536798596382 51:0.05160569027066231 52:0.0017118555260822177 53:0.034390322864055634 54:0.03130863606929779 56:3.844859602395445E-4 59:0.04041801020503044 60:0.008733363822102547 61:0.06402036547660828 62:0.07278072088956833 63:0.004856584127992392 64:0.004234384745359421 66:0.019631920382380486 67:0.0712776929140091 73:0.044240858405828476 74:0.006915787700563669 79:0.0012118705781176686 84:0.04842047020792961 85:0.018495338037610054 86:0.06549834460020065 94:0.004552498925477266 98:0.01630488783121109
16.26136964472045 30:0.08166379481554031 60:0.08607994765043259 64:0.17214909195899963 76:0.3624461591243744 88:0.11384692043066025 93:0.001049988903105259 97:0.18276411294937134
16.26136964472045 4:0.1535024642944336 10:0.13077227771282196 15:0.09346960484981537 18:0.12070383876562119 20:0.10288005322217941 23:0.0010581547394394875 25:0.025982744991779327 34:0.026304209604859352 54:0.0032846101094037294 58:0.024035099893808365 62:8.467884035781026E-4 64:0.004825219977647066 66:3.773718617594568E-6 67:0.043885067105293274 74:0.09599661827087402 76:0.011569924652576447 87:0.1261705607175827 97:0.03470899164676666
16.26136964472045 20:0.002252844162285328 30:0.1396990865468979 40:0.14240965247154236 45:0.33703455328941345 47:0.0015041178558021784 50:0.024346766993403435 56:0.08412449806928635 58:0.268583208322525 60:4.526954944594763E-5
9.29038548334527 25:0.13220731914043427 47:0.008886470459401608 57:0.7579793334007263 59:0.005135416053235531 64:0.006920749321579933 93:0.08887071907520294
11.410150364693864 4:0.04645279422402382 11:0.03482896089553833 27:0.0021245614625513554 36:0.44704964756965637 42:0.13195328414440155 45:0.05051086097955704 67:0.13284026086330414 73:0.11891099065542221 82:1.2262605650903424E-6 97:0.035327427089214325
16.26136964472045 8:0.18676204979419708 41:0.15581849217414856 60:0.2719939053058624 65:0.019231636077165604 67:0.30688732862472534 71:0.05408622324466705 93:0.005220343824476004
16.26136964472045 12:1.8450722564011812E-4 13:0.22094449400901794 24:0.00799679197371006 41:0.2745605707168579 43:0.013551760464906693 47:0.028711993247270584 53:0.16821640729904175 58:0.061649955809116364 67:0.006187991704791784 85:0.2179955393075943
11.347902078759516 7:0.08529926836490631 22:0.347960889339447 61:0.011717572808265686 62:0.13600735366344452 77:0.06382711231708527 89:0.3551878333091736
16.26136964472045 6:0.0339461974799633 9:0.01003775279968977 16:0.0016551368171349168 20:0.18241308629512787 41:0.14854493737220764 45:7.357583963312209E-4 52:0.11471864581108093 54:0.01909458078444004 56:0.030283689498901367 59:0.05583152174949646 75:0.17841067910194397 81:0.027865270152688026 86:0.17950555682182312 97:0.016957193613052368
16.26136964472045 4:0.06616304069757462 7:0.006817462854087353 10:0.003222896484658122 13:0.03991767391562462 20:0.05721006169915199 23:0.10543755441904068 25:0.050825297832489014 34:0.014293060638010502 36:0.001754789613187313 40:0.12755173444747925 45:3.911821295332629E-6 47:0.0024070204235613346 48:0.08729765564203262 50:3.088350349571556E-4 51:0.005043966230005026 53:0.0039510419592261314 55:0.0018238842021673918 59:0.11667556315660477 60:0.003046085126698017 65:0.109848752617836 86:0.08488355576992035 87:0.024678457528352737 88:0.08683769404888153
16.26136964472045 1:0.07444623857736588 21:0.04328607767820358 23:0.010980391874909401 29:0.15952907502651215 37:0.06269895285367966 45:0.020590638741850853 48:4.064770764671266E-4 55:0.060808684676885605 58:0.14580464363098145 67:0.059761613607406616 81:0.07953071594238281 83:1.4402686792891473E-4 94:0.013666411861777306 95:0.15459144115447998 96:0.04772207885980606 99:0.0660325363278389
16.26136964472045 5:3.0234343739721226E-6 11:0.02647475339472294 24:0.024542417377233505 26:0.042662326246500015 28:0.001530753099359572 34:0.1512346863746643 36:0.11718442291021347 41:0.02591322548687458 44:0.017462948337197304 56:6.634567398577929E-4 57:0.012512638233602047 58:0.08512605726718903 62:9.642714285291731E-4 64:0.0036017675884068012 65:0.124492347240448 66:0.12884201109409332 70:0.14240548014640808 71:0.021529965102672577 85:0.048485301434993744 94:0.023747237399220467 99:6.209223647601902E-4
-16.26136964472045 1:6.128107197582722E-4 2:0.003244711086153984 5:0.02129281871020794 6:0.0018071829108521342 7:0.019772952422499657 8:9.024807368405163E-4 9:0.014206521213054657 10:0.00978926382958889 11:0.01936950907111168 13:0.02965824492275715 14:0.02786538563668728 15:9.560372564010322E-5 16:4.091698065167293E-5 17:0.016001256182789803 19:0.01390326302498579 20:0.0015881386352702975 22:0.029958520084619522 23:1.1275577708147466E-4 24:0.01979990489780903 25:0.0010717768454924226 26:0.030225122347474098 27:0.015740394592285156 29:0.005761298350989819 30:0.030956288799643517 31:0.006589880213141441 32:0.00491794990375638 33:0.00410830695182085 34:0.001642592833377421 35:0.009083278477191925 36:2.8450487297959626E-4 37:0.031190995126962662 38:0.001753077725879848 39:0.005489822942763567 40:0.0071844495832920074 41:6.194117304403335E-5 42:0.0029893522150814533 43:0.0036382863763719797 44:0.032957468181848526 45:0.0031756574753671885 46:0.002254644874483347 47:0.01041487418115139 48:0.0279195848852396 49:0.03587833419442177 51:0.004197851754724979 52:0.003810037625953555 53:0.013908186927437782 54:0.002545494819059968 55:0.002674490213394165 56:0.013751505874097347 57:0.005357701331377029 59:0.0032514920458197594 60:9.353664936497808E-4 61:2.2436138533521444E-4 62:0.032663796097040176 63:8.978128898888826E-4 64:0.0068221804685890675 65:5.550496280193329E-4 66:0.018400589004158974 67:3.878038842231035E-4 68:0.015376469120383263 69:0.020603850483894348 70:0.018687721341848373 71:0.010546938516199589 73:0.001956796273589134 74:8.266235090559348E-5 75:5.462691769935191E-4 76:0.0076253218576312065 77:0.005566791165620089 78:0.019534101709723473 79:0.022148199379444122 80:0.030677732080221176 81:0.0017344173975288868 82:0.009089815430343151 83:0.0029974374920129776 84:2.2062487914809026E-5 85:0.013898702338337898 87:1.9293090736027807E-4 89:0.034044452011585236 90:0.0020557818934321404 91:0.008660390973091125 92:0.020856965333223343 93:0.006423688493669033 95:0.029823848977684975 96:0.023934485390782356 97:0.02739645168185234 98:0.01746969297528267 99:0.03235018625855446
-16.26136964472045 15:0.0859285444021225 30:0.1330825388431549 40:0.06293695420026779 43:0.08932336419820786 48:0.07509392499923706 65:0.1062796413898468 70:0.08882784843444824 75:0.11657488346099854 80:0.10656429827213287 86:0.04429106041789055 90:0.09109694510698318
16.26136964472045 5:8.367151021957397E-4 9:0.04101556912064552 11:0.0025472231209278107 13:0.06126769259572029 21:0.11310184746980667 23:0.051215898245573044 36:0.020798873156309128 44:0.052586812525987625 47:3.7670201891160104E-6 48:5.171738448552787E-4 52:0.008190244436264038 55:0.06295717507600784 58:0.06105174496769905 60:0.05922623351216316 62:6.658982601948082E-4 64:0.03308568894863129 75:0.0011123386211693287 81:0.11107582598924637 84:0.040769945830106735 86:0.08775147050619125 88:0.04508378356695175 89:0.11129715293645859 90:0.0037784515880048275 93:0.030062463134527206
16.26136964472045 13:0.3424934148788452 14:0.10375691950321198 25:0.19055718183517456 40:0.24535024166107178 61:0.09268118441104889 69:0.02516106888651848
-16.26136964472045 10:0.025786658748984337 18:0.12729902565479279 25:0.04414109140634537 35:0.0011902020778506994 36:0.022714804857969284 39:0.025888077914714813 55:0.13916374742984772 59:0.11162205785512924 62:0.0019744110759347677 72:0.10419445484876633 74:0.051040250808000565 75:0.028765542432665825 76:0.0032018099445849657 77:0.17005424201488495 78:0.024811437353491783 82:0.05023961886763573 84:0.05175699666142464 94:0.016155559569597244
16.26136964472045 19:0.08018393069505692 30:0.32349956035614014 57:0.32210707664489746 60:0.008582026697695255 74:0.06421637535095215 75:0.013127734884619713 93:0.03532758727669716 96:0.15295571088790894
16.26136964472045 11:5.353818414732814E-5 15:0.08797453343868256 16:0.1347348988056183 26:0.11918441951274872 30:0.12276079505681992 32:0.07781841605901718 35:0.07439497858285904 39:0.05312157794833183 46:0.020273011177778244 48:0.01171636302024126 51:1.0548540558374953E-5 54:6.488406797870994E-4 56:0.03262781351804733 57:0.011877899058163166 62:0.05055832862854004 63:0.015445118770003319 65:0.023311924189329147 66:0.023739786818623543 81:0.0038591157644987106 84:0.010315513238310814 85:0.0027965507470071316 89:0.05658774822950363 97:0.066188283264637
16.26136964472045 1:0.008406505919992924 4:0.009916361421346664 7:0.03964696824550629 14:0.0029644391033798456 17:0.14095363020896912 26:0.05769913271069527 36:0.1635313630104065 43:0.06775086373090744 52:0.07724270224571228 57:0.12453232705593109 65:0.022473761811852455 71:0.13775265216827393 73:0.0653228685259819 74:0.0814821794629097 89:3.242424572817981E-4
-16.26136964472045 16:0.41080668568611145 22:0.1324903964996338 29:0.15892855823040009 36:0.29777437448501587
16.26136964472045 5:0.22723552584648132 7:0.21218666434288025 20:0.033096205443143845 48:0.011212443932890892 53:0.12051313370466232 70:2.689084503799677E-4 72:1.9942194921895862E-4 76:0.09660322964191437 79:0.16006453335285187 93:0.10793068259954453 96:0.030689241364598274
16.26136964472045 12:0.060393162071704865 14:0.10222399234771729 20:0.026912612840533257 45:0.18209555745124817 61:0.016051730141043663 65:0.15827788412570953 80:0.0026728115044534206 84:0.006280783098191023 87:0.20294806361198425 90:0.24175208806991577 94:3.913246328011155E-4
12.239201309890298 4:0.02082796022295952 5:0.10136591643095016 6:0.17818953096866608 26:0.009108826518058777 27:0.22508461773395538 74:0.2283715009689331 78:0.018817616626620293 82:0.033551789820194244 88:0.02978932298719883 97:0.1548929065465927
