SVM-light Version V6.01
0 # kernel type
3 # kernel parameter -d
1.0 # kernel parameter -g
1.0 # kernel parameter -s
0.0 # kernel parameter -r
empty# kernel parameter -u
99 # highest feature index
2000 # number of training documents
1854 # number of support vectors plus 1
0.030562718858308635 # threshold b, each following line is a SV (starting with alpha*y)
-16.914955660209195 2:0.0026758790481835604 3:0.061815425753593445 4:6.653750688201399E-7 5:0.006246024277061224 7:0.022614547982811928 10:0.01840895786881447 12:0.005729237105697393 13:0.0097217857837677 15:0.022026222199201584 19:0.02505921758711338 23:0.027281973510980606 24:0.04024990275502205 25:0.014497512951493263 26:0.02686045877635479 29:0.0334465466439724 30:0.012164149433374405 32:0.021938005462288857 33:0.0044830418191850185 34:0.0017727073282003403 36:0.003753166412934661 39:0.05526632070541382 41:0.01890839822590351 42:0.03809969499707222 44:0.0195364560931921 45:0.0012501166202127934 47:0.0230926014482975 48:0.014411664567887783 50:0.012145677581429482 55:0.015735425055027008 56:0.0011226888746023178 58:0.0037726005539298058 59:6.946221110410988E-4 61:0.0034697058144956827 62:0.01216502208262682 63:0.03346380591392517 64:0.025570230558514595 65:1.6846349171828479E-4 66:0.013662997633218765 67:0.05130553990602493 68:0.04139552265405655 70:0.018501101061701775 72:0.006121205631643534 73:0.012712353840470314 74:0.008705031126737595 82:0.008425240404903889 83:0.023573698475956917 84:6.194583838805556E-4 85:0.007374866399914026 86:0.006030648946762085 87:0.0024126083590090275 88:0.05021800845861435 92:0.03460707888007164 97:0.04295262694358826 98:0.03176308423280716
16.914955660209195 1:0.01533898338675499 2:0.005882912781089544 3:0.011446069926023483 4:0.012641449458897114 6:0.002287947339937091 7:0.019985681399703026 8:0.010493713431060314 10:0.011007829569280148 12:1.0600259656712296E-6 13:0.023912649601697922 14:0.001109279110096395 15:0.01603548787534237 18:9.155146108241752E-5 20:0.033402226865291595 21:0.0179105494171381 22:0.01866922527551651 23:0.0019324246095493436 24:0.015546892769634724 25:0.013606145046651363 26:0.03221060335636139 27:0.0013175817439332604 28:0.010546712204813957 29:0.03643598034977913 31:0.00763153238222003 32:0.028452007099986076 33:0.023629041388630867 34:0.024250252172350883 35:0.0063742538914084435 36:0.0014526508748531342 37:0.00866572093218565 38:2.9631073630298488E-6 39:0.001648120698519051 40:0.025899464264512062 41:0.03803572431206703 42:0.0021225404925644398 43:0.009336911141872406 44:0.010004155337810516 45:0.002538359025493264 46:0.027799731120467186 47:0.02611355297267437 48:0.02756683900952339 49:0.03290804848074913 50:6.564676878042519E-4 51:0.016261953860521317 52:0.004682220984250307 53:0.014446940273046494 54:0.012480794452130795 55:0.03784732520580292 56:0.001674023806117475 57:0.008023406378924847 59:0.0019446320366114378 60:0.005142837762832642 62:0.01912061683833599 63:2.4227503558904573E-7 65:0.013110180385410786 67:1.6742227307986468E-4 68:0.006569008342921734 69:0.0019337813137099147 71:1.1257158621447161E-4 72:0.003111685626208782 73:0.003220281796529889 74:0.005717181134968996 76:0.004023045301437378 78:0.004491173662245274 79:0.025589698925614357 80:0.019429514184594154 81:0.016949176788330078 85:0.002010997151955962 87:0.0032837295439094305 88:6.576639134436846E-4 90:0.0017773963045328856 91:0.018717654049396515 92:0.0247710682451725 93:0.0015103693585842848 94:0.018979385495185852 95:3.460955631453544E-4 96:0.003041147720068693 97:0.014420769177377224 98:0.029247144237160683 99:0.038285575807094574
-16.914955660209195 1:0.007196132093667984 5:1.0534585453569889E-4 6:0.012139982543885708 7:0.023734377697110176 8:0.014218675903975964 10:0.017971264198422432 12:0.00142395356670022 14:0.03069659322500229 16:0.0032331072725355625 17:0.030550599098205566 21:3.122223715763539E-4 22:0.04681628197431564 23:0.03829103335738182 26:3.6826785071752965E-4 28:0.035573169589042664 29:0.01973101682960987 30:0.032784827053546906 31:0.0160857904702425 32:4.3821262079291046E-4 34:3.742386761587113E-4 35:0.025915294885635376 37:9.734219056554139E-4 38:0.019271139055490494 41:0.04067543148994446 42:0.00777653232216835 43:0.017586518079042435 44:0.005302327685058117 45:0.03693562000989914 46:0.002098167547956109 49:0.047359686344861984 50:0.04406040534377098 51:0.030041968449950218 53:0.008001926355063915 56:0.031531210988759995 58:0.04390187934041023 62:0.0025958071928471327 64:0.026041042059659958 66:0.039404481649398804 67:0.00914809200912714 68:0.0028924138750880957 69:8.087381720542908E-4 71:0.0011837236816063523 72:0.009570352733135223 74:0.03267103433609009 75:0.010650817304849625 77:0.02559630572795868 79:0.0016312099760398269 80:0.0033204741775989532 81:3.5065916017629206E-4 84:0.03858048468828201 85:0.007601781282573938 87:0.007952513173222542 88:0.0017973569920286536 89:0.02411636896431446 90:0.011945976875722408 92:0.011056763119995594 95:0.010427117347717285 97:0.027179863303899765
-3.413906561677619 34:1.0
16.914955660209195 1:1.618656242499128E-4 2:0.010786653496325016 3:0.023143744096159935 4:0.015443730168044567 5:0.003547686617821455 6:0.0090970229357481 7:4.620727268047631E-4 8:0.025649916380643845 9:0.02674212120473385 10:0.005606046877801418 11:0.022236505523324013 12:0.007928039878606796 13:7.579817320220172E-4 16:0.008850270882248878 17:0.026394350454211235 18:0.025078050792217255 19:0.02300834283232689 20:0.012299817986786366 21:1.3150159793440253E-4 22:0.011509944684803486 23:0.016832472756505013 24:0.021340874955058098 25:9.064238984137774E-4 26:0.02798587456345558 27:0.00405820831656456 28:3.608489641919732E-4 29:0.003907616250216961 30:0.007528417278081179 31:0.001525278203189373 32:0.016448967158794403 33:9.308441658504307E-4 34:0.0054551479406654835 35:0.020350487902760506 36:0.026035543531179428 37:0.00994583498686552 38:0.019856875762343407 39:0.018334541469812393 40:0.0165207851678133 41:0.02190627157688141 42:0.025965988636016846 43:0.003637947840616107 44:0.02293761447072029 45:0.004833604209125042 46:0.0036593559198081493 47:0.011504161171615124 48:0.0069221993908286095 49:0.020591091364622116 50:0.0015382861020043492 51:0.006018889136612415 52:7.543404353782535E-5 55:0.012886237353086472 56:3.168848343193531E-4 57:0.01440233364701271 59:0.023184139281511307 60:0.01670820266008377 61:0.009152446873486042 62:0.007432891521602869 63:0.00698196142911911 64:0.004090950824320316 65:0.00936155952513218 67:0.012318500317633152 68:0.011211049742996693 69:0.017641454935073853 70:0.002661860780790448 71:0.015787923708558083 72:0.003155575366690755 73:0.002849143696948886 74:0.015988903120160103 75:0.021296868100762367 76:0.018083659932017326 77:0.001308235339820385 80:0.02611265890300274 81:0.0038072015158832073 82:0.017088880762457848 83:0.018412649631500244 84:0.006910283118486404 85:8.591784280724823E-4 86:0.02231343276798725 87:0.004663081839680672 88:0.0022505843080580235 89:0.00316616240888834 90:0.010003603994846344 91:0.0057335905730724335 92:0.0013252458302304149 93:1.0707607725635171E-4 94:0.0057571083307266235 95:0.005905434489250183 96:0.009979596361517906 97:0.001667551463469863 98:0.003088064258918166 99:0.017276279628276825
-11.132856454802903 6:5.311563199938973E-6 9:0.053539540618658066 11:0.08054378628730774 57:0.49379363656044006 82:0.009245308116078377 99:0.3628724217414856
-16.914955660209195 1:4.784288757946342E-4 3:0.02214721590280533 5:0.0013478542678058147 6:0.024733638390898705 7:0.017713798210024834 8:0.008105612359941006 9:0.026607489213347435 10:0.0018535548588261008 11:0.0033600928727537394 12:0.02036023698747158 15:0.017962336540222168 16:0.030717667192220688 17:0.030383294448256493 18:0.014140808023512363 19:0.006938399747014046 20:0.003910614177584648 21:0.01997748576104641 22:6.459470750996843E-5 23:0.011437967419624329 24:0.02385454811155796 25:0.0020531420595943928 26:0.025259260088205338 28:1.475227327318862E-4 29:0.0028682686388492584 30:0.00709078973159194 31:3.6622682273446117E-6 32:0.009588956832885742 33:0.011222527362406254 34:0.014866692945361137 35:0.02371702715754509 36:0.002017501275986433 37:5.204675253480673E-4 38:1.8402015848550946E-4 39:0.0027619441971182823 40:0.031063131988048553 41:0.028504852205514908 42:3.7723322748206556E-4 43:0.02466215007007122 44:0.0055499086156487465 45:0.03382371366024017 46:0.006852416787296534 47:0.03209283947944641 48:0.003958418034017086 49:0.004117132164537907 50:0.02977774664759636 51:7.780765299685299E-4 52:0.007486606482416391 53:0.008215781301259995 54:0.018797405064105988 55:0.005089303012937307 56:0.006442549172788858 57:9.975843131542206E-4 58:2.7962311287410557E-4 59:0.0050375740975141525 60:0.007900587283074856 61:0.020018113777041435 63:0.01030708197504282 64:0.00304080150090158 65:0.027476388961076736 66:2.0905703422613442E-4 67:1.4773065049666911E-4 68:0.009126013144850731 69:0.005189282353967428 71:0.00901270192116499 72:0.021243585273623466 73:0.01390379574149847 74:2.8517478494904935E-4 75:2.3067810980137438E-4 76:0.007100922986865044 77:0.027111949399113655 78:0.030206551775336266 79:6.272630912462773E-7 81:2.4593657144578174E-5 82:0.0014204431790858507 83:0.016631826758384705 84:0.01378637459129095 85:0.004895804915577173 87:0.024933595210313797 88:0.00804049614816904 89:0.022151771932840347 90:0.016187937930226326 91:0.009372451342642307 92:0.033135127276182175 93:8.189238724298775E-4 95:0.013700388371944427 97:8.775611786404625E-5
-16.914955660209195 3:0.0019683577120304108 55:0.15842421352863312 57:0.7689336538314819 72:0.07067377865314484
16.914955660209195 25:0.27859678864479065 42:0.721403181552887
3.0338122657613327 3:0.26266759634017944 4:0.002716783434152603 10:0.0024222813080996275 18:0.09877534955739975 19:0.29976552724838257 25:0.13752883672714233 32:0.09320191293954849 55:0.0011365407845005393 83:0.07605677098035812 88:0.014171507209539413 93:0.011556909419596195
16.914955660209195 3:0.40042752027511597 23:0.02057816833257675 93:0.5789943337440491
-16.914955660209195 42:0.7100722193717957 72:0.28992781043052673
-16.914955660209195 4:0.18770411610603333 25:0.3026497960090637 39:0.31916362047195435 59:0.022013192996382713 70:0.07716145366430283 83:0.02639702707529068 87:0.06491077691316605
16.914955660209195 2:0.015823999419808388 3:0.002804662100970745 4:0.006842644885182381 5:0.03592405095696449 6:0.00547153502702713 7:0.001128385541960597 8:0.023145122453570366 9:0.01704099215567112 10:0.008288566023111343 11:0.016140783205628395 12:0.003686343552544713 13:1.5612388961017132E-4 14:9.646214311942458E-4 15:0.010395115241408348 16:0.02152327261865139 17:7.228071626741439E-5 18:0.00988792348653078 20:0.008243640884757042 21:0.009204119443893433 22:0.001994151622056961 24:0.022278597578406334 25:0.015619027428328991 26:0.001960553228855133 28:0.010041552595794201 29:0.02818734012544155 30:0.00520663894712925 31:0.0077231465838849545 32:1.4816438488196582E-4 33:0.0213067214936018 34:0.020517129451036453 35:0.004856352228671312 36:0.029861463233828545 37:8.197895949706435E-4 38:0.016367873176932335 39:0.01661168970167637 40:0.0018786736764013767 41:0.0033307746052742004 42:0.020140718668699265 43:0.00924677588045597 44:0.014900146052241325 45:8.849434962598934E-9 46:9.667982521932572E-5 47:0.003483591368421912 48:7.192873163148761E-4 49:0.007699328474700451 50:0.030672110617160797 51:0.012385349720716476 52:0.0022387478966265917 53:7.476005703210831E-4 56:0.012265278026461601 57:0.002632456598803401 59:0.006470751017332077 60:0.0011805305257439613 61:0.018385475501418114 62:0.0038273248355835676 63:0.006522752344608307 64:0.0024785117711871862 65:0.03679570183157921 66:0.010576643981039524 67:0.005095423199236393 68:0.003409357974305749 69:0.033271852880716324 70:0.002009118441492319 71:0.02716384083032608 72:0.012166035361588001 73:0.027855277061462402 74:0.0017629358917474747 75:0.02729666233062744 76:0.028402656316757202 77:0.005447572097182274 78:6.238914211280644E-4 79:0.008556703105568886 80:0.03511256352066994 82:0.0019010815303772688 83:3.5317789297550917E-4 85:0.017061324790120125 86:0.013523907400667667 88:0.0010574362240731716 89:0.02125503122806549 90:0.004875813145190477 91:0.01972472295165062 92:4.7307804925367236E-4 93:0.026332171633839607 94:0.03523000702261925 95:0.001837864750996232 96:0.0020116004161536694 98:1.0777667193906382E-4 99:0.02716151997447014
-16.914955660209195 19:0.20829440653324127 24:0.08700523525476456 39:0.03723599761724472 47:0.012637924402952194 65:0.20062796771526337 91:0.2679325342178345 96:0.1862659454345703
16.914955660209195 57:1.0
16.914955660209195 46:1.0
16.914955660209195 38:2.9183385777287185E-4 46:0.5118274092674255 72:0.48788073658943176
16.914955660209195 1:0.08698306977748871 2:0.11642234027385712 12:0.0016975092003121972 14:2.091216083499603E-5 19:0.015307740308344364 20:0.0010654089273884892 22:0.06530863046646118 24:0.002068150322884321 30:9.418200352229178E-4 31:0.06685048341751099 35:0.1027691587805748 46:0.024271778762340546 49:4.2399929952807724E-4 54:0.020551146939396858 58:0.01111644972115755 61:0.005771064665168524 63:0.006990164052695036 65:0.0036593603435903788 66:8.291504345834255E-4 69:0.01609537936747074 75:0.0523749403655529 76:0.008234319277107716 80:0.09030167013406754 81:0.05953222140669823 84:0.05520220100879669 85:0.03167038783431053 88:0.06410053372383118 94:0.0894400030374527
16.914955660209195 3:0.3559721112251282 34:0.6440278887748718
16.914955660209195 64:0.065605528652668 86:0.05172650143504143 90:0.1509874016046524 91:0.481665700674057 99:0.25001487135887146
-3.865288075742246 28:1.0
16.914955660209195 4:0.06478693336248398 7:0.01824217103421688 13:0.09688343852758408 18:0.10017085820436478 32:0.0034332824870944023 34:0.07714417576789856 37:7.578378426842391E-4 39:0.012906384654343128 40:0.0411481037735939 47:0.0978500172495842 56:0.022583888843655586 57:0.03965819999575615 71:0.03137475252151489 73:0.07126389443874359 82:0.0970102921128273 87:0.025997666642069817 91:0.032361362129449844 93:0.07479564100503922 96:0.09163109958171844
16.914955660209195 8:1.770455128280446E-4 9:0.19905588030815125 12:0.1550060361623764 21:0.12515738606452942 25:0.08295246958732605 42:0.24575047194957733 63:0.189126119017601 72:0.0027745983097702265
16.914955660209195 5:0.007203919813036919 16:0.01513059064745903 24:0.05202056095004082 38:0.1203729435801506 42:0.3707190752029419 56:0.1601453721523285 65:0.048289962112903595 70:0.01929659955203533 71:0.20682097971439362
-9.634966067888401 71:1.0
-16.914955660209195 1:0.5174375176429749 20:0.051867447793483734 40:0.07484136521816254 42:0.10922984778881073 49:0.039452068507671356 71:0.2071717530488968
-16.914955660209195 3:0.08589401096105576 4:0.09251410514116287 7:0.061252184212207794 9:0.27788832783699036 15:0.02823299914598465 20:0.0024820268154144287 21:0.009013775736093521 23:0.009356445632874966 30:0.14663293957710266 68:0.02826227992773056 88:0.12133784592151642 89:0.0391288660466671 96:0.09800419211387634
-16.914955660209195 19:0.20116841793060303 38:0.7678736448287964 55:0.030957939103245735
7.101435844125467 18:0.007879940792918205 27:0.12187695503234863 34:0.2940328121185303 36:0.5741643309593201 94:0.002045988105237484
-16.914955660209195 2:0.03309120982885361 5:0.3679804801940918 46:0.5989282727241516
16.914955660209195 1:0.03304024785757065 2:0.03545079752802849 3:0.015621205791831017 4:0.009396299719810486 5:0.01698070392012596 7:0.028289712965488434 8:4.5396551286103204E-5 9:0.0010971238370984793 10:0.0019003835041075945 11:0.00575930206105113 12:1.4474813724518754E-5 13:0.005641012918204069 14:0.0018406794406473637 15:0.01399205345660448 16:0.022552529349923134 17:0.023595167323946953 18:0.005289941560477018 19:0.0040715658105909824 21:0.016679957509040833 22:0.0021505276672542095 23:0.008091725409030914 24:0.0013131005689501762 25:7.954508873808663E-6 26:0.021508850157260895 27:0.00537353428080678 28:0.006479653064161539 29:0.012368486262857914 30:2.4112577375490218E-4 32:0.038120754063129425 33:0.004834802355617285 34:0.022294385358691216 35:0.00998878013342619 36:0.040689706802368164 37:0.010493294335901737 38:0.009893558919429779 39:0.028370358049869537 40:0.0029923177789896727 41:0.024248439818620682 42:0.0205136276781559 43:0.013413670472800732 44:8.120094425976276E-4 46:1.6376801067963243E-4 47:0.02069173939526081 49:0.001188616151921451 50:0.012746147811412811 52:0.012682193890213966 53:0.002137857722118497 54:0.009308082982897758 55:0.03756961226463318 56:0.002958339639008045 57:0.008805224671959877 59:0.005611884407699108 62:0.0012411075877025723 63:0.0031382483430206776 64:0.03084663115441799 65:2.0616987967514433E-5 66:4.904218076262623E-5 67:2.2323261873680167E-5 68:0.0021771083120256662 69:0.021560942754149437 70:8.842909301165491E-5 71:0.008353150449693203 72:0.0015562722692266107 73:5.341512951417826E-5 74:0.0209818035364151 76:0.012707832269370556 77:0.010361064225435257 78:0.022531673312187195 79:0.027523349970579147 80:0.03000502474606037 81:0.0016358263092115521 82:0.003623025957494974 83:0.007577391806989908 84:8.19152221083641E-4 85:0.003415723331272602 86:0.021060163155198097 88:1.650880731176585E-4 89:0.03530590236186981 91:0.03253714740276337 92:0.004170718137174845 93:0.0017792676808312535 94:0.0019902565982192755 95:2.2310152417048812E-4 96:0.006951560266315937 97:0.016858035698533058 98:0.0036692714784294367 99:0.025677653029561043
15.770425847231003 3:0.08081028610467911 4:0.4630495309829712 22:0.33662840723991394 28:0.06732982397079468 57:0.028721187263727188 71:0.023460758849978447
-16.914955660209195 10:0.05346378684043884 17:0.0518031120300293 21:0.21047654747962952 25:0.12870046496391296 36:0.30397382378578186 52:0.13369764387607574 75:0.007864776067435741 76:0.0341881699860096 89:0.07583165168762207
-8.11397404523183 3:0.3883479833602905 28:0.10469812154769897 63:0.37224501371383667 88:0.056844085454940796 90:0.07786481082439423
-16.914955660209195 35:0.02497885376214981 50:0.35390520095825195 62:0.1487925946712494 63:0.061083387583494186 91:0.25552430748939514 94:0.15302343666553497 97:0.002692221896722913
-7.817044521264477 14:0.33387911319732666 34:0.05995310842990875 91:0.3029331862926483 95:0.30323460698127747
16.914955660209195 2:3.303438425064087E-4 5:0.07611031085252762 9:0.13302794098854065 11:0.05268605425953865 16:0.07409998774528503 19:0.03187926113605499 28:0.22407865524291992 46:0.1737426221370697 58:0.03174985572695732 68:0.14697425067424774 82:0.01878543756902218 94:0.03653527423739433
16.914955660209195 3:0.051737476140260696 5:0.05060628056526184 9:0.07393081486225128 11:0.04510749503970146 12:0.004646853543817997 13:0.0024562645703554153 14:0.07235616445541382 16:0.051256272941827774 17:4.584436537697911E-4 19:0.011953970417380333 21:0.003958142362535 22:0.02205006405711174 25:0.026251936331391335 26:0.004171210806816816 27:0.016141505911946297 30:3.0935354880057275E-4 31:2.968468179460615E-4 32:0.016258809715509415 33:0.006585436407476664 34:0.00239460077136755 35:5.951211205683649E-4 37:5.835998454131186E-4 41:0.017096983268857002 43:0.0375690683722496 44:0.038110047578811646 47:3.9972193189896643E-4 49:0.041704244911670685 50:0.038951773196458817 52:0.020626330748200417 54:0.004278875421732664 55:0.03237788751721382 56:0.023170553147792816 57:0.011731049045920372 59:1.0540556104388088E-5 60:0.005333182867616415 67:0.009811993688344955 68:0.0017327697714790702 70:0.0016313055530190468 73:3.4660719393286854E-5 75:1.3284528904478066E-5 78:0.06469570845365524 81:0.01445892732590437 82:0.036827705800533295 86:0.05026634782552719 92:0.0018564597703516483 93:2.2745184833183885E-4 94:0.040368158370256424 96:0.04250006005167961 99:1.0825257049873471E-4
-16.914955660209195 16:0.3843277394771576 56:0.4489951431751251 68:0.16254568099975586 87:0.004131438676267862
16.914955660209195 50:1.0
-16.914955660209195 42:0.2107836902141571 50:0.6183291673660278 62:0.17088711261749268
-16.914955660209195 14:0.035034045577049255 34:0.38123759627342224 42:0.09479264914989471 44:0.14971601963043213 48:0.0033477561082690954 50:0.034495413303375244 58:0.07888661324977875 76:0.22248992323875427
-16.914955660209195 2:0.009681965224444866 3:0.053836215287446976 5:0.01125968899577856 8:0.012287996709346771 10:0.04776233062148094 12:0.0038403498474508524 13:0.04772697389125824 14:0.023824399337172508 15:0.026976846158504486 16:0.019060730934143066 19:0.03146328404545784 20:0.0027530223596841097 22:0.004140674136579037 23:0.005408913362771273 24:0.05197225883603096 25:0.01400283258408308 26:0.007809802889823914 27:0.026981499046087265 28:0.007548715453594923 32:0.01075861044228077 33:0.013723080046474934 34:0.011264869943261147 36:0.012758706696331501 38:6.508753722300753E-5 39:3.2215125975199044E-4 41:0.02500060573220253 42:0.02963203564286232 47:0.00456036115065217 51:0.024897268041968346 53:0.035224732011556625 54:0.03402457758784294 60:0.017582019791007042 61:0.010568840429186821 64:3.949960591853596E-5 65:0.04726031422615051 69:0.02856035903096199 70:0.003285703482106328 71:0.008802980184555054 72:0.01716424711048603 73:0.003079613670706749 74:0.03232681751251221 78:7.855772423681628E-7 79:4.554544575512409E-4 80:0.0012449217028915882 81:0.014943043701350689 83:0.027369989082217216 85:0.040057625621557236 87:8.53059027576819E-5 91:0.006020424421876669 93:0.025666749104857445 94:0.0018517549615353346 96:0.0350373238325119 97:6.990183028392494E-4 98:0.014364337548613548 99:0.0529622882604599
16.914955660209195 28:0.2223525196313858 44:0.12196524441242218 54:3.452427392858226E-7 55:0.27493321895599365 65:0.05128126218914986 76:0.0033381523098796606 82:0.180374875664711 91:6.17051322478801E-4 95:0.14395874738693237 99:0.0011785830138251185
16.914955660209195 24:0.0038367127999663353 30:0.4342775344848633 55:0.020315369591116905 60:0.23165401816368103 65:0.10577121376991272 85:0.204145148396492
16.914955660209195 1:0.015584270469844341 2:0.0057365731336176395 5:0.024926934391260147 8:0.03968779742717743 9:0.010303044691681862 14:0.0026932971086353064 15:0.0015847153263166547 17:0.002096126787364483 18:0.027550354599952698 19:0.0261993408203125 20:0.03632155433297157 23:2.9184797313064337E-4 25:7.725057657808065E-4 27:0.033892445266246796 30:0.011840187944471836 32:0.021588094532489777 34:0.002864797366783023 37:0.008552886545658112 38:0.03056664951145649 40:0.008184646256268024 41:0.04234342649579048 42:0.03769360110163689 45:0.009579503908753395 46:0.01268291287124157 48:0.017379440367221832 49:5.960228736512363E-4 50:0.009188773110508919 51:1.8238941265735775E-4 52:0.011266528628766537 53:0.0013756497064605355 54:8.22116737253964E-4 57:0.0029556439258158207 58:0.012572545558214188 60:5.08349621668458E-4 62:0.002470629522576928 63:0.008720559068024158 64:0.03868142142891884 65:0.025860635563731194 66:0.014517979696393013 67:0.009417199529707432 69:0.02264399640262127 70:0.026126259937882423 71:0.009048817679286003 72:0.016999978572130203 73:0.0037134946323931217 74:0.030208371579647064 75:0.007931887172162533 78:0.028824741020798683 80:0.028385145589709282 81:0.01652291975915432 82:0.03362935408949852 84:0.04059075936675072 85:0.015881620347499847 86:0.001570430351421237 87:0.022516565397381783 89:0.002608009846881032 90:0.0352284274995327 91:0.03914634510874748 92:0.019128849729895592 95:0.014168081805109978 96:0.012179890647530556 98:0.0021314918994903564 99:7.611565524712205E-4
-16.914955660209195 10:0.01454855315387249 22:0.12385775148868561 43:0.29038432240486145 60:0.007227269932627678 69:0.08023893088102341 82:0.4837245047092438 83:1.8673577869776636E-5
-16.914955660209195 3:7.478223997168243E-4 4:0.15546481311321259 5:0.001985623501241207 9:0.22695909440517426 32:0.0010836112778633833 33:0.0943119153380394 46:0.12229534983634949 58:8.036570507101715E-4 59:0.10222556442022324 64:0.11031167954206467 73:0.09475716948509216 77:0.019700517877936363 79:0.001172718359157443 97:0.06818046420812607
9.515363195451947 5:0.04839972034096718 12:0.02320476807653904 18:0.006728470791131258 50:0.01748581975698471 61:0.033960528671741486 73:0.19959528744220734 76:0.4032834768295288 77:0.011739862151443958 78:0.04078872501850128 96:0.21481333673000336
-16.914955660209195 50:0.5090197324752808 58:0.00984179973602295 60:0.3983292579650879 73:0.0828092098236084
10.456290932233685 33:1.0
16.914955660209195 11:0.021695856004953384 27:0.47962212562561035 91:0.4531567692756653 94:0.041727203875780106 96:0.0037980463821440935
6.723055171906558 1:0.1831541657447815 9:0.30051982402801514 33:0.01525292731821537 63:0.5010730624198914
-16.914955660209195 11:0.19929569959640503 20:0.16310016810894012 33:0.12561336159706116 45:0.0024613277055323124 52:4.556964370294736E-7 64:0.0019715758971869946 67:0.10808601975440979 76:0.2066298872232437 82:0.002352706389501691 84:0.007039022631943226 86:0.1766943633556366 91:0.006755406968295574
16.914955660209195 72:1.0
1.7060973231271126 42:1.0
-16.914955660209195 2:0.12766163051128387 5:2.4189366376958787E-4 22:0.21401682496070862 25:0.10148122906684875 50:0.38736388087272644 65:0.0479048527777195 69:9.851590903053875E-7 78:7.015099981799722E-4 94:4.349071332399035E-6 98:0.12062286585569382
4.905810020076311 12:0.0012057035928592086 35:0.4492364525794983 60:0.5495578646659851
10.312770636110947 17:0.4974941313266754 22:0.100177101790905 59:0.402328759431839
16.914955660209195 6:0.09383367747068405 28:0.10952486842870712 41:0.02710248902440071 43:0.1383369266986847 51:0.14684219658374786 58:9.293148177675903E-4 59:0.11906877905130386 61:0.1352960765361786 63:0.07062243670225143 75:0.14194290339946747 87:0.016500329598784447
16.914955660209195 18:0.025812987238168716 19:0.1935071349143982 26:0.24825522303581238 28:0.15644770860671997 34:0.008656518533825874 43:0.19211804866790771 66:0.013101259246468544 68:0.020007094368338585 76:0.030467499047517776 82:0.10120013356208801 96:0.010426403023302555
-16.914955660209195 14:0.07490824162960052 35:0.3279232680797577 37:1.6765674808993936E-4 53:0.001684450777247548 60:0.09436231851577759 74:0.035163894295692444 77:0.4617527723312378 84:0.004037405364215374
-12.102844477829764 59:1.0
-16.914955660209195 6:1.0
-16.914955660209195 28:0.23733291029930115 39:0.10721968114376068 61:0.21024629473686218 83:0.17508921027183533 91:0.27011188864707947
16.914955660209195 14:0.04403375834226608 33:0.18889057636260986 39:0.0367467924952507 44:1.9420382159296423E-4 45:0.002910218434408307 62:0.08287354558706284 65:0.31011220812797546 71:0.3096107542514801 86:0.024627918377518654
-15.170311155437533 12:0.10236264020204544 40:0.033716779202222824 46:0.11985801160335541 47:0.02622959017753601 52:0.1970350295305252 53:0.026370055973529816 65:0.494427889585495
-16.914955660209195 3:6.528470548801124E-4 8:1.0805849342432339E-5 33:0.25369778275489807 34:0.02412755787372589 48:0.26208773255348206 51:0.0794452354311943 54:0.06146432086825371 68:0.3134017884731293 70:9.074341505765915E-4 79:0.004204518627375364
-16.914955660209195 1:0.046256132423877716 12:0.014984196983277798 24:0.008460090495646 29:0.029664665460586548 33:0.20863638818264008 43:0.09426120668649673 58:0.06259273737668991 60:0.017382321879267693 62:0.026995666325092316 63:0.11154554039239883 70:0.0015246594557538629 71:0.13097712397575378 75:0.003132849233224988 77:0.001043529249727726 79:0.02367445081472397 82:0.13029974699020386 86:0.001003653509542346 88:0.004474402870982885 94:0.05299226939678192 97:0.030098380520939827
16.914955660209195 2:0.03380218520760536 10:0.18129941821098328 40:0.19919756054878235 42:0.1659814715385437 67:0.24469172954559326 73:0.03448478505015373 83:0.03335016965866089 97:0.10719269514083862
16.914955660209195 4:0.00480719143524766 10:0.27417507767677307 14:0.07931014150381088 21:0.08787594735622406 77:0.32864871621131897 83:0.2251829206943512
16.914955660209195 10:0.07571106404066086 20:0.23128348588943481 30:0.010919078253209591 32:0.060416724532842636 41:6.223341333679855E-4 43:6.202816148288548E-4 50:0.02516935020685196 55:0.017872199416160583 62:0.21974395215511322 91:0.3576415181159973
-6.2492980339100495 10:1.0
-16.914955660209195 10:0.3147498071193695 19:0.17367175221443176 24:0.007173560094088316 47:0.2802366018295288 68:0.10632777214050293 75:0.07801224291324615 80:0.03982825204730034
-16.914955660209195 10:0.13486570119857788 17:0.46610286831855774 49:0.03696044161915779 53:0.15703871846199036 87:0.20503227412700653
16.914955660209195 2:0.012059051543474197 4:0.023652411997318268 6:0.006750700995326042 13:0.016876548528671265 16:0.010300153866410255 17:0.002374625066295266 19:0.06496528536081314 21:0.050104957073926926 22:0.05871206894516945 23:0.06267091631889343 25:0.02583165653049946 26:0.00295859482139349 27:0.06321751326322556 31:0.02089737355709076 32:0.0026201759465038776 33:0.04180330038070679 35:0.025135589763522148 36:0.03346757963299751 37:0.0069380346685647964 40:4.2154896073043346E-4 41:0.05573076009750366 42:9.423809387953952E-5 43:0.001629411126486957 45:0.0010154482442885637 47:8.510603220202029E-4 49:3.0894673545844853E-4 52:0.005613856483250856 54:0.014895248226821423 58:0.003291657892987132 60:0.012476728297770023 61:0.02126969024538994 62:0.04360956698656082 65:0.01695702224969864 66:0.0013111026491969824 68:0.008830402046442032 69:2.930336049757898E-4 71:0.0015671603614464402 72:2.1806654694955796E-4 73:3.397924501769012E-6 78:0.05123897269368172 82:1.917246845550835E-5 83:0.012697199359536171 84:0.029884960502386093 87:2.1095882402732968E-4 88:0.031653761863708496 91:0.012210081331431866 93:0.05359698086977005 94:0.0036229423712939024 96:0.013215163722634315 97:0.05673988163471222 99:0.01318503450602293
16.914955660209195 45:0.1961473971605301 58:0.2893747389316559 60:0.11854724586009979 66:0.08788798004388809 74:0.005892765708267689 82:0.16219493746757507 94:0.13995492458343506
-7.274433799301758 58:0.8555794954299927 78:0.0463671013712883 80:0.09805340319871902
-16.914955660209195 1:0.002628715941682458 5:0.022620977833867073 9:0.006508648861199617 11:0.05574354901909828 13:0.0327225960791111 14:0.05694330856204033 19:0.0037804478779435158 21:3.893147804774344E-4 22:0.05440935865044594 23:8.19353499537101E-6 28:0.006276499014347792 29:0.006906631402671337 30:0.0015418805414810777 31:7.691155769862235E-4 34:0.020013045519590378 35:0.004983910825103521 36:0.03469080105423927 40:0.003563669277355075 41:0.06882835179567337 44:0.02476208657026291 46:0.022355860099196434 48:0.0010603899136185646 49:0.009341910481452942 50:0.04972843825817108 51:0.024012064561247826 54:0.0036966174375265837 56:1.4227122846932616E-5 57:0.05718662589788437 59:0.018047375604510307 60:0.008987356908619404 62:0.03811785951256752 73:0.0206267312169075 77:0.06171352416276932 78:0.06490543484687805 79:0.04117603972554207 80:0.005533927120268345 83:0.06383176147937775 91:0.010895969346165657 92:0.010413638316094875 93:0.04157109558582306 94:0.0026986016891896725 97:0.03599344938993454
16.914955660209195 5:0.0501893013715744 8:0.020209481939673424 10:0.048390936106443405 11:0.05002980679273605 21:5.405151750892401E-5 22:9.534961282042786E-5 23:0.11996981501579285 24:0.044648248702287674 25:0.031070198863744736 32:0.042926281690597534 46:0.004758093506097794 55:0.04759024828672409 60:0.0012827258324250579 62:0.12134823203086853 67:0.11906474828720093 74:0.015841610729694366 75:0.030797282233834267 77:0.019422227516770363 82:0.12799124419689178 86:0.051079973578453064 87:0.02609260566532612 88:0.027147537097334862
16.914955660209195 1:0.019803620874881744 2:0.021069979295134544 3:0.002946627326309681 4:0.002544780494645238 5:0.02770126424729824 6:0.0011277665616944432 7:0.013879962265491486 8:0.0031358839478343725 9:1.9586268172133714E-4 10:0.01177956722676754 11:3.2750534592196345E-4 12:0.008636657148599625 13:0.0015062181046232581 14:9.955015266314149E-4 15:0.002533536870032549 16:0.01725051738321781 17:0.03707485273480415 19:2.35814386542188E-5 21:0.038106199353933334 25:0.030962057411670685 27:0.009918028488755226 29:0.004031349439173937 30:0.005997943226248026 31:4.3915733840549365E-5 32:0.040543653070926666 33:0.005242806393653154 34:0.0014535848749801517 35:0.007916172966361046 36:0.026892436668276787 40:0.041911780834198 41:0.04340927302837372 44:0.01703113317489624 47:3.042721073143184E-4 48:0.03759562224149704 51:0.019490499049425125 53:0.0035779860336333513 55:0.005195226985961199 56:0.024189502000808716 57:0.012159030884504318 58:0.03912242874503136 59:0.04341869428753853 61:0.013019338250160217 62:0.010513180866837502 65:3.077831061091274E-4 69:0.005267724394798279 70:0.013281822204589844 71:0.009571962989866734 72:5.998428096063435E-4 74:0.01804223284125328 75:8.841064991429448E-4 76:0.03632557764649391 78:0.014407162554562092 79:0.03914761543273926 81:0.014040187932550907 82:0.03246989846229553 83:0.0024332476314157248 84:0.04295463114976883 86:2.019619569182396E-4 87:0.025136059150099754 88:0.044654618948698044 89:0.0018282884266227484 90:0.007339200936257839 91:3.3895723754540086E-4 93:0.0037265392020344734 95:0.004756977781653404 98:0.0018286260310560465 99:0.02587517350912094
16.914955660209195 7:0.01630447432398796 49:0.3012672960758209 54:0.006366090849041939 56:0.009670735336840153 68:0.656705379486084 95:0.009686027653515339
-16.914955660209195 9:0.028740294277668 21:0.021858830004930496 25:0.03823491558432579 40:0.20529648661613464 46:0.2147991955280304 65:0.21685922145843506 69:0.14199097454547882 75:0.1322200745344162
16.914955660209195 1:0.026616070419549942 2:0.21129129827022552 4:0.004723100923001766 12:0.01799689047038555 16:0.15562452375888824 23:1.3149021833669394E-4 55:8.858903311192989E-4 61:0.09128734469413757 63:0.07216242700815201 67:0.2506537139415741 74:3.345056902617216E-4 82:0.02174830064177513 89:0.1465444415807724
4.0441114487833065 47:0.24163731932640076 49:5.942275747656822E-4 56:0.052659500390291214 67:0.03365904837846756 75:0.03249110281467438 80:0.35065364837646484 94:0.2883051633834839
16.914955660209195 5:0.07272886484861374 11:0.17531614005565643 15:2.822488604579121E-4 45:0.19745178520679474 71:0.011533165350556374 76:0.12922626733779907 84:7.09505460690707E-4 89:0.22599825263023376 98:0.1867537647485733
16.914955660209195 12:0.0011541524436324835 14:0.0039591677486896515 15:0.03354712948203087 20:0.013071593828499317 29:0.08104103058576584 31:0.17165468633174896 45:0.14721433818340302 47:0.14429393410682678 52:0.04189322516322136 55:0.061551399528980255 60:0.020064717158675194 64:0.07450202107429504 74:0.0019569427240639925 76:0.03359965607523918 97:0.08977736532688141 99:0.08071863651275635
-16.914955660209195 24:0.04189736396074295 27:0.2971215844154358 28:0.09981556236743927 29:0.1374618262052536 38:0.11023412644863129 57:0.2587401270866394 73:0.04977767542004585 77:0.004951714538037777
-16.914955660209195 6:0.10589426010847092 31:0.15549857914447784 33:0.7365356087684631 87:0.002071524038910866
16.914955660209195 4:0.05602404102683067 6:0.07909870892763138 7:0.10243380069732666 8:0.048474282026290894 14:0.06997796148061752 31:0.009858900681138039 33:0.04651086777448654 36:0.010317866690456867 39:0.05787245184183121 41:1.260013086721301E-4 65:0.01095900684595108 66:0.04921042546629906 69:0.10675550997257233 70:0.05906025320291519 73:0.1110992282629013 77:0.056128937751054764 78:0.01194577757269144 81:0.0022771009244024754 86:0.005164613015949726 88:9.04517830349505E-4 94:0.10579974949359894
-16.914955660209195 1:0.01526594441384077 2:0.02492702193558216 4:0.0027310485020279884 5:0.0014622752787545323 6:0.008645804598927498 8:0.03255952149629593 9:0.001268698601052165 12:0.017197851091623306 13:0.0046500591561198235 14:0.021761564537882805 15:0.036510176956653595 16:0.026057247072458267 17:3.211763105355203E-4 18:0.03253951668739319 20:0.014557700604200363 21:0.0012739869998767972 22:8.709575631655753E-4 23:3.2936353818513453E-4 24:8.63045861478895E-4 25:0.030094385147094727 26:0.01134208869189024 27:0.0018487636698409915 28:0.01589464209973812 29:0.002716385293751955 30:7.96816311776638E-4 31:5.718029569834471E-5 32:0.0020169485360383987 33:0.009869654662907124 34:0.005616667214781046 35:7.653088541701436E-4 36:7.733652601018548E-4 38:0.02957545779645443 40:0.003435516497120261 41:0.016034750267863274 42:0.03479932248592377 43:0.03543258458375931 44:0.0038120243698358536 45:0.006256575230509043 46:0.0028125799726694822 47:1.5638515469618142E-4 48:0.007491142023354769 49:0.006778207141906023 50:0.004776433110237122 51:0.02004574052989483 52:0.0023016445338726044 53:0.03351529687643051 54:0.0036980921868234873 55:0.02663123980164528 56:0.003965074196457863 57:0.011876501142978668 58:0.002985164523124695 59:0.03560049459338188 63:0.010046418756246567 64:0.03753633424639702 65:0.005672677420079708 66:0.020192619413137436 68:0.003975437954068184 71:0.007053950801491737 72:0.020887725055217743 73:0.009928638115525246 74:0.03250955045223236 75:0.02029300667345524 77:0.02387731894850731 78:0.007935797795653343 79:0.0035891251172870398 80:0.008592868223786354 81:0.0012693124590441585 82:0.00700914254412055 83:0.0024738884530961514 84:0.02428552880883217 85:0.009695206768810749 86:0.006169493775814772 87:0.03926759958267212 88:0.0078925471752882 90:0.004530197940766811 91:0.023386811837553978 92:0.018825365230441093 96:0.0031321009155362844 98:0.017097195610404015 99:0.005308740306645632
-16.914955660209195 3:0.037905219942331314 4:0.02202926017343998 9:0.02049108035862446 18:0.15763723850250244 27:0.15203337371349335 28:0.05819530040025711 32:0.19520354270935059 36:0.04375717043876648 39:0.059349384158849716 46:0.1892343908548355 50:0.00617851922288537 73:0.047515738755464554 81:0.01046979334205389
16.914955660209195 4:0.14485818147659302 8:0.0012146217050030828 11:0.18192362785339355 17:1.1855959201056976E-5 19:5.9808640799019486E-5 25:0.004719460848718882 40:0.19736050069332123 44:0.06332140415906906 47:0.06433746963739395 53:0.16712325811386108 62:0.014914065599441528 69:0.016540464013814926 70:0.002077077981084585 73:0.041913580149412155 91:0.0996246263384819
16.914955660209195 4:2.6907391657005064E-5 7:0.1430317759513855 9:0.018709447234869003 11:0.1577610820531845 14:0.07535621523857117 18:0.060748837888240814 21:0.0617465041577816 25:5.83178480155766E-4 40:7.708027987973765E-5 52:1.6364581824745983E-5 53:0.02745095081627369 54:0.1113857626914978 64:0.09483059495687485 70:0.01227094791829586 77:0.035838861018419266 86:0.06510020047426224 91:0.007375550456345081 98:0.12768974900245667
-16.914955660209195 89:1.0
-8.423311131682881 4:0.20727069675922394 54:0.5240210294723511 76:0.2687082588672638
-16.914955660209195 4:0.18600602447986603 6:0.09968134015798569 21:0.03425519913434982 26:0.2909274697303772 34:0.07599793374538422 48:0.11360613256692886 76:0.08333595842123032 87:0.07959943264722824 93:0.02093600668013096 96:0.01565448008477688
-16.914955660209195 7:0.06400837004184723 15:0.12000463157892227 17:0.14080703258514404 20:0.05792193114757538 21:0.09573084115982056 33:0.035243578255176544 49:0.14687269926071167 55:0.044448744505643845 57:0.08009675145149231 67:0.0032365722581744194 69:0.02778608538210392 71:3.607498365454376E-5 78:0.1300974190235138 88:0.019130149856209755 95:0.03331826254725456 98:0.0012608659453690052
16.914955660209195 6:0.2509487569332123 14:0.008433536626398563 23:0.06317475438117981 27:0.23470652103424072 46:0.08232849091291428 48:0.13597674667835236 60:0.07057776302099228 76:0.014588668942451477 84:0.1392647624015808
-16.914955660209195 18:0.05402866005897522 19:0.3015619218349457 39:0.055672429502010345 45:0.003888559527695179 50:0.10948385298252106 54:0.0016886062221601605 59:0.07070426642894745 66:0.1744777262210846 69:0.12884025275707245 80:0.019028641283512115 98:0.08062510192394257
16.914955660209195 13:0.16277170181274414 15:0.001126337912864983 26:0.2589450478553772 32:0.2476821392774582 49:0.27361515164375305 75:2.1646005916409194E-4 88:0.0011507526505738497 99:0.05449241027235985
16.914955660209195 1:0.019869815558195114 3:7.775697158649564E-4 4:0.07984142005443573 10:0.03701433911919594 15:0.08692266047000885 26:0.09897622466087341 29:0.02653203345835209 32:0.09651152044534683 46:0.0032255614642053843 49:0.1162761002779007 52:0.10662588477134705 53:0.03003793954849243 55:0.00540888961404562 59:0.042135581374168396 63:0.031986843794584274 69:0.05119171366095543 78:0.016683727502822876 84:0.0042461794801056385 88:0.03396694362163544 92:0.05374500900506973 93:8.119188805721933E-7 95:0.05775584653019905 97:2.67388008069247E-4
16.914955660209195 9:0.07149143517017365 11:7.15156551450491E-4 12:0.04964910447597504 19:0.04006597772240639 31:0.04633357748389244 34:0.090070441365242 36:0.007847842760384083 38:0.03189234063029289 43:2.1815099171362817E-4 47:0.01697845570743084 48:0.005825582426041365 49:9.913108078762889E-4 51:0.06466800719499588 52:0.07301017642021179 55:0.004156871698796749 59:0.013123752549290657 60:0.007465993985533714 62:0.048224858939647675 68:0.0069837491028010845 71:0.06360627710819244 73:0.07672461867332458 76:0.0826212465763092 78:0.06405271589756012 82:0.04621749743819237 92:0.061594657599925995 95:0.006074372213333845 98:0.019395826384425163
16.218077706968163 5:0.017245877534151077 12:7.64388096285984E-6 16:0.0024642893113195896 17:0.18256354331970215 26:0.1482853889465332 28:0.0855306014418602 29:0.03207806125283241 39:0.14995083212852478 53:2.9494924820028245E-4 56:0.1305546760559082 65:0.03340347111225128 71:0.13672322034835815 83:0.043735258281230927 94:0.0371621809899807
-16.914955660209195 2:0.041280753910541534 11:0.028023721650242805 12:0.02791711501777172 13:0.02088160626590252 14:0.016680316999554634 16:0.040570057928562164 19:0.01973070576786995 20:0.0032754908315837383 22:0.024489231407642365 24:0.018962228670716286 25:0.02224002219736576 26:0.024751756340265274 27:0.04647880792617798 29:1.5338644152507186E-4 33:0.03603002801537514 34:0.038523539900779724 38:0.00862143561244011 41:0.024978913366794586 45:0.03314892202615738 48:0.03793368116021156 49:0.031955450773239136 50:0.0056736646220088005 51:0.023617619648575783 52:0.03903258591890335 54:0.0062026940286159515 59:0.026153841987252235 61:0.009561899118125439 65:0.05311769247055054 66:0.04026700183749199 67:0.03955678269267082 72:0.01229788176715374 74:3.3155473647639155E-4 75:0.0030207799281924963 78:4.241973801981658E-4 79:0.019454732537269592 82:0.0017852274468168616 84:4.286344046704471E-4 86:0.05551910027861595 90:0.02260240912437439 92:0.026316741481423378 93:0.004851724952459335 94:0.0018356129294261336 96:0.03242071717977524 98:0.028899727389216423
-16.914955660209195 20:0.06898512691259384 24:0.08770915865898132 25:1.357716682832688E-4 35:0.07840680330991745 36:0.005576985888183117 42:0.2369595319032669 53:0.06205080822110176 55:9.820887353271246E-4 77:0.18315333127975464 84:0.19927673041820526 89:0.01703927107155323 91:8.80615902133286E-4 94:0.05884378403425217
-16.914955660209195 70:8.90411261934787E-4 88:0.15848611295223236 92:0.4791620969772339 95:0.3614613711833954
16.914955660209195 20:0.4305730164051056 27:0.019212868064641953 36:0.0010591903701424599 66:0.2027256041765213 87:0.34642934799194336
16.914955660209195 2:0.019796451553702354 3:0.01168433390557766 4:0.01270818617194891 6:0.03163760155439377 8:0.010590114630758762 10:0.008450999855995178 11:0.05027018487453461 12:0.027214573696255684 13:0.019224874675273895 14:0.02610955387353897 15:1.5022334991954267E-4 16:0.02190924435853958 17:0.017302725464105606 19:0.0076609724201262 21:0.011028891429305077 22:1.789983216440305E-4 23:0.003839279990643263 24:0.016717487946152687 26:0.017776697874069214 28:0.04845069721341133 30:0.0019183953991159797 31:4.06956096412614E-5 32:0.0034979626070708036 33:1.3560490333475173E-4 34:0.0015189461410045624 36:0.017576642334461212 37:0.03041839599609375 38:0.03406296670436859 39:0.0019994082394987345 41:0.017736855894327164 42:0.0021492645610123873 46:0.02291463129222393 47:0.015424689278006554 48:0.026484204456210136 49:0.02918020449578762 53:0.008744601160287857 54:1.6307611261368038E-8 55:0.031634893268346786 58:0.006757344584912062 59:0.022271892055869102 60:0.0015250744763761759 62:0.04726686701178551 64:0.016581669449806213 66:0.013791912235319614 68:0.020497601479291916 69:0.011375917121767998 75:0.03750051558017731 76:0.006720527540892363 77:1.115637132897973E-4 78:0.012270253151655197 79:0.015524600632488728 80:0.028205852955579758 81:0.009410596452653408 82:0.0282127745449543 83:0.015832729637622833 84:0.020583834499120712 86:2.5740129058249295E-4 88:8.451289613731205E-4 89:0.007339546922594309 90:0.005846261978149414 91:4.319798244978301E-5 93:0.0012543335324153304 96:0.012094450183212757 97:0.009232185781002045 98:0.04050549119710922
16.914955660209195 1:0.010364347137510777 3:0.032996658235788345 5:0.021414997056126595 6:0.011772834695875645 7:0.015829168260097504 8:0.021239278838038445 10:0.013231023214757442 11:0.0054160114377737045 12:0.018711194396018982 13:0.01731000654399395 14:0.007715557236224413 15:0.01003815233707428 16:0.004669774789363146 17:0.008835804648697376 20:0.016184594482183456 21:0.006894882768392563 22:1.7735830624587834E-4 23:1.248084008693695E-4 24:0.03591838851571083 25:0.03083854168653488 26:0.03132041543722153 27:0.025026395916938782 28:8.776968461461365E-4 29:0.023987874388694763 31:0.003161958185955882 32:0.03487062826752663 33:0.013784817419946194 34:0.004470242653042078 35:0.0039808424189686775 36:0.0036329678259789944 37:0.008785562589764595 39:0.028054852038621902 40:0.02696838043630123 41:0.00967816449701786 42:0.014257555827498436 43:5.508390022441745E-4 44:0.0073260716162621975 45:0.013448632322251797 47:0.008473257534205914 49:0.0011402679374441504 50:0.0312814936041832 51:1.6811485693324357E-5 52:0.0053454237058758736 53:4.2633945122361183E-4 54:0.001155915204435587 56:0.017846964299678802 57:0.02018374763429165 58:0.01838833838701248 60:0.006524510681629181 61:0.0022026970982551575 62:0.0018133341800421476 64:0.03571147099137306 65:0.005638575181365013 66:0.017483461648225784 68:0.023801077157258987 69:5.369485588744283E-4 70:0.02422109618782997 71:0.00673774303868413 72:0.01663948781788349 74:0.009416786953806877 76:8.969085320131853E-5 77:0.007601906079798937 78:4.938000929541886E-4 79:9.033785318024457E-5 80:0.037841103971004486 81:0.0018395920051261783 83:0.002922500716522336 84:0.02600451372563839 86:0.008694343268871307 87:1.5201907217488042E-6 88:0.017539646476507187 89:0.015541499480605125 90:4.605275171343237E-5 91:8.905497961677611E-4 92:0.012667723931372166 93:0.023841289803385735 94:0.020519936457276344 96:0.009422826580703259 97:0.0014640992740169168 98:0.012197309173643589 99:0.0014367320109158754
16.914955660209195 10:0.08978090435266495 16:0.05491076409816742 27:0.022955231368541718 29:0.003474719123914838 35:0.021736841648817062 51:0.008174777962267399 56:0.04606488347053528 74:0.2240375578403473 85:0.05347379297018051 89:0.19097980856895447 92:0.2844107151031494
-16.914955660209195 9:0.17691448330879211 11:0.11837537586688995 23:0.19452624022960663 38:0.11340263485908508 46:0.017389759421348572 57:0.034424930810928345 59:0.22291062772274017 71:0.0014223390026018023 94:0.12063361704349518
-13.960808319369548 6:0.16317099332809448 11:6.7909231802332215E-6 26:0.012549314647912979 35:0.005209863651543856 37:0.06647542864084244 48:3.479104780126363E-4 52:0.19183604419231415 60:0.22118745744228363 61:0.22308030724525452 64:0.020029494538903236 73:0.08485233783721924 84:0.01125404704362154
16.914955660209195 3:0.049075931310653687 6:0.2815275490283966 10:0.15175969898700714 14:0.28155282139778137 25:0.1858540028333664 37:0.015285462141036987 41:0.03494453802704811
16.914955660209195 4:0.12460394203662872 24:0.02236785739660263 39:0.07876941561698914 41:0.015523472800850868 42:0.016252106055617332 51:0.10905604064464569 55:0.009388468228280544 56:0.12008283287286758 58:0.03646879643201828 66:0.002370239933952689 69:0.04565736651420593 70:0.026949606835842133 76:0.1432480365037918 84:0.14610399305820465 92:0.09021533280611038 97:0.012942489236593246
-16.914955660209195 39:1.0
-16.914955660209195 10:0.12266653031110764 14:0.08700244873762131 22:0.20800736546516418 29:0.43600279092788696 35:0.09284384548664093 65:0.05347701534628868
16.914955660209195 3:0.17139601707458496 11:0.15670211613178253 14:5.136841537023429E-6 19:0.16159376502037048 28:0.08555000275373459 48:0.012929643504321575 50:0.07474906742572784 54:0.015244608744978905 58:0.04170685634016991 69:8.574356907047331E-4 73:0.1697382926940918 81:0.02635127678513527 83:0.0011415445478633046 99:0.08203423768281937
16.914955660209195 7:0.1707354635000229 18:0.015925580635666847 20:8.935349178500473E-4 25:0.1156807616353035 39:0.0055072009563446045 50:0.12327685207128525 54:1.6340953152393922E-5 58:0.002562067238613963 63:0.022285697981715202 67:0.0288891289383173 70:0.001904208678752184 74:0.008279360830783844 75:0.0813075602054596 88:0.17285393178462982 89:0.04414080083370209 93:4.727472551167011E-4 94:0.19995956122875214 98:0.005309204570949078
10.691848149749545 16:0.17439377307891846 17:4.218811227474362E-6 23:0.3921666741371155 29:0.01352357305586338 30:0.040837302803993225 36:0.02300216071307659 62:0.0913538858294487 68:0.01124786026775837 77:0.009230359457433224 78:0.003988977055996656 88:0.15395542979240417 98:0.08629578351974487
16.914955660209195 1:0.16851310431957245 5:0.06660699099302292 23:0.14757929742336273 26:0.08471115678548813 29:0.19601942598819733 38:0.026869982481002808 50:0.09855534136295319 52:0.0678405836224556 65:0.10699567943811417 67:0.036308445036411285
16.914955660209195 6:0.04253077879548073 15:0.029080722481012344 29:0.13511115312576294 35:0.008859030902385712 36:1.856585731729865E-4 37:0.1488947719335556 39:0.11737114191055298 58:0.0034061348997056484 61:0.1015583947300911 65:6.53715746011585E-4 71:0.16930729150772095 83:2.4349505838472396E-4 94:0.07786159217357635 99:0.1649361252784729
16.914955660209195 5:0.1729922592639923 14:2.7783302357420325E-4 22:0.29624247550964355 63:0.23117084801197052 85:0.2993165850639343
16.914955660209195 2:0.060496971011161804 23:0.1354398876428604 26:0.09139277786016464 36:0.07875646650791168 38:0.07117772847414017 43:0.030981848016381264 44:0.1046362966299057 87:0.2245505303144455 92:0.03671219199895859 95:0.1658553034067154
-16.914955660209195 1:0.30690205097198486 15:0.012423364445567131 30:0.03880921006202698 32:0.005116036627441645 47:0.3156120777130127 55:0.1161293312907219 62:0.09608104079961777 87:0.022557567805051804 89:0.08636932075023651
-16.914955660209195 20:0.1457453966140747 30:0.02636258862912655 33:0.020778542384505272 46:0.11568155884742737 53:0.003581390716135502 54:0.02325814589858055 58:0.0192458163946867 61:0.01582460291683674 62:0.012383755296468735 65:1.5129288658499718E-4 66:0.13559681177139282 72:0.014688245952129364 75:0.04707678034901619 78:0.027730125933885574 79:0.07465236634016037 84:0.16567550599575043 85:0.13215050101280212 86:0.0031418772414326668 94:0.01627468690276146
-16.914955660209195 23:0.22268147766590118 29:0.21918781101703644 62:0.49886706471443176 65:0.05926363170146942
16.914955660209195 3:1.9749037164729089E-4 20:0.10436653345823288 27:0.0918683409690857 40:0.3150571286678314 57:0.2881152927875519 59:0.11241334676742554 61:0.08376139402389526 78:0.0042204647324979305
16.914955660209195 16:0.22257830202579498 17:0.22109857201576233 19:0.03550954908132553 24:0.10744539648294449 57:0.22358502447605133 72:0.04355562478303909 78:0.10356704890727997 83:0.012834275141358376 98:0.029826205223798752
16.914955660209195 34:0.004755557980388403 55:0.007800044026225805 84:0.40948179364204407 92:0.3376230001449585 95:0.24033960700035095
-16.914955660209195 5:0.15509290993213654 8:0.13062313199043274 25:0.08702532947063446 42:0.01393214613199234 91:0.2814751863479614 92:0.07988392561674118 97:0.2519673705101013
16.914955660209195 10:0.13813334703445435 18:0.1591247022151947 21:0.1342613846063614 26:0.2581287920475006 27:0.02585357427597046 47:0.23723989725112915 64:0.006364122498780489 71:9.253168827854097E-4 88:0.03996887430548668
16.914955660209195 6:0.10320974886417389 8:0.008315076120197773 10:0.03965204209089279 18:0.029424646869301796 20:0.005930692423135042 22:0.004820192698389292 25:0.07876438647508621 32:0.01225694827735424 33:0.013360858894884586 34:0.01482380460947752 35:0.00290861539542675 43:0.0549476183950901 53:0.001040046801790595 54:0.10044410824775696 60:0.01766195148229599 62:0.08896483480930328 63:0.044585831463336945 65:0.06224752962589264 68:0.03585745394229889 69:0.0140286386013031 71:0.06647323817014694 72:0.003843695390969515 75:0.04162202775478363 79:0.003202499123290181 81:0.0032535744830965996 82:0.005847338121384382 83:0.0880560651421547 84:4.26334299845621E-5 90:0.005993641447275877 93:0.03892377391457558 96:0.009496497921645641
16.914955660209195 1:0.008799511939287186 2:0.002689971588551998 3:4.922352381981909E-4 4:0.01881423220038414 5:0.006753000430762768 6:0.003968607168644667 7:1.9892914860974997E-4 8:3.1345116440206766E-4 9:0.020533889532089233 10:0.012504708021879196 11:0.0014936864608898759 12:3.018202551174909E-4 13:0.002622197847813368 14:0.008790628053247929 15:0.029779871925711632 16:0.027046717703342438 17:0.01069665141403675 18:0.00656341016292572 20:0.02551036886870861 21:0.009195797145366669 22:0.011060277931392193 23:0.0010099670616909862 24:1.486901624048187E-6 25:0.023109417408704758 26:0.022207431495189667 27:0.021195830777287483 28:2.3598011466674507E-4 29:0.022099195048213005 30:0.01427253894507885 31:0.015350605361163616 32:0.025522148236632347 33:0.029257457703351974 35:0.025063958019018173 36:0.0013038921169936657 37:0.016490111127495766 38:0.0034686352591961622 39:0.009300307370722294 40:0.0026871783193200827 41:0.024044862017035484 42:1.7399221974301327E-7 43:0.0032905058469623327 44:0.006746044382452965 45:2.2837983851786703E-4 46:0.007393329404294491 47:0.01678483374416828 48:2.3744124337099493E-4 49:0.009693862870335579 50:0.017100874334573746 51:7.477025064872578E-5 52:0.003414346370846033 53:0.01676461659371853 54:0.0013067921390756965 56:0.013542886823415756 57:0.0192275233566761 58:6.89179461915046E-4 59:0.0010987233836203814 60:0.0050028287805616856 61:0.0019922801293432713 62:0.029686907306313515 63:0.018636226654052734 64:5.517425597645342E-4 65:0.002060504164546728 67:0.019407041370868683 68:0.024520182982087135 70:0.016317877918481827 71:0.004439477808773518 72:0.004338484723120928 75:0.02556885965168476 76:0.02617744915187359 77:0.015358861535787582 78:0.0012968882219865918 79:5.380043876357377E-4 80:0.021809611469507217 81:0.003440570319071412 82:0.019694941118359566 83:0.018041962757706642 84:0.005959460511803627 86:0.004229566548019648 88:0.01069304347038269 89:0.007229055743664503 90:0.028637712821364403 91:0.012382677756249905 92:0.0036856208462268114 93:5.150029028300196E-5 94:0.031056366860866547 95:0.010314851999282837 96:0.03101988136768341 98:1.0191401088377461E-4 99:0.013412399217486382
-16.914955660209195 15:0.02595691569149494 39:0.11271049827337265 59:1.6989964933600277E-4 63:0.18263879418373108 66:0.019515937194228172 70:0.029966140165925026 73:0.021163908764719963 78:0.05202023684978485 79:0.25818929076194763 82:0.007577646989375353 84:0.2900907099246979
-16.914955660209195 28:0.2305385172367096 61:0.2521131634712219 78:0.252249538898468 84:0.26509878039360046
16.914955660209195 1:0.004992360714823008 38:0.117909736931324 65:0.47182056307792664 97:0.4052773416042328
16.914955660209195 2:0.0681728720664978 6:0.08933159708976746 12:4.180318210273981E-4 16:0.19039271771907806 18:0.002671860158443451 23:0.003074067644774914 27:0.08747536689043045 49:0.022523295134305954 60:0.06222941726446152 69:0.030971709638834 81:9.470248187426478E-5 89:0.16436418890953064 91:0.1090116873383522 94:0.022059068083763123 97:0.14720942080020905
-16.914955660209195 16:0.43699923157691956 18:0.16276803612709045 56:0.09900245070457458 81:0.01112403441220522 95:0.29010626673698425
-0.5590012545534185 26:0.373722106218338 27:0.2713339030742645 97:0.35494402050971985
16.914955660209195 23:0.4625023901462555 34:0.0012394316727295518 57:0.1895325779914856 77:0.27289536595344543 90:2.8327185646048747E-5 97:0.0738019272685051
16.914955660209195 12:0.054703131318092346 37:0.009664807468652725 43:0.056246910244226456 44:4.6694534830749035E-4 51:0.22404153645038605 54:0.018612463027238846 59:0.00683356449007988 68:0.07891228049993515 84:0.19693350791931152 87:0.10154574364423752 93:0.026152774691581726 95:0.22588633000850677
16.914955660209195 1:0.015867359936237335 3:0.004295101389288902 4:0.003146703355014324 5:0.02222106233239174 7:0.00794626772403717 9:0.015427905134856701 10:9.22317267395556E-5 11:0.004892657045274973 14:0.01670653559267521 15:0.003625981044024229 16:0.012899929657578468 18:2.099190460285172E-4 19:0.005220065824687481 21:0.025376683101058006 23:1.7157050024252385E-4 25:3.415535684325732E-5 26:0.005767012480646372 27:2.445140271447599E-4 28:0.0038125021383166313 29:0.033916257321834564 31:0.012602363713085651 32:0.021056702360510826 33:0.03333192691206932 34:0.011129834689199924 35:0.026280034333467484 36:0.03598150983452797 37:0.011177005246281624 39:0.0236135832965374 40:0.010668043047189713 41:0.012610436417162418 42:0.0040194750763475895 43:0.0014894030755385756 45:0.006748327985405922 46:0.00747097609564662 47:0.0063330004923045635 48:0.023212334141135216 49:0.0018057734705507755 50:0.009762046858668327 52:0.008137165568768978 54:0.002694888738915324 56:0.01966732367873192 57:0.0014792804140597582 58:0.003156824503093958 59:0.018202731385827065 60:0.013624332845211029 61:2.4317644420079887E-4 62:0.02707366831600666 63:0.010303321294486523 64:4.077946941833943E-4 65:0.022303959354758263 66:0.026646029204130173 67:0.025534702464938164 68:0.005918540991842747 69:5.989732453599572E-4 70:0.009850130416452885 71:0.009491956792771816 72:0.032333508133888245 73:0.03151173144578934 74:0.010272802785038948 75:0.006590421311557293 76:0.004782681819051504 77:0.0338691845536232 78:0.016647545620799065 80:0.010713509283959866 81:0.0043100276961922646 82:0.03220644220709801 83:6.222089286893606E-4 84:0.013123120181262493 85:0.02387538179755211 87:0.018449213355779648 90:7.659578113816679E-4 91:0.008417828939855099 92:3.313261442983162E-9 93:0.004590475466102362 94:0.0031518395990133286 95:0.01601538620889187 96:3.578411269700155E-5 97:0.018641915172338486 98:0.03002074733376503 99:0.03255028650164604
-16.914955660209195 22:0.006048654671758413 36:0.2331281155347824 39:0.049922771751880646 41:0.20519167184829712 42:0.01937125064432621 56:0.014992884360253811 78:0.3264675438404083 94:0.1448771059513092
-16.914955660209195 2:9.257830970454961E-5 4:0.002973558148369193 6:0.06594887375831604 13:0.11208419501781464 20:0.016670122742652893 32:0.10951078683137894 40:0.00783737562596798 44:0.013155974447727203 49:0.13695703446865082 59:0.018408337607979774 65:0.06509139388799667 73:5.690710386261344E-4 74:0.1258094310760498 80:0.17115743458271027 91:0.15373383462429047
16.914955660209195 29:0.16421203315258026 49:0.2598695755004883 50:0.2476198971271515 53:0.1715105026960373 55:0.1567811220884323 57:6.877321538922843E-6
16.914955660209195 4:0.16940496861934662 30:0.021918999031186104 50:0.31472721695899963 59:0.17370976507663727 62:0.078830286860466 79:0.15123778581619263 82:0.0901709571480751
-16.914955660209195 23:0.4511669874191284 28:0.04537561163306236 72:0.20942795276641846 76:1.39116773425485E-5 82:0.10080181807279587 95:0.19321371614933014
-16.914955660209195 6:0.049956314265728 8:0.01573648490011692 18:0.09227373450994492 19:0.021299613639712334 22:9.35885589569807E-4 25:0.09948671609163284 26:0.09780234843492508 33:0.022801252081990242 37:0.0585966631770134 42:0.0017586929025128484 46:0.0741773396730423 52:0.033522624522447586 54:0.06259908527135849 57:6.488773506134748E-4 61:0.023662766441702843 63:9.470587247051299E-4 64:0.048046328127384186 67:0.022907298058271408 73:0.024028310552239418 81:0.0018926776247099042 82:0.0017644820036366582 87:0.028717607259750366 89:0.0872947946190834 91:0.010838876478374004 95:0.00720750167965889 98:0.11109666526317596
-16.914955660209195 5:0.21521922945976257 20:0.024721920490264893 21:0.015079724602401257 45:9.71003610175103E-4 48:0.025344233959913254 49:0.03965536877512932 56:0.015158501453697681 60:0.17196263372898102 61:0.0030924591701477766 73:0.17805247008800507 75:0.09675370156764984 79:0.17677126824855804 96:0.03721751272678375
9.957956680883484 61:0.13217388093471527 80:0.6931894421577454 94:0.17463669180870056
-16.914955660209195 5:0.013522596098482609 10:0.062279149889945984 17:0.007250340189784765 21:5.113425431773067E-4 22:0.04335128888487816 24:7.709318015258759E-5 26:0.025030693039298058 27:0.03664229437708855 30:0.002424543956294656 32:0.04899166151881218 39:0.010787945240736008 44:0.008533669635653496 47:0.09288928657770157 48:0.013261157087981701 55:0.007429929915815592 64:0.03785627707839012 65:0.06423649191856384 67:0.04087396711111069 73:0.01824924722313881 75:0.0314486101269722 77:0.03763425350189209 78:0.051478590816259384 80:5.415345185610931E-6 82:0.029055677354335785 83:0.06398633122444153 92:0.0701349675655365 93:0.08120094984769821 94:0.06493773311376572 97:0.03591850399971008
-16.914955660209195 4:0.09329260140657425 11:0.11364750564098358 12:0.02201123908162117 16:0.009206781163811684 19:0.05618906393647194 20:0.01732027158141136 38:0.08797793090343475 40:0.14523044228553772 42:0.09987495094537735 51:0.04221167415380478 52:0.0016372347017750144 60:0.02232401631772518 65:0.0866539478302002 72:0.06753582507371902 74:7.136969361454248E-4 75:0.13336212933063507 93:8.106804452836514E-4
-16.914955660209195 4:0.03809913620352745 7:0.00778660923242569 22:0.01700243167579174 27:0.13684600591659546 33:0.13644541800022125 38:0.02637549489736557 44:0.009218970313668251 45:1.4461077807936817E-4 47:0.10630493611097336 53:0.04264472797513008 68:0.08552778512239456 73:0.11701031029224396 79:0.06176387146115303 81:0.01125068124383688 83:0.017453253269195557 84:2.866313443519175E-4 85:0.028228402137756348 93:0.09714216738939285 94:0.007754038088023663 95:0.0527145154774189
-16.914955660209195 3:0.02840137854218483 9:0.008657905273139477 10:0.05486240237951279 11:0.028048962354660034 14:0.060659222304821014 27:9.281913662562147E-5 29:0.011364085599780083 30:0.004827324766665697 32:0.06413865834474564 33:0.02735739015042782 34:0.02746390365064144 37:0.019127465784549713 38:0.01897689700126648 39:6.0974369262112305E-5 40:0.05535557121038437 45:0.061157844960689545 49:0.05358918383717537 50:0.0069125257432460785 51:0.0011508603347465396 53:0.04884080961346626 56:0.02342570573091507 58:0.023091241717338562 59:0.06346205621957779 63:0.018096966668963432 66:0.010715088807046413 67:0.0024554498959332705 68:0.014099359512329102 69:0.0025535156019032 71:1.1144509335281327E-4 74:0.012572014704346657 77:0.0165117047727108 79:2.0932662300765514E-4 82:0.05097140744328499 84:0.013275484554469585 85:0.06805753707885742 86:0.011732129380106926 89:0.01798640750348568 91:2.84269277472049E-4 93:0.03380521759390831 94:3.148000978399068E-4 95:0.028574198484420776 97:0.0031801932491362095 98:0.0034682985860854387
16.914955660209195 5:0.0716329962015152 10:0.0044755456037819386 13:0.14669664204120636 15:0.008949296548962593 16:0.00691606430336833 24:0.01204881351441145 29:0.09433287382125854 35:0.1689254641532898 45:0.16698870062828064 72:0.12114968150854111 78:0.16842339932918549 89:4.542042916000355E-6 96:0.02945597469806671
-8.826176907690728 70:1.0
16.914955660209195 56:0.23740598559379578 59:0.0010463438229635358 73:0.3826940357685089 75:0.26737871766090393 84:0.09154573827981949 90:0.012028153985738754 99:0.007901018485426903
16.914955660209195 3:9.659245260991156E-4 5:0.02220800518989563 6:0.012524637393653393 7:0.02873971126973629 8:0.02191893383860588 9:0.0067723216488957405 10:0.020406365394592285 11:0.01213180460035801 12:0.03157598525285721 13:0.002960564335808158 16:0.0018041465664282441 19:0.021964073181152344 20:0.017183635383844376 21:0.034371621906757355 22:0.02231503464281559 23:0.027866248041391373 24:2.3071396572049707E-4 29:0.009035269729793072 31:4.2185853817500174E-4 33:0.02351665496826172 34:0.02211036905646324 35:0.0349372960627079 36:0.032185278832912445 39:0.015582779422402382 40:0.007867276668548584 41:0.03614158555865288 43:0.009792428463697433 44:5.766780814155936E-4 46:2.118641568813473E-4 49:0.02125498279929161 50:0.011305580846965313 54:0.02051912061870098 56:0.006550805177539587 57:0.0034486912190914154 58:0.01499080564826727 59:0.004366511013358831 62:0.03612719103693962 64:0.00911723356693983 65:0.012581869028508663 66:0.010699942708015442 67:0.004110970534384251 68:0.0312202051281929 70:2.1524771000258625E-5 72:0.01865638606250286 73:8.936613448895514E-4 76:0.025153040885925293 77:0.039145421236753464 78:0.03662038967013359 82:5.432983016362414E-6 84:0.0165532398968935 85:5.199819570407271E-4 86:5.016266368329525E-4 88:0.025062579661607742 89:0.03985448554158211 90:0.019274746999144554 92:0.011397173628211021 93:0.030192781239748 94:0.03171177953481674 95:0.027969684451818466 97:0.007165181916207075 99:0.004687913693487644
16.914955660209195 1:0.04525614529848099 3:0.016568446531891823 10:0.1303664892911911 13:0.01302703469991684 27:0.025344088673591614 37:0.03828008472919464 38:0.1926928609609604 46:0.09949850291013718 50:0.11968813836574554 53:0.05329808220267296 54:0.16270780563354492 58:4.741835582535714E-4 78:0.010171844623982906 88:0.0670674592256546 90:0.008276073262095451 98:0.017282767221331596
9.232571695730748 41:0.7222427725791931 61:0.12576404213905334 65:0.013576381839811802 87:0.10769951343536377 90:0.03071730025112629
16.914955660209195 1:0.07951881736516953 13:0.08786574751138687 14:0.11738646775484085 15:0.03850143775343895 39:0.17215780913829803 55:1.6915539163164794E-4 59:0.1456010639667511 81:0.12138602137565613 89:0.23741348087787628
-15.45944193793753 81:1.0
16.914955660209195 1:0.029246710240840912 2:0.026247641071677208 5:0.03180012106895447 6:0.05533699691295624 8:2.537487307563424E-4 9:0.07340865582227707 12:3.3279741182923317E-4 13:0.009382668882608414 14:0.01116910669952631 16:0.04700112342834473 19:0.06582119315862656 22:0.02624928019940853 23:0.0046523017808794975 27:0.0029759870376437902 28:0.031229937449097633 30:0.007808477617800236 31:0.00376926944591105 34:0.017848415300250053 36:0.02231568656861782 38:0.04063934460282326 41:0.003166637383401394 44:0.029790133237838745 45:0.014221999794244766 46:0.0033098473213613033 49:0.004532768856734037 51:9.136113658314571E-5 55:0.016374735161662102 57:0.04179708659648895 60:0.0034262612462043762 66:0.003750104922801256 69:8.648949915368576E-6 70:0.0018363725394010544 71:0.00819091871380806 72:3.083966439589858E-4 73:0.012786056846380234 77:0.03135661780834198 78:2.1535175619646907E-5 79:0.033398766070604324 80:0.05664049834012985 81:0.0054234727285802364 82:0.009283418767154217 83:0.021112944930791855 84:3.6929870839230716E-4 85:0.00157331267837435 86:0.006784961558878422 87:0.05833817645907402 89:0.03439263254404068 91:0.009403188712894917 97:0.006332226563245058 99:0.07448815554380417
16.914955660209195 2:0.08888577669858932 6:0.02687026374042034 24:0.0011525116860866547 30:0.09238133579492569 32:0.14312469959259033 34:0.007682081777602434 38:0.11853034049272537 40:0.031126810237765312 51:0.12356465309858322 52:0.0681145191192627 56:2.5230561732314527E-4 62:0.03284158185124397 70:0.08533885329961777 72:0.014252145774662495 77:0.0332796573638916 90:9.546168148517609E-4 91:4.8581534065306187E-4 95:0.02671600505709648 96:0.08912588655948639 98:0.015320154838263988
-16.914955660209195 4:0.006713095586746931 5:0.018891459330916405 15:0.009109227918088436 19:0.16020293533802032 31:0.3293185532093048 43:0.141335591673851 50:0.017701860517263412 59:0.07842741906642914 66:0.032206423580646515 90:0.206093430519104
-16.914955660209195 5:0.1833835244178772 13:0.08186851441860199 21:0.08340980112552643 31:0.07061056792736053 32:0.14834876358509064 57:0.18971151113510132 76:0.03396741673350334 94:0.20485442876815796 95:0.0038454923778772354
-16.914955660209195 1:0.1418396532535553 8:0.016635490581393242 15:0.08029726147651672 32:0.09967757761478424 54:0.07185468077659607 65:0.03276142477989197 80:0.24643245339393616 89:0.1419183760881424 90:0.16858309507369995
-16.914955660209195 1:0.05574312433600426 5:3.0843709828332067E-4 6:0.10036558657884598 15:0.0301507581025362 16:0.09612942487001419 19:0.030733861029148102 40:0.0048308176919817924 41:0.10908143222332001 43:0.09710720181465149 49:0.005305396392941475 52:5.1743683116001193E-8 53:0.0035269828513264656 60:0.020256944000720978 62:3.380698399269022E-5 70:0.00466180220246315 71:0.005299943964928389 72:0.11164525151252747 74:0.050551749765872955 75:0.07200637459754944 83:0.003888449864462018 85:0.00924653746187687 93:0.08641789853572845 99:0.10270816832780838
16.914955660209195 4:0.08478785306215286 9:0.09195086359977722 10:0.027869829908013344 17:0.12275279313325882 19:0.12243817001581192 21:0.02921275980770588 30:0.029936935752630234 44:0.14969927072525024 52:0.04877201467752457 53:0.13445007801055908 59:0.005600770004093647 79:0.005200175568461418 81:0.09671178460121155 84:6.679833750240505E-4 87:0.04994870349764824
-16.914955660209195 3:0.04867014288902283 5:3.0802623950876296E-4 6:0.04041619971394539 7:0.011478425934910774 9:0.00300595723092556 10:0.021611398085951805 12:0.017635023221373558 13:0.00287065003067255 19:0.016626756638288498 20:5.943536525592208E-4 21:0.04541809856891632 23:0.04178880900144577 24:0.00837289821356535 25:0.02926602214574814 27:0.025392409414052963 28:0.0148187056183815 30:0.0533817894756794 31:0.012926234863698483 34:1.846633921331886E-7 36:1.2195381714263931E-4 38:0.01184668205678463 46:0.045950647443532944 48:3.524587009451352E-5 49:0.023675670847296715 54:0.0555858239531517 57:0.04470837116241455 59:0.03238331899046898 61:0.002314460463821888 62:0.0067517999559640884 65:0.002494578482583165 68:0.03391341492533684 70:0.0027675768360495567 74:0.015312036499381065 76:0.0192019771784544 78:0.001807582681067288 80:0.02169136144220829 81:0.00930612813681364 82:0.005806059576570988 84:0.05229078605771065 85:0.03409144654870033 87:0.011678280308842659 88:0.010128188878297806 93:0.052463021129369736 96:0.02428872138261795 98:0.030035559087991714 99:0.054767221212387085
16.914955660209195 1:0.013724512420594692 8:0.1608441174030304 9:0.0052259271033108234 16:0.0015441861469298601 23:9.009123459691182E-5 24:0.00891126599162817 25:0.0031287053134292364 32:0.10852125287055969 33:0.002140196505934 35:0.11466850340366364 41:0.016948595643043518 46:0.0983433797955513 48:0.044264085590839386 54:0.024479713290929794 55:0.0027646163944154978 60:0.010431887581944466 62:0.0145138930529356 70:0.025100205093622208 72:0.00895279087126255 84:0.04846807196736336 86:0.14683911204338074 91:0.0052780890837311745 99:0.13481681048870087
16.914955660209195 1:0.09155075997114182 7:0.057763367891311646 8:0.06595365703105927 12:0.04424211382865906 14:0.10625959932804108 16:0.007512780372053385 22:0.040170229971408844 28:0.07483973354101181 37:0.012135813944041729 38:0.1173107847571373 41:0.11387095600366592 43:0.047156400978565216 59:0.0030976005364209414 68:0.0010507766855880618 82:0.04436851665377617 90:0.13030651211738586 91:0.0011794709134846926 97:0.04123091325163841
-16.914955660209195 5:0.002831806894391775 8:0.15545980632305145 13:0.01226373016834259 14:0.18063732981681824 17:0.2767064571380615 30:0.19791103899478912 36:0.04933212324976921 47:0.04080994427204132 56:9.470093209529296E-5 78:0.009836153127253056 99:0.07411691546440125
-16.914955660209195 3:0.1901383101940155 30:0.1898663192987442 44:0.16071490943431854 45:0.11273012310266495 50:0.04665958508849144 58:0.05400409922003746 72:0.04812489077448845 75:5.094240259495564E-5 86:0.13680392503738403 90:0.06090688705444336
-16.914955660209195 4:0.15196682512760162 14:0.049332909286022186 18:0.12472451478242874 51:0.005517843645066023 59:0.013972902670502663 60:0.08256130665540695 69:0.003740303684026003 73:0.19368430972099304 76:0.00537237199023366 77:0.16756190359592438 85:0.03325309976935387 87:0.05876285210251808 91:0.05109308287501335 93:0.05845579132437706
16.914955660209195 2:0.016906773671507835 23:0.04232347011566162 43:0.03337787836790085 57:0.1790795624256134 58:0.10674838721752167 59:0.1321336030960083 61:0.02665070816874504 75:0.2629864811897278 79:0.19979315996170044
-16.914955660209195 1:3.03569613606669E-5 4:0.026312464848160744 5:0.002129943808540702 6:0.04667522758245468 7:0.0014701273757964373 9:0.0019585697446018457 10:0.028833268210291862 13:0.033212874084711075 14:0.021595239639282227 15:0.0155656598508358 17:0.003231300041079521 20:0.04623270034790039 21:0.04576658457517624 23:0.040802888572216034 24:2.1625342924380675E-5 25:0.003762110136449337 29:0.002941697835922241 30:0.03501123934984207 31:7.446977178915404E-6 32:1.9076996250078082E-4 34:0.02073570527136326 35:4.7203892609104514E-4 37:0.00852885190397501 40:0.019558975473046303 41:0.0011381140211597085 42:0.04306139796972275 43:0.005773019511252642 44:0.009489691816270351 45:0.01646234467625618 46:0.03774455934762955 47:0.01037836167961359 50:4.752835666295141E-4 51:0.023631194606423378 52:0.03035080060362816 53:0.012343165464699268 54:9.373630746267736E-5 55:0.002732547465711832 57:1.677947352618503E-6 58:2.1997815929353237E-4 59:8.208988001570106E-4 60:0.0021901933941990137 61:6.340487743727863E-4 62:2.044000430032611E-4 64:8.067880989983678E-4 65:2.1308011491782963E-4 66:0.0018063385505229235 67:0.0013971662847325206 70:0.036323465406894684 71:0.04848029837012291 73:0.020396322011947632 74:0.023674748837947845 75:0.004864261485636234 76:0.04329405725002289 77:0.022707104682922363 79:0.005608868785202503 81:0.02549589052796364 83:0.001923573319800198 84:0.03447861969470978 85:0.010417786426842213 86:0.013631352223455906 87:2.211252722190693E-4 89:1.1966314195888117E-4 90:0.007374389097094536 92:0.01154235191643238 93:0.028655176982283592 94:0.00200781156308949 95:0.007069993298500776 96:0.02091112546622753 97:0.022566653788089752 98:0.001218909746967256
-16.726383650475015 2:0.20203621685504913 11:0.11313856393098831 16:0.07343880832195282 17:0.033302903175354004 54:0.12149927020072937 57:0.10025783628225327 67:0.13959813117980957 83:0.055525634437799454 84:0.15428705513477325 94:0.00691558513790369
-16.914955660209195 1:0.004316978622227907 2:0.03887065127491951 6:0.00826176069676876 14:0.01594308204948902 16:0.022539015859365463 17:0.04088829830288887 26:0.03542136773467064 31:0.05550006404519081 38:5.251197308098199E-7 41:6.518067675642669E-4 43:0.01052552554756403 44:0.0038123643025755882 47:0.00794945377856493 51:0.10159390419721603 54:0.07906659692525864 59:0.033777836710214615 70:0.10594088584184647 71:0.01101276557892561 74:0.04732177406549454 79:0.12485295534133911 84:0.0957295298576355 86:0.05510178580880165 91:0.001595699810422957 97:0.09932536631822586
-16.914955660209195 3:0.0323178768157959 5:5.10470534209162E-4 6:0.009616679511964321 7:0.002914175856858492 10:2.7414478154241806E-7 15:0.031032659113407135 16:0.024688638746738434 17:6.214860477484763E-4 18:0.014225236140191555 19:9.728845907375216E-4 21:0.008368444629013538 22:9.766863659024239E-4 24:0.015737924724817276 33:0.0028552415315061808 34:0.009817447513341904 35:0.01666213385760784 36:0.023880485445261 39:0.037794556468725204 44:0.050761304795742035 45:0.061249587684869766 47:0.032995399087667465 50:0.0030814933124929667 53:0.043741971254348755 55:0.0011836416088044643 59:1.4600896975025535E-4 60:0.018658963963389397 61:0.014410634525120258 63:0.008004696108400822 65:0.007433658931404352 67:0.06472104042768478 71:0.04087705537676811 72:0.08258526027202606 73:0.00850509200245142 75:0.0657665804028511 76:0.08306927978992462 81:0.03350915014743805 85:0.0067148045636713505 86:0.0447968952357769 89:7.00006858096458E-5 91:0.008738184347748756 92:0.0034577082842588425 93:0.04431720823049545 96:0.03806691989302635 97:1.4415429905056953E-4
-16.914955660209195 24:1.6482948558405042E-4 82:0.13179075717926025 93:0.4204481840133667 97:0.4475962221622467
-16.914955660209195 10:0.04778094217181206 12:0.05230626091361046 19:0.05301443859934807 23:0.24688637256622314 30:0.08745047450065613 31:0.0023719342425465584 32:7.387498044408858E-5 43:0.08273769170045853 45:2.763679003692232E-5 57:0.21779963374137878 60:0.11327099055051804 77:0.028854424133896828 79:0.06587503850460052 80:0.0013397089205682278 84:2.105767634930089E-4
-16.914955660209195 1:4.414762952364981E-4 3:0.0672827810049057 10:0.0194616187363863 16:0.0011744381627067924 17:9.913636313285679E-5 24:0.08943410962820053 26:0.04623166844248772 31:0.03457171469926834 44:0.11818505823612213 53:0.020298438146710396 55:0.035218171775341034 56:0.0057389563880860806 57:0.018810853362083435 59:0.01866604946553707 60:0.13580960035324097 63:0.12201718986034393 65:0.11218085139989853 66:0.007262670435011387 68:0.034215621650218964 79:0.004986821673810482 85:0.018188169226050377 94:0.08972460776567459
16.914955660209195 6:0.12180233746767044 16:0.09635745733976364 24:0.008249555714428425 28:0.13566455245018005 32:0.12025432288646698 40:1.1851052840938792E-4 49:8.724714862182736E-4 52:5.487354355864227E-4 54:0.08089454472064972 58:3.4071417758241296E-4 63:0.07419060170650482 64:0.04762024059891701 68:0.07282283902168274 70:0.04319165274500847 72:0.007612891495227814 74:0.019575906917452812 76:0.03491915389895439 87:0.0209455918520689 94:0.11401792615652084
-16.914955660209195 15:0.022301413118839264 16:0.01623869501054287 17:0.08170919865369797 21:0.004263806622475386 25:0.009215162135660648 28:0.07165219634771347 32:0.009617000818252563 36:0.12037364393472672 37:0.003990924917161465 39:0.035156793892383575 67:0.004720649681985378 70:0.040472470223903656 72:0.13492721319198608 73:0.15613298118114471 74:0.07543466240167618 79:0.12245230376720428 82:0.04814936965703964 89:0.026804989203810692 93:0.010235043242573738 98:0.006151494570076466
16.914955660209195 1:0.005689624696969986 2:0.023726223036646843 4:0.02096334658563137 6:0.005300512537360191 9:0.03824850916862488 10:0.0017460313392803073 12:0.0014527717139571905 13:0.004188621882349253 16:0.033328019082546234 17:0.028784548863768578 18:0.026150239631533623 19:3.3807755244197324E-5 20:0.003924249205738306 23:0.0015112332766875625 24:0.01722812093794346 25:0.015255045145750046 27:0.05405387654900551 28:0.004311487544327974 29:0.0434185191988945 30:0.004411403555423021 31:0.014808602631092072 32:0.023021899163722992 33:0.05559774860739708 36:6.203320936037926E-6 39:0.01656266674399376 40:0.03955850005149841 41:0.0044561405666172504 43:0.012875542975962162 44:0.0598796010017395 45:1.942357193911448E-4 46:0.005228984635323286 47:0.0012580093462020159 49:0.022377802059054375 50:0.02364696003496647 56:0.015240546315908432 57:0.002579379826784134 58:2.731135964495479E-6 59:0.014890206977725029 60:4.869706913268601E-7 62:0.023605870082974434 64:0.00703767966479063 65:0.026159487664699554 66:0.0035827085375785828 67:0.04455657675862312 69:0.00367863941937685 70:0.02233777567744255 71:1.6972542653093114E-5 72:0.0037402394227683544 73:0.005986982025206089 74:0.00776410149410367 75:0.002842447254806757 76:0.006752044428139925 77:0.010910802520811558 82:0.007323163561522961 84:0.02211841009557247 85:0.015265126712620258 87:0.004184468183666468 88:0.0081567894667387 89:0.052731603384017944 92:0.01928820088505745 94:0.008732273243367672 95:3.6537694541038945E-5 97:0.0028011160902678967 98:0.002386367181316018 99:0.04209117218852043
-16.914955660209195 12:0.024353032931685448 23:0.0878709927201271 28:0.0029955951031297445 53:0.01974622532725334 65:0.24431365728378296 67:0.28552860021591187 79:3.993204445578158E-4 83:0.025386923924088478 85:0.03223133459687233 89:0.27717432379722595
16.914955660209195 1:0.0021055019460618496 3:0.013048694469034672 4:6.734896305715665E-5 5:0.00208347849547863 6:0.006724520120769739 7:0.01773945242166519 9:8.287154487334192E-4 10:0.032676562666893005 11:0.0033536169212311506 12:0.025890745222568512 14:0.007718770764768124 15:0.0060367342084646225 16:0.0032985468860715628 18:0.01996837928891182 19:0.016118543222546577 20:0.007206672802567482 22:0.00602907408028841 24:0.0023997623939067125 26:0.012788242660462856 27:0.012797163799405098 28:0.019756829366087914 29:3.171307980665006E-5 30:0.01886153593659401 31:7.645659934496507E-5 32:0.0033282816875725985 33:7.35203593649203E-6 35:0.02907426469027996 36:0.029875466600060463 37:0.011114672757685184 38:0.005421909503638744 39:5.352279404178262E-4 40:4.31230990216136E-4 41:7.661893505428452E-6 42:0.0085167046636343 43:0.0012234756723046303 44:0.003260226920247078 46:0.026288138702511787 49:0.012156050652265549 50:0.031381022185087204 51:0.036127954721450806 52:0.00673914747312665 53:0.023346472531557083 54:0.013523312285542488 56:0.031868044286966324 57:0.008336004801094532 59:0.008051026612520218 60:0.02650441601872444 61:0.011247432790696621 62:0.001558540971018374 65:2.90725554805249E-4 67:0.017234226688742638 68:0.006046718452125788 69:0.019141551107168198 70:2.05185529011942E-6 71:0.028786636888980865 72:0.013928700238466263 73:0.03460128232836723 74:0.01868027076125145 75:0.0012782966950908303 76:0.026300931349396706 77:0.0150635140016675 78:0.005693439394235611 79:0.026866300031542778 80:1.215364704876265E-6 81:0.020716149359941483 82:0.019912445917725563 83:0.034217145293951035 84:0.004814171232283115 85:9.860212594503537E-5 86:0.025465786457061768 88:0.013401473872363567 89:0.002079928060993552 90:0.006997234188020229 91:0.019303103908896446 95:0.020420009270310402 96:0.010044329799711704 97:0.023339668288826942 98:0.015573499724268913 99:0.0021694882307201624
-16.914955660209195 15:0.004045780282467604 22:0.047953881323337555 48:0.0010364728514105082 49:0.0022618432994931936 59:0.4756321310997009 62:0.048013836145401 68:0.36153697967529297 81:5.182523746043444E-4 86:0.014698588289320469 88:0.044302232563495636
16.914955660209195 2:0.027126645669341087 7:0.028608722612261772 8:0.023176051676273346 9:0.01378477644175291 12:0.12600800395011902 15:0.008002303540706635 23:0.0695660263299942 25:0.043048154562711716 27:2.829711092999787E-6 28:0.03690856322646141 29:0.006893505807965994 31:0.10120207816362381 32:1.1167784396093339E-4 34:0.002930252579972148 39:0.0683126449584961 43:0.04042381793260574 45:0.07135722786188126 48:0.008914435282349586 50:0.023811208084225655 52:0.012137741781771183 55:0.004548088647425175 58:0.07409753650426865 59:0.026658223941922188 62:0.022564513608813286 66:0.03536512330174446 67:0.023011544719338417 72:0.009817763231694698 79:0.0033680361229926348 85:0.05552666634321213 89:0.010118351317942142 91:0.022597480565309525
-16.914955660209195 1:0.009136708453297615 2:0.004603764042258263 3:0.001887707388959825 4:0.010817265138030052 6:0.007976086810231209 7:0.036576539278030396 8:0.0045028384774923325 10:0.004821719601750374 12:0.03396328538656235 13:0.001155590871348977 14:0.0030451000202447176 16:0.026159141212701797 18:0.007765484042465687 21:0.016852278262376785 23:0.018323538824915886 26:0.0196902584284544 30:0.045462701469659805 31:5.326981408870779E-5 33:0.0469713918864727 36:0.023895595222711563 37:0.022259749472141266 41:0.002860365202650428 42:0.03647961467504501 43:0.03196880966424942 44:0.0183001346886158 50:0.009102409705519676 51:0.01291744690388441 53:0.037666115909814835 55:0.01875501312315464 56:0.04877470061182976 57:0.020803142338991165 58:0.04943772032856941 59:0.02117229253053665 60:0.03504939749836922 61:0.0024043342564255 64:0.010385801084339619 67:0.014299338683485985 68:0.009203346446156502 69:0.002777517307549715 70:0.03189011290669441 73:6.09013659413904E-4 77:0.010051550343632698 79:0.02677844651043415 80:0.007018743082880974 84:0.04649046063423157 86:0.0038017944898456335 88:0.016325540840625763 89:0.02905821055173874 91:0.041457001119852066 92:0.028480881825089455 95:0.01702117919921875 99:0.012739554047584534
-16.914955660209195 1:0.017970740795135498 2:0.002541081514209509 3:0.009490851312875748 4:0.009409155696630478 5:6.292318576015532E-4 7:2.0466308342292905E-4 8:0.020765060558915138 9:0.004585962276905775 10:0.0059551359154284 11:0.03492652252316475 12:0.026062164455652237 13:0.007700907066464424 14:0.019055861979722977 15:1.4568584447260946E-4 16:0.013433584943413734 17:4.4073289609514177E-4 18:0.002099667675793171 19:2.4670205311849713E-4 20:0.006678956560790539 21:0.004503482487052679 22:0.003357164328917861 23:0.017755039036273956 24:0.001266521168872714 25:0.018141577020287514 26:0.035629402846097946 27:0.01610455848276615 28:0.03931402415037155 29:5.6549957662355155E-5 30:0.019131600856781006 31:0.027078190818428993 32:1.6105271060951054E-4 33:0.0016842554323375225 34:0.03723478689789772 35:0.003969615325331688 36:0.035330452024936676 37:0.0016089045675471425 38:0.0026939446106553078 39:0.0061723338440060616 40:0.008314758539199829 41:0.007298235781490803 42:0.006643848959356546 43:0.03814522176980972 44:7.938311900943518E-4 46:0.008566995151340961 47:0.012519880197942257 48:0.014237302355468273 49:9.161396883428097E-5 50:0.004473783075809479 51:6.62773207295686E-4 52:0.03474585339426994 53:0.012720589525997639 54:1.301659067394212E-4 56:0.022138498723506927 57:0.03288935124874115 59:5.935226217843592E-4 60:0.0013461844064295292 61:0.024910828098654747 62:0.026732783764600754 63:0.015027079731225967 64:0.017305070534348488 65:0.0011249982053413987 66:0.011368904262781143 67:0.003993947524577379 68:0.017076149582862854 69:0.0013138471404090524 70:9.439910063520074E-4 71:0.0013009312096983194 72:0.0038975935894995928 73:9.374794171890244E-5 74:0.0054725478403270245 75:0.002379156183451414 76:0.008772728033363819 77:1.7808092525228858E-4 78:0.00326985539868474 79:0.005892917048186064 80:0.004435480106621981 81:0.01955563575029373 82:0.0026031476445496082 83:0.029325159266591072 85:0.02399226278066635 86:0.003673576982691884 87:6.299157394096255E-5 88:0.014375470578670502 89:0.003821703838184476 91:0.0038935854099690914 92:0.009683342650532722 93:0.018087586387991905 94:0.0049861581064760685 95:0.02208506502211094 96:0.007665064185857773 97:0.018108882009983063 98:0.0027411908376961946
-16.914955660209195 1:0.08929982781410217 2:0.007282311096787453 7:0.050581082701683044 12:0.03376750275492668 28:0.05851380154490471 33:0.10182315111160278 38:0.05162830650806427 40:3.939222660847008E-4 43:2.1568186639342457E-4 46:0.04072416201233864 60:0.10221788287162781 66:0.04093373566865921 67:0.024047188460826874 79:0.2657500207424164 89:0.09324537962675095 94:0.03957604989409447
-11.105114274227535 1:0.004034742712974548 2:0.006923833396285772 3:0.04741065204143524 8:0.038392551243305206 16:0.05628174543380737 19:0.003782188519835472 22:0.014069773256778717 24:0.005789908580482006 26:0.027308335527777672 27:0.005809292662888765 34:0.03269129991531372 35:2.844425580406096E-5 40:0.10459750145673752 45:0.015336832031607628 46:2.935580851044506E-4 48:6.704945917590521E-6 50:7.486273534595966E-4 51:0.002275103237479925 53:1.2525703641586006E-4 55:0.0974789634346962 57:0.030336378142237663 59:0.1092439666390419 60:0.0925317332148552 63:0.032917674630880356 67:0.025766219943761826 70:0.0073791020549833775 71:0.0021952777169644833 76:0.002575747901573777 78:7.294301030924544E-5 82:0.020079514011740685 83:0.07182391732931137 85:0.10692629218101501 96:0.014790792018175125 98:0.019975120201706886
-16.914955660209195 10:0.11593744158744812 12:0.1049935519695282 14:0.053979404270648956 17:1.3375426351558417E-4 24:0.06006661057472229 26:0.31838008761405945 27:0.07644933462142944 29:0.0032318797893822193 34:0.055319398641586304 56:0.060515280812978745 76:0.14986303448677063 91:0.0011302052298560739
-16.914955660209195 3:0.037393175065517426 14:0.02905154600739479 32:0.03446907922625542 34:0.07781972736120224 35:0.08301829546689987 37:0.15619412064552307 47:0.11770206689834595 75:0.193724125623703 93:0.0039777630008757114 99:0.26665008068084717
-16.914955660209195 2:0.008337162435054779 4:2.712497462198371E-6 18:0.040246233344078064 23:3.0510094802593812E-5 32:0.16337765753269196 34:0.05576570704579353 42:0.07703235745429993 47:0.17252953350543976 58:0.04285002499818802 61:0.0344231016933918 68:0.016622159630060196 69:0.04663199186325073 88:0.13655422627925873 97:0.1481943130493164 98:0.057402320206165314
-16.914955660209195 11:0.0284443199634552 15:0.0176096074283123 20:0.02407442405819893 26:6.878458079881966E-4 28:0.002914236392825842 30:0.07637672126293182 31:0.0131556810811162 37:0.0062127807177603245 45:0.047673650085926056 52:0.0756816565990448 56:1.8393197387922555E-4 57:0.023284655064344406 58:0.05376580357551575 60:0.0010334495455026627 61:0.02703452669084072 63:0.07244289666414261 65:0.11701002717018127 66:0.17868664860725403 73:0.01101914793252945 77:0.07571860402822495 83:0.13891176879405975 92:0.008077621459960938
-16.914955660209195 9:0.0034653013572096825 40:0.036127179861068726 44:0.07454720139503479 49:0.050843238830566406 50:0.00536381546407938 61:0.156412273645401 78:0.3103688955307007 79:0.36287209391593933
-16.914955660209195 1:0.10329998284578323 9:0.029305754229426384 14:0.06578202545642853 16:0.005759620573371649 20:4.581719695124775E-4 40:0.0845695286989212 47:0.013224444352090359 50:0.03543718159198761 51:0.08513868600130081 55:0.03896615281701088 59:0.05754125118255615 63:0.004440671298652887 64:0.09549494087696075 71:0.07289201021194458 73:0.11436570435762405 75:0.0016795066185295582 79:0.006567169912159443 82:0.1016201302409172 91:0.05788452550768852 93:0.0021236289758235216 97:0.02344890870153904
16.914955660209195 10:0.10246538370847702 11:0.10226890444755554 19:0.12100495398044586 24:0.14291954040527344 32:0.04735047370195389 35:0.02042309194803238 38:1.655778760323301E-4 48:0.0012966737849637866 66:0.14002244174480438 68:0.006454493850469589 71:0.006635682657361031 78:0.12109848111867905 89:0.14866124093532562 96:0.03923305496573448
-9.843729943862776 1:0.04436485841870308 11:0.0701216533780098 17:0.06916312128305435 28:0.008367916569113731 29:0.03560780733823776 31:0.09794721752405167 34:0.14865827560424805 35:0.17669270932674408 53:0.13085375726222992 68:0.18333390355110168 75:5.801415536552668E-4 84:0.034308645874261856
-16.914955660209195 2:0.021399956196546555 5:0.351521372795105 6:0.0016699917614459991 24:0.24644963443279266 34:0.006413373630493879 37:0.06503099948167801 42:0.255298912525177 44:0.001884379074908793 53:0.0038590854965150356 55:0.024549899622797966 60:0.02192240208387375
-16.187981408749955 2:2.7238680559094064E-5 11:0.04837679862976074 16:0.1935756504535675 24:0.32986342906951904 42:0.09455914050340652 72:0.061131980270147324 77:0.2600752115249634 81:0.009213026612997055 95:0.003177524311468005
16.914955660209195 5:3.6539003485813737E-4 8:0.13203956186771393 9:0.15464799106121063 13:0.007528576534241438 15:5.184100882615894E-5 48:0.09014870226383209 58:0.1466948240995407 61:0.12990126013755798 62:0.14872196316719055 75:0.05309063941240311 78:0.01522830966860056 82:0.023892709985375404 91:0.08660277724266052 97:0.011085453443229198
16.914955660209195 1:0.022719234228134155 7:0.0987006425857544 23:0.09094581007957458 27:0.04725031182169914 38:0.19974017143249512 42:0.008655203506350517 47:0.022876562550663948 61:0.10501674562692642 77:0.17872364819049835 90:0.18117164075374603 94:0.021375741809606552 97:0.02282428741455078
16.914955660209195 2:0.013021489605307579 24:0.0027435943484306335 31:0.23822158575057983 39:0.17320919036865234 47:0.08866626024246216 53:0.23866528272628784 60:0.052953630685806274 64:0.16463139653205872 93:0.01060693059116602 99:0.017280619591474533
16.914955660209195 1:0.028603682294487953 5:0.09512858092784882 6:2.113788650603965E-4 7:0.031389228999614716 14:0.01840430125594139 16:0.06807610392570496 24:0.10523717105388641 30:0.08258713781833649 31:0.1102287545800209 33:0.0020554258953779936 45:0.02052301913499832 61:0.11233808845281601 74:0.10368151217699051 79:0.028920253738760948 80:7.466704118996859E-4 84:0.014647025614976883 85:0.06591876596212387 87:0.07263289391994476 91:0.03844783455133438 95:2.221741306129843E-4
16.914955660209195 2:0.0015122884651646018 7:0.13157938420772552 14:0.001749061280861497 15:0.006571429781615734 16:0.04237518832087517 23:0.011821560561656952 33:0.004405953921377659 34:0.09985064715147018 37:0.10184609144926071 38:0.015316663309931755 39:0.1272016316652298 43:6.239433423615992E-4 47:0.09884846210479736 50:0.006601518485695124 51:0.045262958854436874 52:0.0025696265511214733 57:0.05594426766037941 63:0.018832184374332428 74:0.09276487678289413 76:0.014209022745490074 85:0.12011324614286423
-16.914955660209195 23:0.08292673528194427 31:0.16436025500297546 36:0.08764900267124176 37:0.10998062044382095 61:0.2144642323255539 64:0.19487792253494263 96:0.14574122428894043
16.914955660209195 9:0.05244797468185425 11:0.021108679473400116 12:0.06695715337991714 22:0.08269120007753372 23:0.05914786830544472 26:0.06323093920946121 27:0.001079377718269825 34:0.11865059286355972 42:0.0015087667852640152 45:0.036895908415317535 58:0.18326325714588165 65:0.0874839797616005 66:0.028584377840161324 71:0.06055228039622307 73:0.027074258774518967 76:0.01601557619869709 89:0.004036703612655401 91:0.08927109837532043
-16.914955660209195 2:0.12186198681592941 11:0.01167276781052351 12:0.07377088069915771 26:0.0025401373859494925 32:0.021279308944940567 33:0.04431764781475067 41:0.036847881972789764 44:0.0017721749609336257 49:0.08641907572746277 50:0.048120178282260895 54:0.06371862441301346 61:0.005632889457046986 62:0.004666149150580168 64:0.009209783747792244 65:0.1198238953948021 66:0.060136064887046814 74:0.09056606888771057 79:0.006664421409368515 85:0.06093544512987137 88:0.11455398797988892 95:0.01348413247615099 99:0.0020065035205334425
-3.016554191736389 8:0.8400722146034241 31:0.0954924002289772 95:0.06443537026643753
-16.914955660209195 6:0.00353602203540504 7:0.1075044497847557 9:0.01786269061267376 15:0.02709413506090641 28:0.0240229070186615 32:0.016612671315670013 39:0.016785211861133575 41:0.026876170188188553 52:0.012998722493648529 74:0.2454492151737213 75:0.1317692995071411 76:0.11982200294733047 84:0.006800259463489056 87:0.22602811455726624 90:0.014735101722180843 99:0.0021030292846262455
16.914955660209195 1:6.118355086073279E-4 2:1.2026182230329141E-4 5:0.017339076846837997 7:0.023016106337308884 8:3.93945025280118E-4 10:0.015537980943918228 11:0.0011397725902497768 13:0.04172788932919502 15:0.057187970727682114 16:0.001463848864659667 17:7.509645365644246E-5 21:0.05453408882021904 26:0.0069395555183291435 29:0.003311137668788433 30:0.03219747543334961 33:0.055233437567949295 35:0.030672552064061165 40:0.06044115498661995 44:0.05023955926299095 45:0.011256867088377476 46:0.0013018205063417554 52:0.059314895421266556 54:0.05496758967638016 57:0.004919448867440224 60:9.689009630164946E-7 63:0.002538226079195738 64:0.0031156407203525305 65:0.019683711230754852 66:0.015086949802935123 70:0.0020535949151962996 71:0.037510089576244354 73:0.0013136138441041112 75:0.041978657245635986 76:0.048010360449552536 77:0.020165827125310898 79:5.963029689155519E-4 83:3.064950869884342E-4 85:0.03519737720489502 88:0.058516450226306915 89:0.023803459480404854 92:9.025806211866438E-4 94:1.9328331109136343E-4 95:0.05789067968726158 97:0.04458383098244667 98:0.0019693823996931314 99:6.391554488800466E-4
-16.914955660209195 1:0.0022990338038653135 2:0.025773940607905388 3:0.020305247977375984 4:0.015667596831917763 5:7.443582289852202E-4 6:0.013440408743917942 7:0.018271643668413162 8:9.534731507301331E-4 9:0.018490424379706383 11:0.0021680870559066534 12:0.03186219930648804 13:0.00845472700893879 14:0.024711845442652702 15:0.0011157162953168154 16:0.01251794584095478 17:0.03059871681034565 19:0.013316215015947819 20:0.02786947414278984 21:1.4074133650865406E-4 22:0.008872242644429207 24:4.987370921298862E-4 25:0.03381296992301941 26:0.012316249310970306 27:0.013874370604753494 29:7.252752548083663E-4 30:0.001002900768071413 31:0.009202225133776665 33:0.010093921795487404 35:7.572130998596549E-4 36:9.661063813837245E-5 37:0.0047455173917114735 38:0.00290413829497993 39:0.010179677978157997 41:0.006058639381080866 42:0.006858568172901869 43:0.027882933616638184 44:2.7216048329137266E-4 45:0.014053204096853733 46:0.027344930917024612 47:0.0010793283581733704 48:0.0018576661823317409 49:0.005732377991080284 50:0.0015487080672755837 51:4.6671389100083616E-6 52:0.028249720111489296 53:0.026623493060469627 54:0.01846916414797306 55:0.01234391424804926 56:0.001436528516933322 58:0.007188763003796339 59:0.008596762083470821 60:0.024625122547149658 61:0.025306470692157745 62:0.033240389078855515 65:3.760359322768636E-5 66:0.015001681633293629 67:0.028553342446684837 68:0.03071107342839241 69:0.006417661439627409 70:0.006692284252494574 71:0.02356686443090439 72:2.7558826332096942E-5 73:0.0131979463621974 74:0.021699916571378708 76:0.014323094859719276 77:0.001724542467854917 78:0.0056122709065675735 79:0.009711213409900665 81:0.0013774713734164834 82:0.023097459226846695 83:0.00949210487306118 85:0.015089747495949268 86:0.0036957559641450644 87:0.0013879032339900732 89:0.017597004771232605 90:0.028052236884832382 91:0.018113454803824425 92:2.2584982798434794E-4 93:0.0018931269878521562 94:0.004114433657377958 95:6.239534122869372E-4 96:0.008145649917423725 98:0.030519545078277588 99:0.0027398851234465837
16.914955660209195 8:0.2352665215730667 11:0.008612887933850288 14:0.15759959816932678 20:0.01256429124623537 23:0.10811329632997513 29:0.01401066966354847 38:0.03870556131005287 42:0.040030986070632935 44:0.012824238277971745 49:0.19080573320388794 57:0.01013275794684887 65:0.08897166699171066 69:0.003479511709883809 70:0.006291702855378389 87:0.07241964340209961 93:1.7094297800213099E-4
16.914955660209195 1:0.08704426139593124 8:0.12327876687049866 18:0.11126821488142014 25:0.1169588565826416 32:0.044745899736881256 44:0.06584887206554413 46:0.001971431076526642 58:0.02845821902155876 59:0.0017025466077029705 63:0.0821419358253479 64:0.11001268029212952 72:0.006512673106044531 74:0.11622853577136993 77:0.001716544502414763 78:0.027344970032572746 80:0.0061257691122591496 86:0.00919323693960905 97:0.053263839334249496 98:7.541805389337242E-4 99:0.005428573116660118
