SVM-light Version V6.01
0 # kernel type
3 # kernel parameter -d
1.0 # kernel parameter -g
1.0 # kernel parameter -s
0.0 # kernel parameter -r
empty# kernel parameter -u
13 # highest feature index
1692 # number of training documents
576 # number of support vectors plus 1
1.001623783009371 # threshold b, each following line is a SV (starting with alpha*y)
-0.9896999132332887 9:1.0
0.9896999132332887 7:1.0
-0.9896999132332887 7:1.0
0.9896999132332887 9:1.0
0.9896999132332887 8:1.0 9:1.0
-0.9896999132332887 8:1.0 9:1.0
0.9896999132332887 7:1.0
-0.9896999132332887 7:1.0
0.9896999132332887 8:1.0 9:1.0 11:1.0
-0.9896999132332887 8:1.0 9:1.0
-0.9896999132332887 8:1.0 11:1.0
-0.9896999132332887 11:1.0
0.9896999132332887 1:0.951200008392334 2:1.0 7:1.0 9:1.0
0.9896999132332887 5:1.0 11:1.0
-0.9896999132332887 1:1.0 2:1.0 5:1.0 7:1.0
0.9896999132332887 8:1.0 11:1.0
-0.9896999132332887 9:1.0 11:1.0
-0.9896999132332776 8:1.0 12:1.0
-0.12945744922261015 11:1.0
-0.9896999132332887 1:1.0 2:1.0 7:1.0 8:1.0
0.9896999132332887 9:1.0 11:1.0
-0.9896999132332887 9:1.0 11:1.0
-0.47245717054626635 11:1.0
-0.9896999132332887 1:1.0 2:1.0 7:1.0 8:1.0
0.9896999132332887 1:0.887499988079071 2:1.0 5:0.6399999856948853 7:1.0 8:1.0
0.9896999132332887 8:1.0 9:1.0 11:1.0
-0.9896999132332887 9:1.0 11:1.0
0.9896999132332887 11:1.0
-0.9896999132332887 5:0.800000011920929 11:1.0
0.9896999132332887 5:1.0
-0.9896999132332887 1:0.8650000095367432 2:1.0 5:0.7599999904632568
-0.9896999132332887 1:0.9750000238418579 2:1.0 8:1.0
-0.9896999132332887 1:0.9017142653465271 2:1.0 5:0.656000018119812 7:1.0
0.9896999132332887 5:0.7200000286102295 11:1.0
-0.9896999132332887 11:1.0
-0.9896999132332887 7:1.0 9:1.0
0.9896999132332887 5:0.800000011920929 8:1.0 11:1.0
-0.9896999132332887 5:1.0 11:1.0
-0.9896999132332887 8:1.0 11:1.0
-0.9896999132332887 5:1.0 8:1.0
0.9896999132332887 9:1.0
-0.9896999132332887 9:1.0
-0.9896999132332887 7:1.0 8:1.0 9:1.0
-0.9896999132332887 9:1.0 11:1.0
0.9896999132332887 12:1.0
0.9896999132332887 10:1.0
0.9896999132332887 4:1.0
-0.9896999132332887 8:1.0
-0.9882326432057751 10:1.0
0.9896999132332887 1:0.8788571357727051 2:1.0 8:1.0 11:1.0
0.9896999132332887 7:1.0 9:1.0 11:1.0
-0.9896999132332887 11:1.0
0.9896999132332887 8:1.0 9:1.0
0.9896999132332887 7:1.0 8:1.0
-0.9896999132332887 7:1.0 8:1.0 9:1.0
0.9896999132332887 7:1.0 9:1.0
0.9896999132332887 8:1.0 11:1.0
-0.9880761302239172 4:1.0
0.9896999132332887 7:1.0
0.9896999132332887 5:0.800000011920929
-0.9896999132332887 1:0.8199999928474426 2:1.0 5:0.6399999856948853
-0.9896999132332887 1:1.0 2:1.0 7:1.0 8:1.0
0.9896999132332887 7:1.0 8:1.0 12:1.0
-0.9896999132332887 9:1.0 12:1.0
-0.6576292952353975 11:1.0
-0.9896999132332887 1:1.0 2:1.0 7:1.0 8:1.0
-0.9896999132332887 7:1.0 8:1.0
-0.005606111125176401 5:0.6399999856948853 8:1.0
-0.9896999132332887 5:1.0 8:1.0 12:1.0
0.9896999132332887 5:1.0
-0.9896999132332887 5:1.0 9:1.0
0.9896999132332887 8:1.0 12:1.0
0.9896999132332887 1:0.9100000262260437 2:1.0 8:1.0
0.9896999132332887 5:1.0 9:1.0
0.9896999132332887 5:0.6399999856948853 12:1.0
-0.9896999132332887 8:1.0 12:1.0
0.9896999132332887 5:1.0
-0.9896999132332887 5:1.0 7:1.0
0.9896999132332887 8:1.0 9:1.0 11:1.0
0.9896999132332887 7:1.0 12:1.0
0.9896999132332887 7:1.0
-0.9896999132332887 1:0.9399999976158142 2:1.0 7:1.0 8:1.0
-0.9896999132332887 5:0.800000011920929 7:1.0
0.9896999132332887 9:1.0
0.9896999132332887 5:0.6800000071525574 7:1.0
-0.9896999132332887 5:0.5759999752044678 11:1.0
-0.9896999132332887 5:0.7200000286102295 11:1.0
-0.9896999132332887 5:0.800000011920929 11:1.0
0.9896999132332887 5:1.0 8:1.0
-0.9896999132332887 5:0.800000011920929 11:1.0
0.9896999132332887 5:0.6399999856948853 11:1.0
0.9896999132332887 8:1.0 10:1.0
-0.9896999132332887 5:0.6399999856948853 9:1.0
-0.45434970386683804 5:1.0 8:1.0
-0.9896999132332887 5:0.6399999856948853 9:1.0
0.9896999132332887 5:0.800000011920929 9:1.0
0.9896999132332887 5:1.0
-0.9896999132332887 5:0.800000011920929 9:1.0
-0.9896999132332887 5:0.800000011920929 11:1.0
0.9896999132332887 5:0.6399999856948853 11:1.0
-0.9896999132332887 5:0.7200000286102295 9:1.0
0.9896999132332887 5:0.7559999823570251 9:1.0
0.9896999132332887 5:0.6399999856948853 11:1.0
0.9896999132332887 8:1.0 9:1.0 11:1.0
-0.9896999132332887 5:0.800000011920929 11:1.0
0.9896999132332887 7:1.0 9:1.0 11:1.0
0.9896999132332887 11:1.0
0.9896999132332887 5:0.800000011920929 8:1.0
-0.9896999132332887 8:1.0 12:1.0
-0.9896999132332887 9:1.0 11:1.0
-0.9896999132332887 9:1.0
0.9896999132332887 5:0.5120000243186951 12:1.0
0.9896999132332887 7:1.0
-0.9891931055153171 7:1.0
0.9896999132332887 8:1.0 9:1.0
0.9896999132332887 7:1.0
-0.9896999132332887 8:1.0 12:1.0
-0.9896999132332887 7:1.0
0.9896999132332887 12:1.0
-0.9896999132332887 10:1.0
0.9896999132332887 7:1.0
-0.9896999132332887 7:1.0
-0.9896999132332887 8:1.0 9:1.0
0.9896999132332887 7:1.0
-0.9896999132332887 7:1.0
0.9896999132332887 8:1.0 9:1.0
-0.9896999132332887 7:1.0
0.9896999132332887 11:1.0
-0.9896999132332887 7:1.0
-0.9896999132332887 5:1.0 8:1.0
0.9896999132332887 7:1.0
-0.9896999132332887 7:1.0
0.9896999132332887 5:1.0
-0.9896999132332887 5:1.0 8:1.0
0.15275297368678928 1:0.9639999866485596 2:1.0 7:1.0
0.9896999132332887 7:1.0 9:1.0
-0.9896999132332887 9:1.0 12:1.0
0.9896999132332887 5:1.0
-0.9896999132332887 7:1.0
0.9896999132332887 5:0.5120000243186951 12:1.0
-0.9896999132332887 5:1.0
0.9896999132332887 4:1.0
0.9896999132332887 12:1.0
0.9896999132332887 7:1.0
-0.9896999132332887 9:1.0 12:1.0
-0.9896999132332887 9:1.0
0.9896999132332887 5:0.800000011920929
-0.9896999132332887 5:1.0
0.9896999132332887 7:1.0 9:1.0
-0.9896999132332887 7:1.0
0.9896999132332887 5:1.0
-0.014682585777555879 5:1.0
-0.9896999132332887 7:1.0
0.9896999132332887 5:0.918666660785675
-0.9896999132332887 9:1.0 11:1.0
-0.9896999132332887 5:1.0
0.9896999132332887 7:1.0
-0.9896999132332887 7:1.0
0.9896999132332887 5:0.800000011920929
-0.9896999132332887 5:1.0
0.9896999132332887 7:1.0
-0.9896999132332887 7:1.0
0.9896999132332887 5:0.800000011920929
-0.9896999132332887 5:1.0
0.9896999132332887 7:1.0 9:1.0
-0.9896999132332887 7:1.0
0.9896999132332887 5:0.800000011920929
0.9896999132332887 7:1.0
-0.9896999132332887 7:1.0
0.9896999132332887 11:1.0
0.9896999132332887 7:1.0
-0.9896999132332887 7:1.0
0.9896999132332887 5:0.800000011920929
-0.9896999132332887 7:1.0
-0.9896999132332887 7:1.0
0.9896999132332887 7:1.0
0.9896999132332887 1:0.9399999976158142 2:1.0 7:1.0 8:1.0
0.9896999132332887 8:1.0 9:1.0
0.9896999132332887 5:0.800000011920929 8:1.0
-0.9896999132332887 8:1.0 11:1.0
-0.9896999132332887 8:1.0
0.9896999132332887 7:1.0 12:1.0
-0.9896999132332887 7:1.0
0.9896999132332887 5:0.6399999856948853 8:1.0
-0.9896999132332887 8:1.0 12:1.0
0.9896999132332887 11:1.0
-0.9896999132332887 11:1.0
0.9896999132332887 7:1.0
-0.9896999132332887 7:1.0
0.9896999132332887 11:1.0
-0.9896999132332887 11:1.0
-0.9896999132332887 5:1.0
0.9896999132332887 7:1.0
-0.9896999132332887 9:1.0
-0.9896999132332887 4:1.0
0.9896999132332887 5:0.800000011920929
-0.9896999132332887 5:1.0
0.9896999132332887 11:1.0
-0.9896999132332887 11:1.0
0.9896999132332887 5:0.800000011920929
-0.9896999132332887 5:1.0
0.9896999132332887 11:1.0
-0.9896999132332887 11:1.0
0.9896999132332887 5:0.800000011920929 8:1.0
-0.9896999132332887 8:1.0 12:1.0
-0.9896999132332887 8:1.0
0.9896999132332887 11:1.0
-0.9896999132332887 11:1.0
0.9896999132332887 1:0.9333333373069763 2:1.0
-0.9896999132332887 5:1.0
0.9896999132332887 11:1.0
0.9896999132332887 5:0.800000011920929
-0.9896999132332887 11:1.0
-0.9834801566393856 5:1.0
0.9896999132332887 11:1.0
0.9896999132332887 5:0.800000011920929
-0.9896999132332887 11:1.0
-0.9896999132332887 4:1.0
0.9896999132332887 1:0.951200008392334 2:1.0 7:1.0
0.9896999132332887 11:1.0
0.9896999132332887 4:1.0
0.9896999132332887 11:1.0
0.9896999132332887 7:1.0
0.9896999132332887 5:0.800000011920929 8:1.0
-0.9896999132332887 11:1.0
-0.9896999132332887 11:1.0
0.9896999132332887 5:0.800000011920929
-0.9896999132332887 7:1.0
-0.9896999132332887 11:1.0
-0.9896999132332887 9:1.0
0.9896999132332887 11:1.0
-0.9896999132332887 5:0.800000011920929 8:1.0
0.9896999132332887 7:1.0
0.9896999132332887 5:0.800000011920929 8:1.0
-0.9896999132332887 7:1.0
0.9896999132332887 5:0.800000011920929
-0.9896999132332887 5:1.0 8:1.0
0.9896999132332887 7:1.0
-0.9896999132332887 7:1.0
0.9896999132332887 8:1.0 11:1.0
0.9896999132332887 7:1.0
0.9896999132332887 5:0.800000011920929
-0.9896999132332887 7:1.0
-0.9896999132332887 5:0.800000011920929 8:1.0
0.9896999132332887 7:1.0
0.9896999132332887 5:0.800000011920929
-0.9896999132332887 7:1.0
-0.9896999132332887 9:1.0
-0.9896999132332887 9:1.0
0.9896999132332887 7:1.0
0.9896999132332887 5:0.800000011920929
-0.9896999132332887 7:1.0
-0.9896999132332887 11:1.0
0.9896999132332887 7:1.0
0.9896999132332887 5:0.800000011920929
-0.9896999132332887 7:1.0
0.9896999132332887 1:0.9520000219345093 2:1.0 7:1.0
0.9896999132332887 7:1.0
0.9896999132332887 5:0.800000011920929
-0.9896999132332887 7:1.0
-0.8579847672738337 7:1.0
0.9896999132332887 7:1.0
0.9896999132332887 7:1.0
-0.9896999132332887 7:1.0
0.9896999132332887 7:1.0
-0.9896999132332887 7:1.0
0.9896999132332887 7:1.0
-0.9896999132332887 7:1.0
0.9896999132332887 7:1.0
-0.9802072199337306 8:1.0
0.9896999132332887 7:1.0
0.9896999132332887 11:1.0
-0.9896999132332887 7:1.0
-0.9896999132332887 7:1.0
0.9896999132332887 7:1.0
-0.9896999132332887 7:1.0
0.9896999132332887 7:1.0
-0.9896999132332887 7:1.0
0.9896999132332887 7:1.0
-0.9896999132332887 7:1.0
0.9896999132332887 7:1.0
-0.9896999132332887 7:1.0
0.9896999132332887 7:1.0
-0.9896999132332887 7:1.0
0.9896999132332887 7:1.0
-0.9896999132332887 7:1.0
0.9896999132332887 7:1.0
-0.9896999132332887 7:1.0
0.9896999132332887 7:1.0
-0.9896999132332887 7:1.0
0.9896999132332887 7:1.0
-0.9896999132332887 7:1.0
0.9896999132332887 7:1.0
-0.9896999132332887 7:1.0
0.9896999132332887 7:1.0
-0.9896999132332887 7:1.0
-0.9896999132332887 7:1.0
0.9896999132332887 11:1.0
-0.9896999132332887 11:1.0
0.9896999132332887 9:1.0
-0.9896999132332887 11:1.0
0.9896999132332887 11:1.0
-0.9896999132332887 11:1.0
0.9896999132332887 8:1.0
-0.9896999132332887 9:1.0
0.9896999132332887 8:1.0
-0.9896999132332887 11:1.0
0.9896999132332887 8:1.0
0.9896999132332887 9:1.0
-0.9896999132332887 8:1.0 9:1.0
0.9896999132332887 9:1.0
-0.9896999132332887 9:1.0
0.9896999132332887 8:1.0 11:1.0
-0.9896999132332887 8:1.0
0.9896999132332887 9:1.0
-0.9896999132332887 11:1.0
0.9896999132332887 8:1.0
-0.9896999132332887 8:1.0 9:1.0
0.9896999132332887 9:1.0
-0.9896999132332887 9:1.0
0.9896999132332887 8:1.0 11:1.0
-0.9896999132332887 8:1.0
0.9896999132332887 9:1.0
-0.9896999132332887 11:1.0
0.9896999132332887 8:1.0
-0.9896999132332887 8:1.0 9:1.0
0.9896999132332887 9:1.0
-0.9896999132332887 9:1.0
0.9896999132332887 8:1.0 11:1.0
-0.9896999132332887 8:1.0
0.9896999132332887 9:1.0
-0.9896999132332887 11:1.0
0.9896999132332887 8:1.0
-0.9896999132332887 8:1.0
0.9896999132332887 9:1.0
-0.9896999132332887 9:1.0
0.9896999132332887 8:1.0 11:1.0
-0.9896999132332887 8:1.0
0.9896999132332887 9:1.0
-0.9896999132332887 9:1.0
0.9896999132332887 8:1.0
-0.9896999132332887 8:1.0
0.9896999132332887 9:1.0
-0.9896999132332887 9:1.0
0.9896999132332887 8:1.0
-0.9896999132332887 8:1.0
0.9896999132332887 9:1.0
-0.9896999132332887 9:1.0
0.9896999132332887 8:1.0
-0.9896999132332887 8:1.0
0.9896999132332887 9:1.0
-0.9896999132332887 9:1.0
0.9896999132332887 8:1.0
-0.9896999132332887 11:1.0
0.9896999132332887 9:1.0
-0.9896999132332887 9:1.0
0.9896999132332887 8:1.0
-0.9896999132332887 9:1.0
0.9896999132332887 9:1.0
-0.9896999132332887 9:1.0
0.9896999132332887 9:1.0
-0.9896999132332887 9:1.0
0.9896999132332887 9:1.0
-0.9896999132332887 9:1.0
0.9896999132332887 9:1.0
-0.9896999132332887 9:1.0
0.9896999132332887 9:1.0
-0.9896999132332887 9:1.0
0.9896999132332887 9:1.0
-0.9896999132332887 9:1.0
0.9896999132332887 9:1.0
0.9896999132332887 9:1.0
-0.9896999132332887 8:1.0
0.9896999132332887 9:1.0
-0.9896999132332887 9:1.0
-0.9896999132332887 8:1.0
0.9896999132332887 9:1.0
-0.9896999132332887 9:1.0
0.9896999132332887 9:1.0
-0.33875157590955496 5:0.800000011920929 8:1.0
0.9896999132332887 9:1.0
-0.9879939273776885 9:1.0
0.9896999132332887 9:1.0
0.9896999132332887 9:1.0
-0.9896999132332887 9:1.0
-0.9896999132332887 9:1.0
0.9896999132332887 9:1.0
0.9896999132332887 8:1.0
-0.9896999132332887 8:1.0
-0.9896999132332887 8:1.0
0.9896999132332887 8:1.0
-0.9896999132332887 5:0.800000011920929 8:1.0
0.9896999132332887 8:1.0
0.9896999132332887 8:1.0 9:1.0 11:1.0
-0.9896999132332887 8:1.0
0.9896999132332887 8:1.0
-0.9896999132332887 8:1.0
0.9896999132332887 8:1.0
-0.9896999132332887 8:1.0
0.9896999132332887 8:1.0
-0.006595029243456452 5:0.6399999856948853 8:1.0
0.9896999132332887 8:1.0
-0.44884966185782105 8:1.0
0.9896999132332887 8:1.0
-0.9896999132332887 8:1.0
-0.9896999132332887 9:1.0
0.9896999132332887 8:1.0
0.9896999132332887 8:1.0
-0.9896999132332887 8:1.0
0.9896999132332887 8:1.0
-0.9896999132332887 8:1.0
0.9896999132332887 8:1.0
-0.9896999132332887 8:1.0
0.9896999132332887 8:1.0
-0.9896999132332887 8:1.0
0.9896999132332887 8:1.0
-0.9896999132332887 8:1.0
0.9896999132332887 8:1.0
-0.9896999132332887 8:1.0
0.9896999132332887 8:1.0
-0.9896999132332887 8:1.0
0.9896999132332887 8:1.0
-0.9896999132332887 8:1.0
0.9896999132332887 8:1.0
-0.9896999132332887 8:1.0
0.9896999132332887 8:1.0
-0.9896999132332887 8:1.0
0.9896999132332887 8:1.0
-0.9896999132332887 8:1.0
0.9896999132332887 8:1.0
-0.9896999132332887 8:1.0
0.9896999132332887 8:1.0
-0.9896999132332887 8:1.0
0.9896999132332887 8:1.0
-0.9896999132332887 8:1.0
0.9896999132332887 8:1.0
-0.9896999132332887 8:1.0
0.9896999132332887 8:1.0
-0.9896999132332887 8:1.0
0.9896999132332887 8:1.0
-0.9896999132332887 8:1.0
0.9896999132332887 8:1.0
-0.9896999132332887 8:1.0
0.9896999132332887 8:1.0
-0.9896999132332887 8:1.0
0.9896999132332887 8:1.0
-0.9896999132332887 8:1.0
0.9896999132332887 8:1.0
-0.9896999132332887 8:1.0
0.9896999132332887 8:1.0
-0.9896999132332887 8:1.0
0.9896999132332887 8:1.0
-0.9896999132332887 8:1.0
0.9896999132332887 8:1.0
-0.9896999132332887 8:1.0
0.9896999132332887 8:1.0
-0.9896999132332887 8:1.0
0.9896999132332887 8:1.0
-0.9896999132332887 8:1.0
0.9896999132332887 8:1.0
-0.9896999132332887 8:1.0
0.9896999132332887 8:1.0
-0.9896999132332887 8:1.0
0.9896999132332887 8:1.0
-0.9896999132332887 8:1.0
0.9896999132332887 8:1.0
-0.9896999132332887 8:1.0
0.9896999132332887 8:1.0
-0.9896999132332887 8:1.0
0.9896999132332887 8:1.0
-0.9896999132332887 8:1.0
0.9896999132332887 8:1.0
-0.9896999132332887 8:1.0
0.9896999132332887 8:1.0
-0.9896999132332887 8:1.0
0.9896999132332887 8:1.0
-0.9896999132332887 8:1.0
0.9896999132332887 8:1.0
-0.9896999132332887 8:1.0
0.9896999132332887 8:1.0
-0.9896999132332887 8:1.0
0.9896999132332887 8:1.0
-0.9896999132332887 8:1.0
0.9896999132332887 8:1.0
-0.9896999132332887 8:1.0
0.9896999132332887 8:1.0
-0.9896999132332887 8:1.0
0.9896999132332887 8:1.0
-0.9896999132332887 8:1.0
0.9896999132332887 8:1.0
-0.9896999132332887 8:1.0
0.9896999132332887 8:1.0
-0.9896999132332887 8:1.0
0.9896999132332887 8:1.0
-0.9896999132332887 8:1.0
0.9896999132332887 8:1.0 11:1.0
-0.9896999132332887 8:1.0
0.9896999132332887 8:1.0
-0.9896999132332887 5:0.800000011920929 8:1.0
0.9896999132332887 8:1.0
0.9896999132332887 8:1.0
-0.9896999132332887 8:1.0
0.9896999132332887 8:1.0
-0.9896999132332887 8:1.0
0.9896999132332887 8:1.0
-0.9896999132332887 8:1.0
0.9896999132332887 8:1.0
-0.9896999132332887 8:1.0
0.9896999132332887 8:1.0
-0.9896999132332887 8:1.0
0.9896999132332887 8:1.0
-0.9896999132332887 8:1.0
0.9896999132332887 8:1.0
-0.9896999132332887 8:1.0
0.9896999132332887 8:1.0
-0.9896999132332887 8:1.0
0.9896999132332887 8:1.0
-0.9896999132332887 8:1.0
0.9896999132332887 8:1.0
-0.9896999132332887 8:1.0
0.9896999132332887 8:1.0
-0.9896999132332887 8:1.0
0.9896999132332887 8:1.0
-0.9896999132332887 8:1.0
0.9896999132332887 8:1.0
-0.9896999132332887 8:1.0
0.9896999132332887 8:1.0
-0.9896999132332887 8:1.0
0.9896999132332887 8:1.0
-0.9896999132332887 8:1.0
0.9896999132332887 8:1.0
-0.9896999132332887 8:1.0
0.9896999132332887 8:1.0
-0.9896999132332887 8:1.0
0.9896999132332887 8:1.0
-0.9896999132332887 8:1.0
0.9896999132332887 8:1.0
-0.9896999132332887 8:1.0
0.9896999132332887 8:1.0
-0.9896999132332887 8:1.0
0.9896999132332887 8:1.0
-0.9896999132332887 8:1.0
0.9896999132332887 8:1.0
-0.9896999132332887 8:1.0
0.9896999132332887 8:1.0
-0.9896999132332887 8:1.0
0.9896999132332887 8:1.0
-0.9896999132332887 8:1.0
0.9896999132332887 8:1.0
-0.930931221709544 8:1.0
0.9896999132332887 8:1.0
-0.3679212743152598 8:1.0
0.9896999132332887 8:1.0 11:1.0
-0.9896999132332887 11:1.0
0.9896999132332887 1:0.949999988079071 2:1.0 5:0.800000011920929 7:1.0
-0.9896999132332887 5:0.800000011920929 8:1.0
-0.9896999132332887 11:1.0
-0.9896999132332887 5:0.800000011920929 8:1.0
0.9896999132332887 8:1.0 11:1.0
-0.9896999132332887 11:1.0
0.9896999132332887 8:1.0 11:1.0
-0.9896999132332887 8:1.0
0.9896999132332887 8:1.0 11:1.0
-0.9896999132332887 11:1.0
-0.9896999132332887 5:0.800000011920929 8:1.0
-0.9896999132332887 5:0.800000011920929 8:1.0
0.9896999132332887 1:0.9424999952316284 2:1.0 7:1.0
0.9896999132332887 8:1.0 9:1.0 11:1.0
-0.41146533302787214 7:1.0
-0.9896999132332887 5:0.5120000243186951 8:1.0
-0.7183886414347902 11:1.0
0.9896999132332887 1:0.9549999833106995 2:1.0 7:1.0
-0.8618043492040348 7:1.0
-0.4153017997741699 5:0.7559999823570251 8:1.0
-0.009492693299557597 5:0.7559999823570251 8:1.0
