SVM-light Version V6.01
0 # kernel type
3 # kernel parameter -d
1.0 # kernel parameter -g
1.0 # kernel parameter -s
0.0 # kernel parameter -r
empty# kernel parameter -u
11 # highest feature index
1358 # number of training documents
544 # number of support vectors plus 1
0.9990805097680981 # threshold b, each following line is a SV (starting with alpha*y)
-1.209223718830641 7:1.0
1.209223718830641 5:1.0
-1.209223718830641 5:1.0
1.209223718830641 7:1.0
1.209223718830641 6:1.0 7:1.0
-1.209223718830641 6:1.0 7:1.0
-0.15138450240472434 9:1.0
-1.209223718830641 1:0.5833918452262878 2:1.0 4:0.00855030957609415 5:1.0
1.209223718830641 1:0.7816818356513977 2:1.0 5:1.0 6:1.0
-1.209223718830641 1:0.6759916543960571 2:1.0
-1.209223718830641 1:1.0 2:1.0 5:1.0 6:1.0
1.209223718830641 4:0.11905183643102646 6:1.0 7:1.0
-1.2050705464051337 4:0.11905183643102646 6:1.0 7:1.0
1.209223718830641 6:1.0 7:1.0 9:1.0
-1.209223718830641 6:1.0 7:1.0
-0.005224062552855457 4:5.909299943596125E-4
-1.209223718830641 5:1.0 7:1.0
1.209223718830641 6:1.0 9:1.0
-1.209223718830641 6:1.0 9:1.0
-1.2092237184126966 3:0.04241858050227165 4:0.026353834196925163 9:1.0
1.209223718830641 7:1.0
1.209223718830641 5:1.0 7:1.0
-1.209223718830641 6:1.0
-1.209223718830641 1:1.0 2:1.0 5:1.0 6:1.0
1.209223718830641 9:1.0
-1.209223718830641 7:1.0 9:1.0
-1.209223718830641 6:1.0
-1.209223718830641 1:0.9415050148963928 2:1.0 5:1.0 6:1.0
1.209223718830641 7:1.0
-1.209223718830641 7:1.0 9:1.0
-0.8288623617579509 6:1.0
1.209223718830641 1:0.7587298154830933 2:1.0 5:1.0
-1.209223718830641 1:0.5826719999313354 2:1.0 4:0.004950929898768663 5:1.0
0.7317152948647823 1:0.8156375288963318 2:1.0 5:1.0 6:1.0
-1.209223718830641 1:1.0 2:1.0 5:1.0 6:1.0
-1.209223718830641 6:1.0 7:1.0
1.209223718830641 6:1.0 9:1.0
1.209223718830641 5:1.0 6:1.0
-1.209223718830641 4:0.018649369478225708 9:1.0
-1.209223718830641 7:1.0
1.209223718830641 8:1.0
1.209223718830641 10:1.0
1.209223718830641 3:0.08392403274774551 6:1.0 7:1.0
-1.209223718830641 1:0.9415050148963928 2:1.0 5:1.0 6:1.0
-1.209223718830641 4:0.001399399945512414 6:1.0 10:1.0
1.209223718830641 7:1.0
-1.1999196927878724 4:0.11905183643102646 7:1.0
-1.209223718830641 7:1.0 9:1.0
1.209223718830641 5:1.0 6:1.0 10:1.0
-1.209223718830641 9:1.0
1.209223718830641 4:0.037511199712753296 7:1.0
-1.209223718830641 7:1.0 10:1.0
-1.209223718830641 7:1.0
-1.209223718830641 5:1.0 6:1.0
-1.209223718830641 4:0.11905183643102646 5:1.0 6:1.0 7:1.0
1.209223718830641 4:0.11905183643102646 9:1.0
-1.209223718830641 9:1.0
-1.209223718830641 7:1.0
-1.209223718830641 1:0.8788166046142578 2:1.0 6:1.0
-1.209223718830641 7:1.0 9:1.0
-1.209223718830641 4:0.018649369478225708 9:1.0
1.209223718830641 6:1.0
-0.833004014553506 3:0.09098046272993088 6:1.0
1.209223718830641 9:1.0
1.209223718830641 6:1.0
-1.209223718830641 4:0.016198759898543358 9:1.0
-1.209223718830641 9:1.0
1.209223718830641 6:1.0 7:1.0
1.209223718830641 6:1.0
-1.209223718830641 6:1.0 7:1.0
1.209223718830641 9:1.0
-1.209223718830641 4:0.016198759898543358 9:1.0
1.209223718830641 9:1.0
1.209223718830641 4:0.11905183643102646 9:1.0
-1.209223718830641 1:0.5153552889823914 2:1.0 3:0.030710624530911446 6:1.0 9:1.0
-1.209223718830641 10:1.0
-1.185737362975968 4:0.11905183643102646 5:1.0 6:1.0 7:1.0
-1.209223718830641 8:1.0
1.209223718830641 6:1.0
1.209223718830641 6:1.0 9:1.0
-1.209223718830641 6:1.0 9:1.0
-1.209223718830641 6:1.0
1.209223718830641 3:0.05793677270412445 4:0.11905183643102646 7:1.0
1.209223718830641 7:1.0
1.209223718830641 6:1.0
1.209223718830641 5:1.0 7:1.0 9:1.0
1.209223718830641 9:1.0
-1.209223718830641 4:0.11905183643102646
-1.209223718830641 7:1.0 9:1.0
1.209223718830641 5:1.0
-1.209223718830641 5:1.0
1.209223718830641 4:0.04755135998129845 9:1.0
-1.209223718830641 9:1.0
1.209223718830641 5:1.0 10:1.0
-1.209223718830641 6:1.0 10:1.0
1.209223718830641 4:0.019158700481057167 9:1.0
-1.209223718830641 9:1.0
1.209223718830641 6:1.0 10:1.0
1.209223718830641 6:1.0 8:1.0
-1.209223718830641 6:1.0 10:1.0
-1.209223718830641 8:1.0
1.209223718830641 7:1.0
-1.209223718830641 6:1.0 7:1.0
-1.209223718830641 7:1.0 10:1.0
-0.7099216738942438 9:1.0
1.209223718830641 4:0.015734490007162094
-1.209223718830641 7:1.0 9:1.0
-1.209223718830641 3:0.09098046272993088 6:1.0
-1.209223718830641 3:0.07354628294706345 6:1.0
-1.2038600309462177 4:0.11905183643102646 6:1.0
1.209223718830641 7:1.0
-1.209223718830641 7:1.0
1.209223718830641 7:1.0
-1.209223718830641 5:1.0
1.209223718830641 6:1.0 9:1.0
-1.209223718830641 9:1.0
1.209223718830641 3:0.08244471997022629
1.209223718830641 9:1.0
-1.209223718830641 5:1.0
1.209223718830641 10:1.0
-1.209223718830641 4:0.0031079500913619995 10:1.0
-1.209223718830641 10:1.0
1.209223718830641 5:1.0 7:1.0 9:1.0
1.209223718830641 4:0.05028887838125229 6:1.0
1.209223718830641 6:1.0
1.209223718830641 10:1.0
1.209223718830641 6:1.0 7:1.0 9:1.0
-1.209223718830641 4:0.11905183643102646 6:1.0
1.209223718830641 7:1.0
-1.209223718830641 7:1.0
1.209223718830641 6:1.0
-1.209223718830641 6:1.0
1.209223718830641 7:1.0
1.209223718830641 7:1.0
1.209223718830641 10:1.0
1.209223718830641 10:1.0
1.209223718830641 3:0.08836867660284042 4:0.11905183643102646 6:1.0 7:1.0
1.209223718830641 4:0.04789375886321068
1.209223718830641 10:1.0
1.209223718830641 6:1.0 9:1.0
1.209223718830641 6:1.0
-1.209223718830641 6:1.0 10:1.0
-1.209223718830641 7:1.0 10:1.0
-1.209223718830641 9:1.0
-1.209223718830641 5:1.0
1.209223718830641 9:1.0
1.209223718830641 4:0.04789375886321068
-1.209223718830641 9:1.0
-1.209223718830641 9:1.0
1.209223718830641 6:1.0
-1.192073266890253 3:0.07354628294706345
-0.0035673510925145714 6:1.0
1.209223718830641 9:1.0
-1.209223718830641 9:1.0
1.209223718830641 9:1.0
-1.209223718830641 9:1.0
1.209223718830641 4:0.04668312892317772
-1.209223718830641 4:0.11905183643102646
1.209223718830641 1:0.6897803544998169 2:1.0
1.209223718830641 6:1.0 9:1.0
1.209223718830641 9:1.0
-1.209223718830641 9:1.0
1.209223718830641 4:0.04597998037934303
1.209223718830641 9:1.0
-1.209223718830641 9:1.0
1.209223718830641 4:0.03900931030511856
-1.1179329231816648 4:0.11905183643102646
-1.209223718830641 4:2.7630000840872526E-4
1.209223718830641 9:1.0
-1.209223718830641 9:1.0
1.209223718830641 4:0.015734490007162094
-1.209223718830641 4:2.7630000840872526E-4
1.209223718830641 9:1.0
-1.209223718830641 9:1.0
1.209223718830641 9:1.0
-1.209223718830641 9:1.0
1.209223718830641 9:1.0
-1.209223718830641 9:1.0
1.209223718830641 9:1.0
-1.209223718830641 9:1.0
1.209223718830641 9:1.0
-1.209223718830641 9:1.0
1.209223718830641 9:1.0
-1.209223718830641 9:1.0
1.209223718830641 7:1.0
-1.209223718830641 7:1.0
1.209223718830641 5:1.0 10:1.0
1.209223718830641 5:1.0
-1.209223718830641 6:1.0
-1.209223718830641 7:1.0
-1.209223718830641 6:1.0
1.209223718830641 7:1.0
1.209223718830641 6:1.0
-1.209223718830641 7:1.0
-1.209223718830641 9:1.0
1.209223718830641 7:1.0
1.209223718830641 6:1.0
1.209223718830641 7:1.0
1.209223718830641 7:1.0
-1.209223718830641 7:1.0
1.209223718830641 7:1.0
-1.209223718830641 7:1.0
1.209223718830641 7:1.0
-1.209223718830641 7:1.0
1.209223718830641 7:1.0
-1.209223718830641 7:1.0
1.209223718830641 7:1.0
-1.209223718830641 7:1.0
1.209223718830641 7:1.0
-1.209223718830641 7:1.0
1.209223718830641 7:1.0
-1.209223718830641 7:1.0
1.209223718830641 7:1.0
-1.209223718830641 7:1.0
1.209223718830641 7:1.0
-1.209223718830641 7:1.0
1.209223718830641 7:1.0
-1.209223718830641 7:1.0
1.209223718830641 7:1.0
-1.209223718830641 7:1.0
1.209223718830641 7:1.0
-1.209223718830641 7:1.0
1.209223718830641 6:1.0
-1.209223718830641 9:1.0
-1.209223718830641 7:1.0
1.209223718830641 7:1.0
-1.209223718830641 7:1.0
1.209223718830641 7:1.0
-1.209223718830641 7:1.0
1.209223718830641 7:1.0
-1.209223718830641 7:1.0
1.209223718830641 7:1.0
-1.209223718830641 7:1.0
1.209223718830641 7:1.0
-1.209223718830641 7:1.0
-1.209223718830641 6:1.0
1.209223718830641 7:1.0
1.209223718830641 1:0.6709983944892883 2:1.0
-1.209223718830641 6:1.0
-1.209223718830641 7:1.0
1.209223718830641 5:1.0
1.209223718830641 7:1.0
-1.209223718830641 7:1.0
-1.209223718830641 5:1.0
1.209223718830641 6:1.0 7:1.0 9:1.0
1.209223718830641 6:1.0 9:1.0
-1.209223718830641 6:1.0
-1.209223718830641 6:1.0
1.209223718830641 5:1.0 7:1.0
1.209223718830641 5:1.0
-1.209223718830641 5:1.0
1.209223718830641 6:1.0
-1.209223718830641 6:1.0
1.209223718830641 5:1.0
-1.209223718830641 5:1.0
1.209223718830641 6:1.0
-1.209223718830641 6:1.0
1.209223718830641 5:1.0
-1.209223718830641 5:1.0
-1.209223718830641 5:1.0
1.209223718830641 6:1.0
-1.209223718830641 6:1.0
1.209223718830641 5:1.0
-1.209223718830641 5:1.0
1.209223718830641 6:1.0
-1.209223718830641 6:1.0
1.209223718830641 5:1.0
-1.209223718830641 5:1.0
1.209223718830641 6:1.0
-1.209223718830641 6:1.0
1.209223718830641 5:1.0
-1.209223718830641 5:1.0
1.209223718830641 6:1.0
-1.209223718830641 6:1.0
1.209223718830641 5:1.0
-1.209223718830641 5:1.0
1.209223718830641 6:1.0
-1.209223718830641 6:1.0
1.209223718830641 5:1.0
-1.209223718830641 5:1.0
1.209223718830641 6:1.0
-1.209223718830641 6:1.0
1.209223718830641 5:1.0
-1.209223718830641 5:1.0
1.209223718830641 6:1.0
-1.209223718830641 6:1.0
1.209223718830641 5:1.0
-1.209223718830641 5:1.0
1.209223718830641 6:1.0
-1.209223718830641 6:1.0
1.209223718830641 5:1.0
-1.209223718830641 5:1.0
1.209223718830641 6:1.0
-1.209223718830641 6:1.0
1.209223718830641 5:1.0
-1.209223718830641 5:1.0
1.209223718830641 6:1.0
-1.209223718830641 6:1.0
1.209223718830641 5:1.0
-1.209223718830641 5:1.0
1.209223718830641 6:1.0
-1.209223718830641 6:1.0
1.209223718830641 5:1.0
-1.209223718830641 5:1.0
1.209223718830641 6:1.0
-1.209223718830641 6:1.0
1.209223718830641 5:1.0
-1.209223718830641 5:1.0
1.209223718830641 6:1.0
-1.209223718830641 6:1.0
1.209223718830641 5:1.0
-1.209223718830641 5:1.0
1.209223718830641 6:1.0
-1.209223718830641 6:1.0
1.209223718830641 5:1.0
-1.209223718830641 5:1.0
1.209223718830641 6:1.0
-1.209223718830641 6:1.0
1.209223718830641 5:1.0
-1.209223718830641 5:1.0
1.209223718830641 6:1.0
-1.209223718830641 6:1.0
1.209223718830641 5:1.0
-1.209223718830641 5:1.0
1.209223718830641 6:1.0
-1.209223718830641 6:1.0
1.209223718830641 5:1.0
-1.209223718830641 5:1.0
1.209223718830641 6:1.0
-1.209223718830641 6:1.0
1.209223718830641 5:1.0
-1.209223718830641 5:1.0
1.209223718830641 6:1.0
-1.209223718830641 6:1.0
1.209223718830641 5:1.0
-1.209223718830641 5:1.0
1.209223718830641 6:1.0
-1.209223718830641 6:1.0
1.209223718830641 5:1.0
-1.209223718830641 5:1.0
1.209223718830641 6:1.0
-1.209223718830641 6:1.0
1.209223718830641 5:1.0
-1.209223718830641 5:1.0
1.209223718830641 6:1.0
-1.209223718830641 6:1.0
1.209223718830641 5:1.0
-1.209223718830641 5:1.0
1.209223718830641 6:1.0
-1.209223718830641 6:1.0
1.209223718830641 5:1.0
-1.209223718830641 5:1.0
1.209223718830641 6:1.0
-1.209223718830641 6:1.0
1.209223718830641 5:1.0
-1.209223718830641 5:1.0
1.209223718830641 6:1.0
-1.209223718830641 6:1.0
1.209223718830641 5:1.0
-1.209223718830641 5:1.0
1.209223718830641 6:1.0
-1.209223718830641 6:1.0
1.209223718830641 5:1.0
-1.209223718830641 5:1.0
1.209223718830641 6:1.0
-1.209223718830641 6:1.0
1.209223718830641 5:1.0
-1.209223718830641 5:1.0
1.209223718830641 6:1.0
-1.209223718830641 6:1.0
1.209223718830641 5:1.0
-1.209223718830641 5:1.0
1.209223718830641 6:1.0
-1.209223718830641 6:1.0
1.209223718830641 5:1.0
-1.209223718830641 5:1.0
1.209223718830641 6:1.0
-1.209223718830641 6:1.0
1.209223718830641 5:1.0
-1.209223718830641 5:1.0
1.209223718830641 6:1.0
-1.209223718830641 6:1.0
1.209223718830641 5:1.0
-1.209223718830641 5:1.0
1.209223718830641 6:1.0
-1.209223718830641 6:1.0
1.209223718830641 5:1.0
-1.209223718830641 5:1.0
1.209223718830641 6:1.0
-1.209223718830641 6:1.0
1.209223718830641 5:1.0
0.14537332813615644 1:0.8156375288963318 2:1.0 5:1.0 6:1.0
1.209223718830641 6:1.0
-1.209223718830641 6:1.0
1.209223718830641 5:1.0
-1.209223718830641 5:1.0
1.209223718830641 6:1.0
-1.209223718830641 6:1.0
1.209223718830641 5:1.0
1.209223718830641 6:1.0
-1.209223718830641 5:1.0
1.209223718830641 6:1.0
-1.209223718830641 6:1.0
1.209223718830641 5:1.0
-1.209223718830641 5:1.0
1.209223718830641 6:1.0
-1.209223718830641 6:1.0
1.209223718830641 5:1.0
-1.209223718830641 5:1.0
1.209223718830641 6:1.0
-1.209223718830641 6:1.0
1.209223718830641 5:1.0
-1.209223718830641 5:1.0
1.209223718830641 6:1.0
-1.209223718830641 6:1.0
1.209223718830641 5:1.0
-1.209223718830641 5:1.0
1.209223718830641 6:1.0
-1.209223718830641 6:1.0
1.209223718830641 5:1.0
-1.209223718830641 5:1.0
1.209223718830641 6:1.0
-1.209223718830641 6:1.0
1.209223718830641 5:1.0
-1.209223718830641 5:1.0
1.209223718830641 6:1.0
-1.209223718830641 6:1.0
1.209223718830641 1:0.6755272150039673 2:1.0
-1.209223718830641 7:1.0
1.209223718830641 6:1.0
1.209223718830641 6:1.0
-1.209223718830641 6:1.0
1.209223718830641 6:1.0
-1.209223718830641 6:1.0
1.209223718830641 6:1.0
-1.209223718830641 6:1.0
1.209223718830641 6:1.0
-1.209223718830641 6:1.0
1.209223718830641 6:1.0
-1.209223718830641 6:1.0
1.209223718830641 1:0.6709983944892883 2:1.0
-1.209223718830641 6:1.0
1.209223718830641 5:1.0 7:1.0
1.209223718830641 6:1.0
1.209223718830641 6:1.0
-1.209223718830641 6:1.0
1.209223718830641 6:1.0
-1.209223718830641 6:1.0
1.209223718830641 6:1.0
-1.209223718830641 6:1.0
1.209223718830641 6:1.0
-1.209223718830641 6:1.0
1.209223718830641 6:1.0
-1.209223718830641 6:1.0
1.209223718830641 6:1.0
-1.209223718830641 6:1.0
1.209223718830641 6:1.0
-1.209223718830641 6:1.0
1.209223718830641 6:1.0
-1.209223718830641 6:1.0
1.209223718830641 6:1.0
-1.209223718830641 6:1.0
1.209223718830641 6:1.0
-1.209223718830641 6:1.0
1.209223718830641 6:1.0
-1.209223718830641 6:1.0
1.209223718830641 6:1.0
-1.209223718830641 6:1.0
1.209223718830641 6:1.0
-1.209223718830641 6:1.0
1.209223718830641 6:1.0
-1.209223718830641 6:1.0
1.209223718830641 6:1.0
-1.209223718830641 6:1.0
1.209223718830641 6:1.0
-1.209223718830641 6:1.0
1.209223718830641 6:1.0
-1.209223718830641 6:1.0
1.209223718830641 6:1.0
-1.209223718830641 6:1.0
-1.209223718830641 6:1.0
1.209223718830641 6:1.0
-1.209223718830641 6:1.0
1.209223718830641 6:1.0
-1.209223718830641 6:1.0
1.209223718830641 6:1.0
-1.209223718830641 6:1.0
1.209223718830641 6:1.0
-1.209223718830641 6:1.0
1.209223718830641 6:1.0
-1.209223718830641 6:1.0
1.209223718830641 6:1.0
-1.209223718830641 6:1.0
1.209223718830641 6:1.0
-1.209223718830641 6:1.0
1.209223718830641 6:1.0
-1.209223718830641 6:1.0
1.209223718830641 6:1.0
-1.209223718830641 6:1.0
1.209223718830641 6:1.0
-1.209223718830641 6:1.0
1.209223718830641 6:1.0
-1.209223718830641 6:1.0
1.209223718830641 6:1.0
-1.209223718830641 6:1.0
1.209223718830641 6:1.0
-1.209223718830641 6:1.0
1.209223718830641 6:1.0
-1.209223718830641 6:1.0
1.209223718830641 6:1.0
-1.209223718830641 6:1.0
1.209223718830641 6:1.0 9:1.0
-1.209223718830641 6:1.0
1.0228608992985722 1:0.7010018825531006 2:1.0
1.209223718830641 6:1.0 9:1.0
1.209223718830641 1:0.6897803544998169 2:1.0
1.209223718830641 5:1.0 7:1.0
-1.209223718830641 7:1.0
1.209223718830641 1:0.6709983944892883 2:1.0
-0.5834367602287087 9:1.0
1.209223718830641 6:1.0 9:1.0
-1.209223718830641 6:1.0
-1.209223718830641 9:1.0
1.209223718830641 6:1.0 9:1.0
-1.0709886219122697 9:1.0
1.209223718830641 6:1.0 9:1.0
-1.209223718830641 9:1.0
1.209223718830641 1:0.5120726227760315 2:1.0 3:0.06015909090638161 4:0.11905183643102646 7:1.0 9:1.0
-1.209223718830641 7:1.0
1.209223718830641 1:0.7573913335800171 2:1.0 4:0.029565220698714256 5:1.0
-0.9011256407227352 5:1.0
-5.070895480804305E-4 10:1.0
-0.11030411136283536 6:1.0
0.09723635951269598 1:0.7371317148208618 2:1.0 4:0.11905183643102646 6:1.0 7:1.0 9:1.0
-2.5880486740348374E-6 6:1.0
-0.10797940902707903 7:1.0
-0.41699737920836366 6:1.0
-0.02390232407924986 6:1.0
-0.01218622189488372 7:1.0
-5.070895480804305E-4 8:1.0
-8.902790889949719E-4 11:1.0
-0.014064439565488418 7:1.0
-7.496080275741521E-4 3:0.024025164544582367
