SVM-light Version V6.01
0 # kernel type
3 # kernel parameter -d
1.0 # kernel parameter -g
1.0 # kernel parameter -s
0.0 # kernel parameter -r
empty# kernel parameter -u
15 # highest feature index
2322 # number of training documents
703 # number of support vectors plus 1
0.9997666440646122 # threshold b, each following line is a SV (starting with alpha*y)
-1.20912100638401 11:1.0
1.20912100638401 9:1.0
-0.2219157149521257 4:0.11905183643102646 10:1.0
-1.20912100638401 1:1.0 2:1.0 9:1.0 10:1.0
1.20912100638401 11:1.0
-1.20912100638401 9:1.0 11:1.0
1.20912100638401 1:0.6809136271476746 2:1.0 3:0.043310701847076416 10:1.0 11:1.0 13:1.0
1.20912100638401 7:0.7200000286102295 13:1.0
1.20912100638401 9:1.0 11:1.0 13:1.0
-0.5709595244904772 9:1.0 13:1.0
1.20912100638401 1:0.7573913335800171 2:1.0 4:0.029565220698714256 9:1.0
-1.20912100638401 1:0.698809802532196 2:1.0 7:0.6399999856948853
-1.20912100638401 1:1.0 2:1.0 9:1.0 10:1.0
1.20912100638401 10:1.0 13:1.0
-1.20912100638401 10:1.0 13:1.0
-1.20912100638401 7:0.800000011920929 13:1.0
1.20912100638401 1:0.7103593349456787 2:1.0
1.20912100638401 7:1.0 10:1.0 13:1.0
-1.20912100638401 1:0.9017142653465271 2:1.0 7:0.656000018119812 9:1.0
1.20912100638401 10:1.0 12:1.0
1.20912100638401 1:0.5120726227760315 2:1.0 3:0.06015909090638161 4:0.11905183643102646 11:1.0 13:1.0
-1.20912100638401 1:0.8421194553375244 2:1.0 7:0.7599999904632568
1.20912100638401 7:1.0
1.20912100638401 10:1.0 11:1.0 13:1.0
1.20912100638401 4:0.04755135998129845 7:1.0 13:1.0
-0.7389362017225123 7:1.0 11:1.0
1.20912100638401 13:1.0
1.20912100638401 7:1.0 11:1.0
-1.20912100638401 12:1.0
1.20912100638401 7:1.0
1.20912100638401 12:1.0
-0.03414284029903669 4:0.022499119862914085 7:0.6399999856948853 10:1.0
-1.20912100638401 10:1.0
-1.20912100638401 11:1.0 13:1.0
1.20912100638401 7:1.0
-1.20912100638401 7:0.7200000286102295 11:1.0
-1.20912100638401 7:0.6399999856948853 11:1.0
1.20912100638401 3:0.08392403274774551 10:1.0 11:1.0
1.20912100638401 7:0.800000011920929 11:1.0
1.20912100638401 11:1.0
-1.20912100638401 12:1.0
1.20912100638401 13:1.0
-1.20912100638401 11:1.0 13:1.0
-0.46827691348001543 4:0.029136009514331818 7:0.7200000286102295 10:1.0
1.20912100638401 9:1.0 11:1.0 13:1.0
-1.20912100638401 11:1.0 13:1.0
1.20912100638401 11:1.0
-1.20912100638401 7:0.5120000243186951 11:1.0
-1.20912100638401 11:1.0 13:1.0
1.20912100638401 7:0.7559999823570251 11:1.0
-1.20912100638401 7:0.6399999856948853 11:1.0
1.20912100638401 1:0.683967113494873 2:1.0 10:1.0 13:1.0
1.20912100638401 1:0.7623306512832642 2:1.0 11:1.0
-1.20912100638401 7:0.5120000243186951 11:1.0
-1.20912100638401 11:1.0 13:1.0
1.20912100638401 11:1.0
1.20912100638401 11:1.0
-1.20912100638401 11:1.0 13:1.0
1.20912100638401 10:1.0 11:1.0 13:1.0
1.20912100638401 11:1.0
-1.20912100638401 11:1.0 13:1.0
1.20912100638401 11:1.0
-1.20912100638401 4:0.11905183643102646 10:1.0
1.20912100638401 7:0.6399999856948853 13:1.0
-0.6664389342464777 13:1.0
1.20912100638401 10:1.0 11:1.0
-1.20912100638401 4:0.11905183643102646 10:1.0 11:1.0
-1.20912100638401 10:1.0 11:1.0
1.20912100638401 1:0.6985141634941101 2:1.0 4:0.04755135998129845 7:0.6399999856948853 13:1.0
1.20912100638401 13:1.0
-1.20912100638401 13:1.0
1.20912100638401 7:0.800000011920929 10:1.0
1.20912100638401 9:1.0 11:1.0
-1.20912100638401 1:0.5826719999313354 2:1.0 4:0.004950929898768663 9:1.0
-1.20912100638401 1:0.9415050148963928 2:1.0 9:1.0 10:1.0
1.20912100638401 10:1.0 13:1.0
-1.20912100638401 10:1.0 13:1.0
-1.20912100638401 1:0.8156375288963318 2:1.0 7:1.0 9:1.0
-1.1954930433521103 3:0.04241858050227165 4:0.026353834196925163 7:0.800000011920929 13:1.0
-1.20912100638401 7:0.800000011920929 13:1.0
-1.20912100638401 1:0.9269083142280579 2:1.0 10:1.0
1.20912100638401 7:0.6399999856948853 13:1.0
-1.20912100638401 7:1.0 13:1.0
-1.20912100638401 1:0.6759916543960571 2:1.0
-1.20912100638401 11:1.0
1.20912100638401 7:0.6800000071525574 9:1.0
1.20912100638401 10:1.0 11:1.0
-1.20912100638401 4:0.11905183643102646 9:1.0 10:1.0 11:1.0
-1.20912100638401 10:1.0 11:1.0
1.20912100638401 6:1.0
-0.013403948793831055 7:0.800000011920929 10:1.0
-1.20912100638401 10:1.0 13:1.0
-1.20912100638401 13:1.0
1.20912100638401 9:1.0
-0.05616985715839529 13:1.0
-0.3260093989599734 4:0.11905183643102646 9:1.0 10:1.0 11:1.0
1.20912100638401 10:1.0 13:1.0
-1.20912100638401 1:0.5833918452262878 2:1.0 4:0.00855030957609415 9:1.0
1.20912100638401 10:1.0 13:1.0
-1.20912100638401 13:1.0
-1.20912100638401 1:0.9415050148963928 2:1.0 9:1.0 10:1.0
1.20912100638401 1:0.7696695923805237 2:1.0 9:1.0 10:1.0 11:1.0 13:1.0
-0.7665853413247267 9:1.0 11:1.0
-1.20912100638401 1:0.9399999976158142 2:1.0 9:1.0 10:1.0
1.20912100638401 4:0.05028887838125229 7:1.0
-1.20912100638401 7:1.0 10:1.0
-1.20912100638401 7:0.800000011920929 13:1.0
-1.20912100638401 7:0.7200000286102295 13:1.0
1.20912100638401 9:1.0
1.20912100638401 10:1.0 13:1.0
1.20912100638401 13:1.0
-1.20912100638401 7:0.6880000233650208
-0.5793381592992289 11:1.0
-1.20912100638401 10:1.0 11:1.0
1.20912100638401 4:0.0017252500401809812 7:1.0
-1.20912100638401 7:1.0
-1.20912100638401 1:0.6173475980758667 2:1.0 4:0.00855030957609415 9:1.0
1.20912100638401 4:0.04668312892317772
-1.20912100638401 11:1.0
1.20912100638401 10:1.0 13:1.0
-1.20912100638401 13:1.0
-1.20912100638401 7:1.0 10:1.0
1.20912100638401 10:1.0 13:1.0
1.20912100638401 4:0.015734490007162094
-1.20912100638401 7:0.5759999752044678 13:1.0
-1.20912100638401 10:1.0 11:1.0
1.20912100638401 7:1.0
-1.20912100638401 4:0.016198759898543358 7:0.800000011920929 13:1.0
-1.20912100638401 7:1.0
1.20912100638401 10:1.0 11:1.0 13:1.0
1.20912100638401 7:1.0
-1.20912100638401 7:1.0
-1.20912100638401 9:1.0
-1.20912100638401 1:0.5153552889823914 2:1.0 3:0.030710624530911446 10:1.0 13:1.0
-1.20912100638401 1:0.6759916543960571 2:1.0
1.20912100638401 7:1.0
-1.20912100638401 4:0.029136009514331818 7:0.7200000286102295 10:1.0
-1.20912100638401 7:1.0
1.20912100638401 1:0.6709983944892883 2:1.0
1.20912100638401 1:0.6743540167808533 2:1.0
1.20912100638401 7:1.0
-1.20912100638401 1:0.6709983944892883 2:1.0
-1.20912100638401 1:0.6213974952697754 2:1.0
1.20912100638401 4:0.04789375886321068 7:0.800000011920929
1.20912100638401 1:0.6709983944892883 2:1.0
-1.20912100638401 11:1.0
-1.20912100638401 1:0.6213974952697754 2:1.0
1.20912100638401 10:1.0 13:1.0
1.20912100638401 1:0.6709983944892883 2:1.0
-1.20912100638401 13:1.0
-1.20912100638401 1:0.5946583151817322 2:1.0
1.20912100638401 4:0.11905183643102646 13:1.0
-1.20912100638401 13:1.0
1.20912100638401 4:0.04789375886321068 7:0.800000011920929
-1.20912100638401 4:0.021157899871468544 7:1.0
1.20912100638401 1:0.6755272150039673 2:1.0
-1.20912100638401 13:1.0
1.20912100638401 7:0.918666660785675
-1.20912100638401 10:1.0 11:1.0
1.20912100638401 9:1.0
1.20912100638401 1:0.712263822555542 2:1.0 3:0.04108837991952896 10:1.0 11:1.0 13:1.0
-1.20912100638401 4:0.016198759898543358 13:1.0
1.20912100638401 10:1.0 13:1.0
-1.20912100638401 13:1.0
-1.20912100638401 7:1.0 10:1.0
1.20912100638401 4:0.019158700481057167 13:1.0
-1.20912100638401 4:0.018649369478225708 13:1.0
1.20912100638401 7:0.8999999761581421
1.20912100638401 10:1.0 13:1.0
-1.20912100638401 13:1.0
1.20912100638401 7:0.800000011920929
-1.20912100638401 7:1.0
1.20912100638401 9:1.0 11:1.0
1.20912100638401 4:0.04597998037934303 7:0.800000011920929
-1.20912100638401 1:0.5118813514709473 2:1.0
1.20912100638401 3:0.05793677270412445 4:0.11905183643102646 11:1.0
-1.1991046871233992 4:0.11905183643102646 11:1.0
1.20912100638401 1:0.6897803544998169 2:1.0
1.20912100638401 4:0.037511199712753296 11:1.0
-1.20912100638401 1:0.41700130701065063 2:1.0
-1.20912100638401 11:1.0
1.20912100638401 1:0.6897803544998169 2:1.0
-1.20912100638401 13:1.0
-1.20912100638401 4:0.020095860585570335 7:1.0
1.20912100638401 10:1.0 13:1.0
1.20912100638401 4:0.03900931030511856 7:0.800000011920929
1.20912100638401 7:0.800000011920929
1.20912100638401 11:1.0
1.20912100638401 4:0.11905183643102646 13:1.0
-1.20912100638401 4:0.018649369478225708 13:1.0
1.20912100638401 11:1.0
1.20912100638401 13:1.0
-1.20912100638401 13:1.0
1.20912100638401 7:0.800000011920929
1.20912100638401 13:1.0
-1.20912100638401 13:1.0
1.20912100638401 7:0.800000011920929
1.20912100638401 13:1.0
-1.20912100638401 13:1.0
1.20912100638401 13:1.0
-1.20912100638401 13:1.0
1.20912100638401 9:1.0
1.20912100638401 9:1.0
-1.20912100638401 4:0.11905183643102646 10:1.0
-1.20912100638401 4:0.01719626970589161 7:1.0
-1.20912100638401 13:1.0
1.20912100638401 14:1.0
-1.20912100638401 4:0.001399399945512414 7:1.0 10:1.0 14:1.0
1.20912100638401 10:1.0 13:1.0
1.20912100638401 7:0.800000011920929
-1.20912100638401 13:1.0
-1.20912100638401 9:1.0
1.20912100638401 10:1.0 13:1.0
-1.20912100638401 3:0.09098046272993088 10:1.0
-1.2091209135958394 4:0.11905183643102646 10:1.0
1.20912100638401 9:1.0
-1.20912100638401 13:1.0
1.20912100638401 7:0.800000011920929
-1.20912100638401 4:0.012152059935033321 7:1.0
1.20912100638401 10:1.0 13:1.0
1.20912100638401 13:1.0
-1.20912100638401 13:1.0
-1.1872444208233697 4:0.11905183643102646 9:1.0 10:1.0
-1.20912100638401 9:1.0 10:1.0
-1.20912100638401 13:1.0
1.20912100638401 7:0.800000011920929
-1.20912100638401 7:1.0
1.20912100638401 9:1.0
-1.0844626226889469 13:1.0
1.20912100638401 13:1.0
-1.20912100638401 13:1.0
-1.20912100638401 11:1.0
-1.20912100638401 13:1.0
1.20912100638401 9:1.0
-0.4114360148524858 9:1.0
-1.20912100638401 9:1.0
1.20912100638401 13:1.0
1.20912100638401 9:1.0
-1.20912100638401 4:0.018484799191355705 11:1.0
-1.20912100638401 11:1.0
1.20912100638401 7:0.800000011920929
1.20912100638401 11:1.0
-1.20912100638401 7:1.0
-1.20912100638401 11:1.0
1.20912100638401 7:0.800000011920929
1.20912100638401 11:1.0
-1.20912100638401 7:1.0
-1.20912100638401 11:1.0
-1.20912100638401 13:1.0
1.20912100638401 11:1.0
1.20912100638401 13:1.0
1.20912100638401 11:1.0
-1.20912100638401 13:1.0
-1.20912100638401 4:0.012855679728090763 11:1.0
-1.20912100638401 11:1.0
1.20912100638401 13:1.0
1.20912100638401 11:1.0
-1.20912100638401 9:1.0
-1.106330541014131 3:0.08836867660284042
1.20912100638401 7:0.800000011920929
1.20912100638401 13:1.0
1.20912100638401 9:1.0 11:1.0
1.20912100638401 9:1.0
1.20912100638401 7:0.800000011920929
-1.20912100638401 7:0.6952000260353088
-1.20912100638401 9:1.0
1.20912100638401 4:0.03900931030511856 7:0.800000011920929
1.20912100638401 7:0.800000011920929
-1.20912100638401 7:0.6880000233650208
1.20912100638401 9:1.0
-1.20912100638401 9:1.0
1.20912100638401 3:0.08244471997022629
1.20912100638401 9:1.0
-1.20912100638401 9:1.0
1.20912100638401 7:0.800000011920929
-1.20912100638401 11:1.0
1.20912100638401 6:1.0
-1.20912100638401 6:1.0
1.20912100638401 11:1.0
1.20912100638401 6:1.0
-1.20912100638401 6:1.0
1.20912100638401 11:1.0
1.20912100638401 6:1.0
1.20912100638401 4:0.015734490007162094
-1.20912100638401 6:1.0
1.20912100638401 9:1.0
-1.20912100638401 6:1.0
1.20912100638401 9:1.0
-1.20912100638401 14:1.0
-1.20912100638401 13:1.0
1.20912100638401 4:0.05028887838125229 10:1.0
1.20912100638401 4:0.0161374993622303 10:1.0
1.20912100638401 10:1.0
-1.20912100638401 11:1.0
-1.20912100638401 4:0.012606129981577396 7:1.0
-1.20912100638401 7:1.0
-1.20912100638401 9:1.0
1.20912100638401 11:1.0
-1.20912100638401 11:1.0
-1.20912100638401 9:1.0
1.20912100638401 13:1.0
1.20912100638401 9:1.0
-1.20912100638401 13:1.0
1.20912100638401 7:0.800000011920929
-1.20912100638401 7:1.0
-1.20912100638401 9:1.0
1.20912100638401 7:0.800000011920929
1.20912100638401 3:0.08836867660284042 4:0.11905183643102646 10:1.0 11:1.0
-1.20912100638401 11:1.0
1.20912100638401 9:1.0
-1.20912100638401 7:1.0
1.20912100638401 11:1.0
1.20912100638401 7:1.0 10:1.0
-1.20912100638401 11:1.0
-1.20912100638401 7:1.0
1.20912100638401 11:1.0
1.20912100638401 7:0.800000011920929
1.20912100638401 13:1.0
1.20912100638401 11:1.0
-1.20912100638401 9:1.0
-1.20912100638401 3:0.07354628294706345
1.20912100638401 9:1.0 11:1.0
-1.20912100638401 11:1.0
1.20912100638401 7:0.800000011920929 10:1.0
1.20912100638401 7:0.800000011920929
1.20912100638401 9:1.0
-1.20912100638401 9:1.0
-1.20912100638401 11:1.0
-1.20912100638401 9:1.0
1.20912100638401 11:1.0
1.20912100638401 9:1.0
-1.20912100638401 11:1.0
-1.2088933131667279 9:1.0
1.20912100638401 11:1.0
1.20912100638401 9:1.0
-1.20912100638401 11:1.0
-1.20912100638401 9:1.0
1.20912100638401 11:1.0
1.20912100638401 9:1.0
-1.20912100638401 11:1.0
-1.20912100638401 9:1.0
1.20912100638401 11:1.0
1.20912100638401 9:1.0
-1.20912100638401 11:1.0
-1.20912100638401 9:1.0
1.20912100638401 11:1.0
1.20912100638401 9:1.0
-1.20912100638401 11:1.0
-1.20912100638401 11:1.0
1.20912100638401 11:1.0
-1.20912100638401 9:1.0
1.20912100638401 11:1.0
1.20912100638401 9:1.0
-1.20912100638401 11:1.0
-1.2070544606300813 9:1.0
1.20912100638401 11:1.0
1.20912100638401 9:1.0
-1.20912100638401 11:1.0
-1.20912100638401 9:1.0
1.20912100638401 11:1.0
1.20912100638401 9:1.0
-1.20912100638401 11:1.0
-1.2046655996222189 9:1.0
1.20912100638401 11:1.0
1.20912100638401 9:1.0
-1.20912100638401 11:1.0
-1.20912100638401 9:1.0
1.20912100638401 11:1.0
1.20912100638401 9:1.0
-1.20912100638401 11:1.0
-1.20912100638401 9:1.0
-1.20912100638401 11:1.0
1.20912100638401 9:1.0
-1.20912100638401 9:1.0
1.20912100638401 11:1.0
1.20912100638401 9:1.0
-1.20912100638401 9:1.0
1.20912100638401 11:1.0
-1.20912100638401 9:1.0
1.20912100638401 9:1.0
-1.20912100638401 9:1.0
1.20912100638401 9:1.0
-1.20912100638401 9:1.0
1.20912100638401 9:1.0
-1.20912100638401 9:1.0
1.20912100638401 9:1.0
-1.20912100638401 9:1.0
1.20912100638401 9:1.0
-1.20912100638401 9:1.0
1.20912100638401 9:1.0
-1.20912100638401 9:1.0
1.20912100638401 9:1.0
-1.20912100638401 9:1.0
1.20912100638401 9:1.0
-1.20912100638401 9:1.0
1.20912100638401 9:1.0
-1.20912100638401 9:1.0
1.20912100638401 9:1.0
-1.20912100638401 9:1.0
1.20912100638401 9:1.0
-1.20912100638401 9:1.0
1.20912100638401 9:1.0
-1.20912100638401 9:1.0
1.20912100638401 9:1.0
-1.20912100638401 9:1.0
1.20912100638401 9:1.0
-1.20912100638401 9:1.0
1.20912100638401 9:1.0
-1.20912100638401 9:1.0
1.20912100638401 9:1.0
-1.20912100638401 9:1.0
1.20912100638401 9:1.0
-1.20912100638401 9:1.0
1.20912100638401 9:1.0
-1.20912100638401 7:1.0 10:1.0
1.20912100638401 9:1.0 14:1.0
-1.20912100638401 11:1.0 14:1.0
1.20912100638401 9:1.0 10:1.0
-1.20912100638401 10:1.0
1.20912100638401 4:0.11905183643102646 10:1.0 11:1.0
-1.20912100638401 10:1.0
1.20912100638401 13:1.0
1.20912100638401 10:1.0 14:1.0
-1.20912100638401 11:1.0 14:1.0
-1.20912100638401 10:1.0 14:1.0
1.20912100638401 7:0.5120000243186951 14:1.0
-1.20912100638401 13:1.0
-1.20912100638401 9:1.0
-1.20912100638401 10:1.0 14:1.0
1.20912100638401 9:1.0 14:1.0
1.20912100638401 10:1.0
1.20912100638401 10:1.0 14:1.0
-1.20912100638401 9:1.0
1.20912100638401 1:0.617554247379303 2:1.0 4:0.009583559818565845 9:1.0
-1.20912100638401 9:1.0
1.20912100638401 7:0.800000011920929 14:1.0
-1.20912100638401 10:1.0 14:1.0
1.20912100638401 1:0.7408774495124817 2:1.0 7:0.6399999856948853 13:1.0
1.20912100638401 14:1.0
-1.20912100638401 10:1.0 14:1.0
1.20912100638401 10:1.0
-1.20912100638401 4:0.03900931030511856 7:0.800000011920929 10:1.0
-1.20912100638401 7:0.800000011920929 10:1.0
1.20912100638401 7:1.0 10:1.0
-1.20912100638401 9:1.0
1.20912100638401 9:1.0 10:1.0 14:1.0
-1.20912100638401 10:1.0 14:1.0
-1.20912100638401 7:0.800000011920929 10:1.0
1.20912100638401 14:1.0
1.20912100638401 10:1.0
-1.20912100638401 10:1.0 14:1.0
1.20912100638401 10:1.0
-0.9906023141603426 3:0.09098046272993088 10:1.0
-1.20912100638401 4:0.11905183643102646 10:1.0
1.20912100638401 10:1.0
-1.20912100638401 10:1.0
1.20912100638401 10:1.0
-1.20912100638401 10:1.0
1.20912100638401 10:1.0
-1.20912100638401 10:1.0
1.20912100638401 10:1.0
-1.20912100638401 10:1.0
1.20912100638401 10:1.0
-1.20912100638401 10:1.0
1.20912100638401 10:1.0
-1.20912100638401 10:1.0
-1.20912100638401 11:1.0
1.20912100638401 7:0.800000011920929 10:1.0
-1.20912100638401 4:0.00734516978263855 7:0.5120000243186951 10:1.0
1.20912100638401 10:1.0
-1.20912100638401 7:0.8199999928474426 10:1.0
1.20912100638401 14:1.0
-1.20912100638401 11:1.0 14:1.0
1.20912100638401 7:0.800000011920929 10:1.0
-1.20912100638401 7:0.800000011920929 10:1.0
-1.20912100638401 3:0.07354628294706345 10:1.0
-1.20912100638401 10:1.0
1.20912100638401 7:0.5120000243186951 14:1.0
1.20912100638401 10:1.0
1.20912100638401 7:0.800000011920929 10:1.0
1.20912100638401 10:1.0
1.20912100638401 10:1.0
-1.20912100638401 7:0.6399999856948853 14:1.0
-1.6784437403316588E-4 4:0.022499119862914085 7:0.6399999856948853 10:1.0
-0.8314657120119765 9:1.0 10:1.0
-1.20912100638401 10:1.0
1.20912100638401 4:0.11905183643102646 10:1.0 11:1.0
-1.20912100638401 7:1.0 10:1.0
1.20912100638401 10:1.0
-1.20912100638401 7:1.0 10:1.0
1.20912100638401 14:1.0
-1.20912100638401 11:1.0
1.20912100638401 7:0.6399999856948853 10:1.0
-1.20912100638401 4:0.11905183643102646 10:1.0
1.20912100638401 10:1.0
-1.1467030867095376 7:0.800000011920929 10:1.0
-1.20912100638401 10:1.0
1.20912100638401 10:1.0
-1.20912100638401 10:1.0
1.20912100638401 10:1.0
-1.20912100638401 10:1.0
1.20912100638401 10:1.0
-1.20912100638401 10:1.0
1.20912100638401 10:1.0
-1.20912100638401 10:1.0
1.20912100638401 10:1.0
-1.20912100638401 10:1.0
1.20912100638401 10:1.0
-1.20912100638401 10:1.0
1.20912100638401 10:1.0
-1.20912100638401 10:1.0
1.20912100638401 10:1.0
-1.20912100638401 10:1.0
1.20912100638401 10:1.0
-1.20912100638401 10:1.0
1.20912100638401 10:1.0
-1.20912100638401 10:1.0
1.20912100638401 10:1.0
-1.20912100638401 10:1.0
1.20912100638401 10:1.0
-1.20912100638401 10:1.0
1.20912100638401 10:1.0
-1.20912100638401 10:1.0
1.20912100638401 10:1.0
-1.20912100638401 10:1.0
1.20912100638401 10:1.0
-1.20912100638401 10:1.0
1.20912100638401 10:1.0
-1.20912100638401 10:1.0
1.20912100638401 10:1.0
-1.20912100638401 10:1.0
1.20912100638401 10:1.0
-1.20912100638401 10:1.0
1.20912100638401 10:1.0
-1.20912100638401 10:1.0
1.20912100638401 10:1.0
-1.20912100638401 10:1.0
1.20912100638401 10:1.0
-1.20912100638401 10:1.0
1.20912100638401 10:1.0
-1.20912100638401 10:1.0
1.20912100638401 10:1.0
-1.20912100638401 10:1.0
1.20912100638401 10:1.0
-1.20912100638401 10:1.0
1.20912100638401 10:1.0
-1.20912100638401 10:1.0
1.20912100638401 10:1.0
-1.20912100638401 10:1.0
1.20912100638401 10:1.0
-1.20912100638401 10:1.0
1.20912100638401 10:1.0
-1.20912100638401 10:1.0
1.20912100638401 10:1.0
-1.20912100638401 10:1.0
1.20912100638401 10:1.0
-1.20912100638401 10:1.0
1.20912100638401 10:1.0
-1.20912100638401 10:1.0
1.20912100638401 10:1.0
-1.20912100638401 10:1.0
1.20912100638401 10:1.0
-1.20912100638401 10:1.0
1.20912100638401 10:1.0
-1.20912100638401 10:1.0
1.20912100638401 10:1.0
-1.20912100638401 10:1.0
1.20912100638401 10:1.0
-1.20912100638401 10:1.0
1.20912100638401 10:1.0
-1.20912100638401 10:1.0
1.20912100638401 10:1.0
-1.20912100638401 10:1.0
1.20912100638401 10:1.0
-1.20912100638401 10:1.0
1.20912100638401 10:1.0
-1.20912100638401 10:1.0
1.20912100638401 10:1.0
-1.20912100638401 10:1.0
1.20912100638401 10:1.0
-1.20912100638401 10:1.0
1.20912100638401 10:1.0
-1.20912100638401 10:1.0
1.20912100638401 10:1.0
-1.20912100638401 10:1.0
1.20912100638401 10:1.0
-1.20912100638401 10:1.0
1.20912100638401 10:1.0
-1.20912100638401 10:1.0
1.20912100638401 10:1.0
-1.20912100638401 10:1.0
1.20912100638401 10:1.0
-1.20912100638401 10:1.0
1.20912100638401 10:1.0
-1.20912100638401 10:1.0
1.20912100638401 10:1.0
-1.20912100638401 10:1.0
1.20912100638401 10:1.0
-1.20912100638401 10:1.0
1.20912100638401 10:1.0
-1.20912100638401 10:1.0
1.20912100638401 10:1.0
-1.20912100638401 10:1.0
1.20912100638401 10:1.0
-1.20912100638401 10:1.0
1.20912100638401 10:1.0
-1.20912100638401 10:1.0
1.20912100638401 10:1.0
-1.20912100638401 10:1.0
1.20912100638401 10:1.0
-1.20912100638401 10:1.0
1.20912100638401 10:1.0
-1.20912100638401 10:1.0
1.20912100638401 10:1.0
-1.20912100638401 10:1.0
1.20912100638401 10:1.0
-1.20912100638401 10:1.0
1.20912100638401 10:1.0
-1.20912100638401 10:1.0
1.20912100638401 10:1.0
-1.20912100638401 10:1.0
1.20912100638401 10:1.0
-1.20912100638401 10:1.0
1.20912100638401 10:1.0
-1.20912100638401 10:1.0
1.20912100638401 10:1.0
-1.20912100638401 10:1.0
1.20912100638401 10:1.0
-1.20912100638401 10:1.0
1.20912100638401 10:1.0
-1.20912100638401 10:1.0
1.20912100638401 10:1.0
-1.20912100638401 10:1.0
1.20912100638401 10:1.0
-1.20912100638401 10:1.0
1.20912100638401 10:1.0
-1.20912100638401 10:1.0
1.20912100638401 10:1.0
-1.20912100638401 10:1.0
1.20912100638401 10:1.0
-1.20912100638401 10:1.0
1.20912100638401 10:1.0
-1.20912100638401 10:1.0
1.20912100638401 10:1.0
-1.20912100638401 10:1.0
1.20912100638401 10:1.0
-1.20912100638401 10:1.0
1.20912100638401 10:1.0
-1.20912100638401 10:1.0
1.20912100638401 10:1.0
-1.20912100638401 10:1.0
1.20912100638401 10:1.0
-1.20912100638401 10:1.0
1.20912100638401 10:1.0
-1.20912100638401 10:1.0
1.20912100638401 10:1.0
-1.20912100638401 10:1.0
1.20912100638401 10:1.0
-1.20912100638401 10:1.0
1.20912100638401 10:1.0
-1.20912100638401 10:1.0
1.20912100638401 10:1.0
-1.20912100638401 10:1.0
1.20912100638401 10:1.0
-1.20912100638401 10:1.0
1.20912100638401 10:1.0
-1.20912100638401 10:1.0
1.20912100638401 10:1.0
-1.20912100638401 10:1.0
1.20912100638401 10:1.0
1.20912100638401 7:0.6399999856948853 14:1.0
-1.20912100638401 14:1.0
-1.20912100638401 14:1.0
1.20912100638401 1:0.6995039582252502 2:1.0
-1.20912100638401 10:1.0
0.45934018395630866 1:0.7816818356513977 2:1.0 9:1.0 10:1.0
1.20912100638401 1:0.769237220287323 2:1.0 9:1.0
-1.20912100638401 13:1.0
-1.20912100638401 13:1.0
1.20912100638401 1:0.7596241235733032 2:1.0
1.20912100638401 1:0.7371317148208618 2:1.0 4:0.11905183643102646 10:1.0 11:1.0 13:1.0
-0.03214256646188263 7:0.800000011920929 10:1.0
1.20912100638401 1:0.757050096988678 2:1.0 10:1.0
-0.006420521276581342 7:0.800000011920929 11:1.0
-0.876196364008905 4:0.11905183643102646 10:1.0
-0.0045927516812209745 7:0.800000011920929 10:1.0
-0.3551393096106429 4:0.11905183643102646 10:1.0
-0.017907646591766024 7:0.800000011920929 10:1.0
-3.648854919902078E-5 4:0.017280874773859978 7:0.7559999823570251 10:1.0
-0.007323043668777396 4:0.017280874773859978 7:0.7559999823570251 10:1.0
-0.07412871853016996 13:1.0
-0.0022557215505876194 13:1.0
-0.0013249267562241412 7:0.800000011920929 10:1.0
-0.009328004904360032 10:1.0
0.02306946677558075 1:0.7779474854469299 2:1.0 7:0.800000011920929 10:1.0 13:1.0
-0.004970612052912826 11:1.0
-0.004270196977864349 11:1.0
-0.002391940323297037 10:1.0
-0.0019612563502138247 11:1.0
-9.553789644092224E-4 7:0.6399999856948853 10:1.0
-2.2769321729343428E-4 7:1.0
-0.0018512025477464555 7:1.0
