SVM-light Version V6.01
0 # kernel type
3 # kernel parameter -d
1.0 # kernel parameter -g
1.0 # kernel parameter -s
0.0 # kernel parameter -r
empty# kernel parameter -u
7 # highest feature index
893 # number of training documents
146 # number of support vectors plus 1
0.9518249948420473 # threshold b, each following line is a SV (starting with alpha*y)
-2.868298585533475 7:0.6399999856948853
2.868298585533475 7:0.918666660785675
-2.868298585533475 7:1.0
2.868298585533475 4:0.019158700481057167
-2.868298585533475 4:0.11905183643102646
2.868298585533475 7:1.0
2.868298585533475 4:0.11905183643102646
-2.868298585533475 7:1.0
-2.868298585533475 4:0.11905183643102646
2.868298585533475 7:1.0
2.868298585533475 3:0.05793677270412445 4:0.11905183643102646
-2.868298585533475 7:1.0
2.868298585533475 4:0.11905183643102646
-2.868298585533475 4:0.11905183643102646
2.868298585533475 7:1.0
-2.868298585533475 7:1.0
2.868298585533475 4:0.11905183643102646
-2.868298585533475 4:0.11905183643102646
2.868298585533475 7:1.0
-2.868298585533475 7:1.0
2.868298585533475 4:0.11905183643102646
-2.868298585533475 4:0.11905183643102646
2.868298585533475 7:1.0
-2.868298585533475 7:1.0
-2.868298585533475 3:0.09098046272993088
2.868298585533475 7:1.0
-2.868298585533475 4:0.021157899871468544 7:1.0
2.868298585533475 3:0.08392403274774551
-2.868298585533475 3:0.09098046272993088
2.868298585533475 4:0.04755135998129845 7:1.0
-2.868298585533475 4:0.020095860585570335 7:1.0
2.868298585533475 3:0.08244471997022629
-2.868298585533475 3:0.08836867660284042
2.868298585533475 7:1.0
-2.868298585533475 4:0.012606129981577396 7:1.0
2.868298585533475 3:0.043310701847076416
-2.868298585533475 4:0.11905183643102646
2.868298585533475 7:1.0
2.868298585533475 3:0.08836867660284042 4:0.11905183643102646
2.868298585533475 3:0.06015909090638161 4:0.11905183643102646
-2.868298585533475 7:1.0
-2.868298585533475 3:0.07354628294706345
2.868298585533475 7:1.0
-2.868298585533475 4:0.012152059935033321 7:1.0
2.868298585533475 6:1.0
-2.868298585533475 6:1.0
2.868298585533475 7:1.0
-2.868298585533475 4:0.011537199839949608 7:1.0
2.868298585533475 4:0.05028887838125229
2.868298585533475 6:1.0
-2.868298585533475 6:1.0
2.868298585533475 7:0.8999999761581421
-2.868298585533475 3:0.07354628294706345
-2.868298585533475 4:0.011537199839949608 7:1.0
2.868298585533475 3:0.04108837991952896
2.868298585533475 4:0.04789375886321068 7:0.800000011920929
-2.868298585533475 4:0.11905183643102646
2.868298585533475 7:0.800000011920929
-2.868298585533475 7:1.0
-2.868298585533475 4:0.11905183643102646
2.868298585533475 7:0.800000011920929
-2.868298585533475 7:1.0
-2.868298585533475 3:0.07354628294706345
2.868298585533475 4:0.04668312892317772
2.868298585533475 4:0.04789375886321068 7:0.800000011920929
-2.868298585533475 4:0.010223610326647758 7:1.0
2.868298585533475 6:1.0
-2.868298585533475 6:1.0
-2.6700237925207855 4:0.11905183643102646
2.868298585533475 7:0.800000011920929
-2.868298585533475 7:1.0
-2.868298585533475 7:1.0
2.868298585533475 4:0.04597998037934303 7:0.800000011920929
2.868298585533475 4:0.015734490007162094
-2.868298585533475 4:0.11905183643102646
2.868298585533475 7:0.800000011920929
2.868298585533475 4:0.037511199712753296
-2.868298585533475 7:1.0
-2.868298585533475 4:2.7630000840872526E-4
2.868298585533475 4:0.03900931030511856 7:0.800000011920929
-2.868298585533475 7:1.0
2.868298585533475 4:0.029565220698714256
-2.868298585533475 4:2.7630000840872526E-4
-2.868298585533475 4:0.11905183643102646
2.868298585533475 7:0.800000011920929
-2.868298585533475 7:1.0
2.868298585533475 7:0.800000011920929
2.868298585533475 4:0.015734490007162094
-2.868298585533475 4:6.479099974967539E-4
-2.868298585533475 7:1.0
2.868298585533475 7:0.800000011920929
2.868298585533475 7:0.5120000243186951
-2.868298585533475 4:6.479099974967539E-4
-2.868298585533475 7:1.0
2.868298585533475 7:0.800000011920929
-2.868298585533475 7:1.0
2.868298585533475 7:0.5120000243186951
-2.868298585533475 4:6.479099974967539E-4
2.868298585533475 7:0.800000011920929
-2.868298585533475 7:0.7200000286102295
2.868298585533475 7:0.800000011920929
-2.868298585533475 7:1.0
2.868298585533475 7:0.6399999856948853
2.868298585533475 7:0.6399999856948853
-2.868298585533475 7:1.0
2.868298585533475 7:0.6399999856948853
-2.868298585533475 4:0.011724329553544521
2.868298585533475 7:0.6399999856948853
2.868298585533475 7:0.6399999856948853
-2.868298585533475 7:1.0
-0.2738152360979481 7:1.0
2.868298585533475 7:0.6399999856948853
-2.868298585533475 7:1.0
-2.868298585533475 4:6.479099974967539E-4
2.868298585533475 7:0.800000011920929
2.868298585533475 7:0.6800000071525574
-2.868298585533475 7:1.0
2.868298585533475 7:0.7200000286102295
-2.868298585533475 7:1.0
-2.868298585533475 4:6.479099974967539E-4
2.868298585533475 7:0.800000011920929
-2.868298585533475 7:1.0
2.868298585533475 7:0.7559999823570251
-2.868298585533475 7:1.0
2.868298585533475 7:0.800000011920929
2.868298585533475 7:0.800000011920929
-2.868298585533475 7:1.0
-2.868298585533475 4:6.479099974967539E-4
2.868298585533475 7:0.800000011920929
2.868298585533475 7:0.800000011920929
-2.868298585533475 7:1.0
2.868298585533475 7:0.800000011920929
-2.868298585533475 7:1.0
2.868298585533475 7:0.800000011920929
-2.868298585533475 7:1.0
2.868298585533475 7:0.800000011920929
-2.868298585533475 7:1.0
2.868298585533475 7:0.800000011920929
-2.792758142448217 4:6.479099974967539E-4
2.868298585533475 7:0.800000011920929
-2.868298585533475 7:1.0
2.868298585533475 7:0.800000011920929
-2.868298585533475 7:1.0
2.868298585533475 7:0.800000011920929
-2.868298585533475 7:1.0
